1 -1.252763 0.4818121 -0.2578291 0.4152829
2 -1.436305 0.4643593 -0.9808293 0.4564354
3 -0.8338145 0.4147769 -0.7137665 0.4980118
4 -0.8856259 0.4294942 -1.516347 0.4642212
5 -0.9923369 0.4360782 -0.5496236 0.5316605
6 -0.9444616 0.4233275 -0.5564203 0.4345567
7 -1.426009 0.4439204 0.4703789 0.4893376
8 -1.735247 0.4962268 -1.045969 0.4288938
9 -0.9115175 0.4368269 -0.784119 0.4239357
10 -1.061518 0.5079612 -0.5389965 0.4272465
11 -1.62186 0.5558697 -0.5245245 0.4211173
12 -1.239926 0.5029099 -0.6631313 0.4410653
13 -1.345709 0.4434841 0.5389965 0.4692952
14 -1.275185 0.4654784 -0.6405034 0.4327624
15 -1.368742 0.4313371 -0.942893 0.4457037
16 -1.026799 0.4694582 -1.082864 0.485402
17 -1.832088 0.519525 -0.8644189 0.4234789
18 -0.9409833 0.4714943 -0.4150215 0.4090487
19 -0.8856259 0.4294942 -0.1784077 0.4227496
20 -1.502882 0.523718 -0.8299061 0.4378935
21 -0.8472979 0.4186144 -0.6869552 0.4192294
22 -1.024504 0.4446558 -0.7672552 0.4187675
23 -0.9044563 0.4126686 -1.335455 0.4805323
24 -1.024504 0.4446558 -0.8602013 0.4470831
25 -0.9115175 0.4368269 -0.5245245 0.4211173
26 -1.045969 0.4288938 1.110223e-15 0.4999999
27 -1.063521 0.4550843 -0.8644189 0.4234789
28 -1.15268 0.435487 0.09047758 0.4254859
29 -1.150728 0.4166666 -0.5126097 0.4160295
30 -0.9444616 0.4233275 -1.921813 0.4677977
31 -0.8644189 0.4234789 -1.072637 0.4356342
32 -1.068759 0.4152829 -0.7137665 0.4980118
33 -1.16868 0.4834244 -0.106711 0.4621676
34 -1.082864 0.485402 -0.5773154 0.4432319
35 -1.386294 0.4527692 -0.7537718 0.4146224
36 -0.942893 0.4457037 -0.5389965 0.4692952
37 -0.9808293 0.4564354 1.829838e-16 0.4120428
38 -1.306252 0.4529107 -0.7230001 0.462738
39 -1.497885 0.4788776 -1.193574 0.4664795
40 -1.026799 0.4694582 -0.3212048 0.4644956
41 -1.145132 0.4540581 -8.910324e-17 0.4012853
42 -1.386294 0.4527692 -0.8236369 0.411876
43 -0.8856259 0.4294942 -0.4855078 0.4043038
44 -0.8472979 0.4186144 -1.072637 0.4356342
45 -0.8981375 0.4109834 -0.4953214 0.4085753
46 -0.9444616 0.4233275 0.106711 0.4621676
47 -1.045969 0.4288938 -0.8967461 0.4581371
48 -1.345709 0.4434841 -0.08793007 0.4194426
49 -1.502882 0.523718 -0.7672552 0.4187675
50 -1.443453 0.5604439 -0.4893853 0.4458424
51 -1.105324 0.4439204 -1.265666 0.4433396
52 -0.9409833 0.4714943 0.2642236 0.4204775
53 -1.159237 0.4186228 -0.6737291 0.4147769
54 -1.08846 0.4200081 -0.4706044 0.4367556
55 -0.9659258 0.4290433 -1.417066 0.4795581
56 -1.072637 0.4356342 -1.082864 0.485402
57 -0.8644189 0.4234789 -0.7472144 0.4392975
58 -0.8123216 0.4086459 -0.3826743 0.4394047
59 -0.9115175 0.4368269 -0.784119 0.4239357
60 -1.082864 0.485402 -0.3212048 0.4644956
61 -1.627456 0.4540581 -0.4706044 0.4367556
62 -0.9808293 0.4564354 -0.8048065 0.4302543
63 -0.9659258 0.4290433 0.5118946 0.4565761
64 -0.9273406 0.4187675 -0.942893 0.4457037
65 -1.026799 0.4694582 -0.7693214 0.5196757
66 -1.443453 0.5604439 -1.239926 0.5029099
67 -0.9115175 0.4368269 -0.5389965 0.4272465
68 -1.436305 0.4643593 0.09352606 0.432608
69 -0.9949339 0.4160295 -0.8967461 0.4581371
70 -1.506828 0.4446558 -0.7761181 0.4488203
71 -0.9409833 0.4714943 -0.8530533 0.4739492
72 -1.082864 0.485402 -0.8299061 0.4378935
73 -0.942893 0.4457037 -0.3577496 0.4244145
74 -0.9923369 0.4360782 0.1986707 0.4463048
75 -0.9115175 0.4368269 0.2082179 0.4570067
76 -0.9949339 0.4877869 -0.2811674 0.4339732
77 -1.335455 0.4805323 -0.173746 0.4171525
78 -1.904237 0.6707019 -1.497885 0.4788776
79 -1.558145 0.4392975 -0.3403258 0.4784871
80 -1.275185 0.4654784 -0.8236369 0.411876
81 -1.170071 0.4211173 -0.8530533 0.4739492
82 -1.466337 0.4529107 -0.6903022 0.4509496
83 -1.999977 0.4526444 -0.2719337 0.4266656
84 -1.43401 0.4290639 0.363668 0.4951265
85 -1.436305 0.4643593 -0.8299061 0.4378935
86 -1.072637 0.4356342 -1.024504 0.4446558
87 -1.436305 0.4643593 -0.9464616 0.5416095
88 -1.252763 0.422577 -0.4549134 0.4290639
89 -0.9409833 0.4714943 -0.6405034 0.4327624
90 -0.8109302 0.4082483 9.801356e-16 0.4012853
91 -1.335455 0.4805323 -0.6737291 0.4147769
92 -1.072637 0.4356342 -0.09352606 0.432608
93 -1.024504 0.4446558 -1.151996 0.5052122
94 -1.145132 0.4540581 -0.8530533 0.4739492
95 -1.045969 0.4288938 -0.7357068 0.4090487
96 -0.8123216 0.4086459 -0.4309984 0.4171493
97 -0.9409833 0.4714943 -0.2719337 0.4266656
98 -1.225952 0.4533379 -0.5389965 0.4272465
99 -0.942893 0.4457037 -0.9949339 0.4877869
100 -1.105324 0.4439204 -1.026799 0.4694582
101 -0.9115175 0.4368269 -0.3690975 0.4312908
102 -1.99243 0.5190288 -0.5753641 0.4084183
103 -0.9923369 0.4360782 -0.173746 0.4171525
104 -1.578185 0.4784736 0.2921968 0.4425626
105 -1.145132 0.4540581 -0.784119 0.4239357
106 -1.738271 0.4784736 8.946338e-17 0.4029072
107 -1.267235 0.4258028 -0.08793007 0.4194426
108 -1.621333 0.4367556 -0.9923369 0.4360782
109 -1.024504 0.4446558 -0.5245245 0.4211173
110 -0.9949339 0.4877869 -0.1667748 0.4086459
111 -0.9409833 0.4714943 -1.306252 0.4529107
112 -0.9409833 0.4714943 -0.9808293 0.4564354
113 -1.072637 0.4356342 -0.6216882 0.4258028
114 -0.8472979 0.4186144 -0.5126097 0.4160295
115 -1.110882 0.4677977 -1.110882 0.4677977
116 -1.325742 0.5010015 -1.259806e-15 0.4364356
117 -1.345709 0.4434841 -0.5245245 0.4211173
118 -0.9923369 0.4360782 -0.2578291 0.4152829
119 -1.252763 0.5669143 -0.7472144 0.4392975
120 -1.492517 0.4982115 -0.2642236 0.4204775
121 -1.238658 0.5303797 -0.6405034 0.4327624
122 -1.007641 0.4192294 -0.5118946 0.4565761
123 -0.8644189 0.4234789 2.69931e-15 0.4052204
124 -1.345709 0.4434841 -0.5695909 0.4062239
125 -0.942893 0.4457037 -1.045969 0.4288938
126 -1.045969 0.4288938 -0.2921968 0.4425626
127 -1.126011 0.4290433 -1.024504 0.4234789
128 -1.417066 0.525544 -0.3292056 0.4067001
129 -1.185624 0.4434841 -0.8967461 0.4581371
130 -1.349927 0.4272465 -0.2578291 0.4152829
131 -1.024504 0.4446558 -0.6216882 0.4258028
132 -0.9444616 0.4233275 -0.3925617 0.5151306
133 -1.417066 0.4795581 -0.8644189 0.4234789
134 -1.43401 0.4290639 -0.2525908 0.4109834
135 -0.9808293 0.4564354 -1.185624 0.4247058
136 -1.126011 0.4290433 -1.393842 0.4368269
137 -0.8472979 0.4186144 -0.5389965 0.4692952
138 -1.026799 0.4694582 -0.5245245 0.4211173
139 -1.185624 0.4247058 -0.6325226 0.4657377
140 -0.9659258 0.4290433 0 0.4682925
141 -0.9923369 0.4360782 -1.574128 0.4972743
142 -1.225952 0.4533379 -0.784119 0.4239357
143 -1.502882 0.523718 -0.4418328 0.4735041
144 -1.126011 0.4290433 0.08408312 0.4101499
145 -0.942893 0.4457037 -0.7672552 0.4187675
146 -1.15268 0.435487 -0.3826743 0.4394047
147 -1.104804 0.4239357 -0.6023722 0.4535157
148 -1.417066 0.525544 0.3053816 0.4526444
149 -0.9659258 0.4290433 -0.6405034 0.4327624
150 -0.8123216 0.4086459 -1.024504 0.4446558
151 -1.105324 0.4439204 -0.7032996 0.4247058
152 -0.8856259 0.4294942 0.173746 0.4171525
153 -1.497885 0.6090528 -0.5753641 0.4084183
154 -1.007641 0.4192294 -1.195791e-15 0.4682925
155 -1.502882 0.523718 -2.812419e-16 0.4222003
156 -1.110882 0.4677977 -0.1906898 0.4371704
157 -1.151996 0.5052122 -1.546637 0.4533379
158 -0.9949339 0.4877869 -0.1906898 0.4371704
159 -1.105324 0.4439204 -0.2196978 0.4695742
160 -1.89939 0.4795581 -0.106711 0.4621676
161 -0.9273406 0.4187675 0.1015069 0.4507285
162 -1.072637 0.4356342 -1.239926 0.5029099
163 -1.58844 0.4457037 -1.24332 0.4204775
164 -0.9923369 0.4360782 -0.08581592 0.4143612
165 -0.942893 0.4457037 -0.4221322 0.4126686
166 -1.063521 0.4550843 -5.062177e-17 0.4559604
167 -1.506828 0.4446558 0.3403258 0.4784871
168 -1.063521 0.4550843 -0.5832515 0.4114058
169 -0.9808293 0.4564354 -0.2451225 0.4047822
170 -1.67669 0.4647759 -0.3989077 0.4489551
171 -1.15268 0.435487 -1.072637 0.4356342
172 -1.126011 0.4290433 -0.7761181 0.4488203
173 -0.9790965 0.4120428 0.3254224 0.4043038
174 -1.061518 0.5079612 -0.4183685 0.4602043
175 -1.026799 0.4694582 -0.106711 0.4621676
176 -1.335455 0.4805323 -1.072637 0.4356342
177 -1.386294 0.4527692 -1.185624 0.4247058
178 -1.152842 0.4171525 0.2811674 0.4339732
179 -1.832088 0.519525 -1.287131 0.4302543
180 -0.9949339 0.4877869 -1.206311 0.4294942
181 -0.9949339 0.4877869 -0.5029516 0.411876
182 -1.045969 0.4288938 -0.7472144 0.4392975
183 -1.225952 0.4533379 -0.9273406 0.4187675
184 -1.225952 0.4533379 -0.3826743 0.4394047
185 -0.9808293 0.4564354 -0.7472144 0.4392975
186 -0.942893 0.4457037 -0.9409833 0.4714943
187 -2.152773 0.519525 -1.386294 0.4527692
188 -0.9409833 0.4714943 -0.4549134 0.4290639
189 -1.839121 0.4664795 -4.159273e-16 0.4682925
190 -1.170071 0.4211173 -1.151996 0.5052122
191 -1.193574 0.4664795 -1.206311 0.4294942
192 -1.110882 0.4677977 -0.942893 0.4457037
193 -1.193574 0.4664795 -0.106711 0.4621676
194 -1.15268 0.435487 -0.2642236 0.4204775
195 -0.8856259 0.4294942 -1.436305 0.4643593
196 -0.942893 0.4457037 -1.406209e-16 0.4222003
197 -1.024504 0.4446558 0.5389965 0.4692952
198 -1.466337 0.4529107 -0.9923369 0.4360782
199 -1.082864 0.485402 -0.8338145 0.4147769
200 -1.185624 0.4434841 -0.6325226 0.4657377
201 -1.345709 0.4434841 -0.4549134 0.4290639
202 -1.232722 0.4356342 0.1986707 0.4463048
203 -0.8338145 0.4147769 -0.7032996 0.4247058
204 -1.735247 0.4962268 -0.7231952 0.4313371
205 -0.942893 0.4457037 -0.6122595 0.5027519
206 -0.9949339 0.4877869 -0.5564203 0.4345567
207 -1.225952 0.4533379 -0.5773154 0.4432319
208 -1.975633 0.4966167 -1.417066 0.4795581
209 -0.9659258 0.4290433 -0.5245245 0.4211173
210 -1.193574 0.4664795 -0.6554069 0.4085753
211 -1.024504 0.4234789 -1.475453 0.4378935
212 -1.185624 0.4247058 -0.6023722 0.4535157
213 -1.59639 0.4643593 -0.4549134 0.4290639
214 -1.875843 0.4581371 -0.7625757 0.4768785
215 -1.265666 0.4433396 -0.8299061 0.4378935
216 -1.238658 0.4194426 -0.4309984 0.4171493
217 -0.8338145 0.4147769 -0.2483862 0.4075027
218 -0.9115175 0.4368269 -0.6903022 0.4509496
219 -0.9659258 0.4290433 -0.2451225 0.4047822
220 -1.417066 0.525544 -0.7472144 0.4392975
221 -1.329136 0.5277476 -0.8856259 0.4294942
222 -1.252763 0.422577 -0.7537718 0.4146224
223 -1.007641 0.4192294 -0.7230001 0.462738
224 -1.252763 0.5669143 -0.3292056 0.4067001
225 -1.007641 0.4192294 -0.9659258 0.4290433
226 -1.24332 0.4204775 -0.5832515 0.4114058
227 -0.8644189 0.4234789 -0.6325226 0.4657377
228 -1.185624 0.4434841 0.2719337 0.5232681
229 -0.9273406 0.4187675 0.3212048 0.4644956
230 -1.110882 0.4677977 -0.7307103 0.4075027
231 -1.356005 0.4647759 -0.5389965 0.4272465
232 -0.9659258 0.4290433 -0.3405208 0.4137975
233 -1.110882 0.4677977 -0.4183685 0.4602043
234 -1.345709 0.4434841 -0.7230001 0.462738
235 -1.356005 0.4647759 -0.5126097 0.4160295
236 -0.8123216 0.4086459 -0.09352606 0.432608
237 -0.8236369 0.411876 -0.2921968 0.4425626
238 -0.9923369 0.4360782 -0.3989077 0.4489551
239 -1.145132 0.4540581 -0.2811674 0.4339732
240 -1.072637 0.4356342 2.673097e-16 0.4012853
241 -1.497885 0.4788776 -0.7032996 0.4247058
242 -0.9115175 0.4368269 -0.5389965 0.4692952
243 -0.942893 0.4457037 -0.3690975 0.4312908
244 -1.206311 0.4294942 -0.4895482 0.4060661
245 -1.026799 0.4694582 -1.110882 0.4677977
246 -0.942893 0.4457037 -1.185624 0.4247058
247 -0.9949339 0.4160295 -0.4549134 0.4290639
248 -0.9115175 0.4368269 -0.9115175 0.4368269
249 -1.061518 0.5079612 -1.061518 0.5079612
250 -1.866983 0.5987859 -0.6631313 0.4410653
251 -1.238658 0.4194426 0.1300531 0.5103933
252 -1.185624 0.4434841 -0.5245245 0.4211173
253 -1.751268 0.5201536 -0.8123216 0.4086459
254 -1.045969 0.4288938 -0.3483067 0.4186228
255 -1.193574 0.4664795 -1.045969 0.4288938
256 -0.9115175 0.4368269 -0.1986707 0.4463048
257 -1.335455 0.4805323 -0.4549134 0.4290639
258 -1.024504 0.4234789 -0.6737291 0.4147769
259 -1.698233 0.4371704 -0.7307103 0.4075027
260 -1.185624 0.4434841 -0.2196978 0.4695742
261 -1.145132 0.5335063 -2.438387 0.5507762
262 -1.239926 0.5029099 2.967194e-16 0.4454351
263 -1.238658 0.5303797 -1.195791e-15 0.4682925
264 -1.325742 0.5010015 -0.6498909 0.4067001
265 -1.026799 0.4694582 -0.106711 0.4621676
266 -0.9444616 0.4233275 -1.225952 0.4533379
267 -1.007641 0.4192294 -0.2921968 0.4425626
268 -1.110882 0.4677977 3.749892e-16 0.4222003
269 -1.393842 0.4368269 -0.7672552 0.4187675
270 -0.9115175 0.4368269 -1.627456 0.4540581
271 -0.9115175 0.4368269 -0.8109302 0.4940117
272 -0.8644189 0.4234789 -0.2811674 0.4339732
273 -1.345709 0.4434841 -0.4309984 0.4171493
274 -0.9409833 0.4714943 -0.4289956 0.5395487
275 -1.082864 0.485402 -1.345709 0.4434841
276 -0.9923369 0.4360782 -0.8602013 0.4470831
277 -1.239926 0.5029099 -0.5934292 0.4152433
278 -1.598856 0.6813604 -0.5126097 0.4160295
279 -1.104804 0.4239357 -1.351764e-15 0.4682925
280 -1.586965 0.5222301 -0.9860676 0.4137975
281 -1.426009 0.4439204 -0.5773154 0.4432319
282 -0.9808293 0.4564354 -0.4418328 0.4735041
283 -1.007641 0.4192294 -0.7472144 0.4392975
284 -1.007641 0.4192294 -0.7761181 0.4488203
285 -1.275185 0.4654784 -0.6737291 0.4147769
286 -1.225952 0.4533379 -1.104804 0.4239357
287 -1.185624 0.4434841 -0.7761181 0.4488203
288 -1.076545 0.4171493 -0.8530533 0.4739492
289 -2.117182 0.5498307 4.945323e-16 0.4454351
290 -0.9808293 0.4564354 -1.325742 0.5010015
291 -1.045969 0.4288938 -0.1784077 0.4227496
292 -0.942893 0.4457037 -0.4953214 0.4085753
293 -1.104804 0.4239357 -0.2578291 0.4152829
294 -1.007641 0.4192294 -0.2483862 0.4075027
295 -0.9115175 0.4368269 -0.08793007 0.4194426
296 -1.16868 0.4834244 -0.9115175 0.4368269
297 -0.8644189 0.4234789 -0.8109302 0.4602233
298 -1.16868 0.4834244 -1.265666 0.4433396
299 -1.110882 0.4677977 -0.4309984 0.4171493
300 -1.335455 0.4805323 -0.5773154 0.4432319
301 -1.024504 0.4446558 -1.546637 0.4533379
302 -0.9949339 0.4160295 -0.6631313 0.4410653
303 -1.306252 0.4529107 -0.8602013 0.4470831
304 -1.185624 0.4434841 0.5029516 0.411876
305 -0.8472979 0.4186144 0.173746 0.4171525
306 -0.9923369 0.4360782 -1.466337 0.4529107
307 -1.225952 0.4533379 -0.6216882 0.4258028
308 -0.8338145 0.4147769 0.1624307 0.4032581
309 -1.422662 0.4266656 -0.6325226 0.4657377
310 -0.9044563 0.4126686 -1.151256 0.5710828
311 -1.08846 0.4200081 -0.1643031 0.4055887
312 -1.574128 0.4972743 -0.9860676 0.4137975
313 -1.335455 0.4805323 -0.9923369 0.4360782
314 -0.9409833 0.4714943 -0.5773154 0.4432319
315 -0.9808293 0.4564354 -0.6869552 0.4192294
316 -0.8644189 0.4234789 -0.6690496 0.4803534
317 -0.9409833 0.4714943 -0.3989077 0.4489551
318 -1.345709 0.4434841 -0.5934292 0.4152433
319 -0.9115175 0.4368269 -0.9923369 0.4360782
320 -1.252763 0.4818121 -0.7230001 0.462738
321 -1.492517 0.4982115 -1.026799 0.4694582
322 -0.9444616 0.4233275 -0.6869552 0.4192294
323 -1.110882 0.4677977 -0.2451225 0.4047822
324 -1.126011 0.4290433 -0.6631313 0.4410653
325 -1.232722 0.4356342 -0.9808293 0.4124789
326 -1.422662 0.4266656 -1.026799 0.4694582
327 -1.417066 0.525544 -0.9115175 0.4368269
328 -1.185624 0.4434841 -0.1015069 0.4507285
329 -0.942893 0.4457037 -1.206311 0.4294942
330 -1.252763 0.4818121 -1.409825 0.4994459
331 -1.063521 0.4550843 -0.6631313 0.4410653
332 -1.15268 0.435487 -1.16868 0.4834244
333 -1.082864 0.485402 -0.2642236 0.4204775
334 -1.417066 0.525544 -0.1015069 0.4507285
335 -1.110882 0.4677977 -1.105324 0.4439204
336 -0.8856259 0.4294942 -0.5564203 0.4345567
337 -1.688575 0.6030346 -0.6903022 0.4509496
338 -0.9115175 0.4368269 -0.173746 0.4171525
339 -0.8472979 0.4186144 -0.2921968 0.4425626
340 -0.9409833 0.4714943 -0.5773154 0.4432319
341 -0.9115175 0.4368269 -0.1015069 0.4507285
342 -0.9949339 0.4877869 -0.1906898 0.4371704
343 -1.24332 0.4204775 -0.5245245 0.4211173
344 -1.417066 0.4795581 -0.08029994 0.4008031
345 -1.275185 0.4654784 -0.8109302 0.4940117
346 -0.9659258 0.4290433 -0.4706044 0.4367556
347 -1.252763 0.4818121 -0.5389965 0.4272465
348 -0.942893 0.4457037 -0.7231952 0.4313371
349 -1.151996 0.5052122 -0.8109302 0.4602233
350 -0.9273406 0.4187675 -1.024504 0.4446558
351 -0.9409833 0.4714943 -0.4893853 0.4458424
352 -1.506828 0.4446558 -0.7761181 0.4488203
353 -1.345709 0.4434841 -0.7472144 0.4392975
354 -1.506828 0.4446558 -0.9141145 0.4152433
355 -1.007641 0.4192294 -0.08269172 0.4067372
356 -1.063521 0.4550843 0.1643031 0.4055887
357 -1.669657 0.5210497 -0.4150215 0.4090487
358 -0.8644189 0.4234789 2.035409e-15 0.4166666
359 -0.9444616 0.4233275 -1.026799 0.4694582
360 -0.9808293 0.4564354 -0.1603426 0.4006432
361 -1.466337 0.4529107 -0.5245245 0.4211173
362 0.9409833 0.4714943 -0.4309984 0.4171493
363 -1.981001 0.4805323 -0.6325226 0.4657377
364 -1.145132 0.4540581 -1.16868 0.4834244
365 -1.045969 0.4288938 -0.6554069 0.4085753
366 -1.502882 0.523718 -1.076545 0.4171493
367 -0.9923369 0.4360782 -0.5934292 0.4152433
368 -1.007641 0.4192294 -0.784119 0.4239357
369 -1.151996 0.5052122 -0.6690496 0.4803534
370 -0.9273406 0.4187675 -0.8048065 0.4302543
371 -1.063521 0.4550843 -0.4418328 0.4735041
372 -1.026799 0.4694582 -1.104804 0.4239357
373 -1.99243 0.5190288 -1.145132 0.5335063
374 -0.9115175 0.4368269 -0.7537718 0.4146224
375 -0.9808293 0.4124789 -0.4150215 0.4090487
376 -1.145132 0.4540581 -0.5564203 0.4345567
377 -0.9790965 0.4120428 -0.784119 0.4239357
378 -1.466337 0.4529107 -0.2451225 0.4047822
379 -1.026799 0.4694582 -1.076545 0.4171493
380 -1.519826 0.4312908 -0.9923369 0.4360782
381 -1.024504 0.4446558 -0.8530533 0.4739492
382 -1.275185 0.4654784 -0.9044563 0.4906335
383 -1.239926 0.5029099 -0.6325226 0.4657377
384 -0.9949339 0.4877869 -0.4095055 0.4062239
385 -0.8165262 0.4098468 -0.8299061 0.4378935
386 -0.9923369 0.4360782 -0.4706044 0.4367556
387 -1.306252 0.4529107 -0.9409833 0.4714943
388 -1.417066 0.4795581 -1.206311 0.4294942
389 -0.8472979 0.4186144 -0.5773154 0.4432319
390 -1.16868 0.4834244 -1.026799 0.4694582
391 -1.586965 0.5222301 -0.5389965 0.4272465
392 -1.232722 0.4356342 -0.8530533 0.4739492
393 -1.751268 0.5201536 -0.6869552 0.4192294
394 -1.443453 0.5604439 -0.7625757 0.4768785
395 -1.751268 0.5201536 -1.506828 0.4446558
396 -1.045969 0.4288938 -0.8530533 0.4739492
397 -0.8644189 0.4234789 -0.3989077 0.4489551
398 -1.329136 0.5277476 -1.193574 0.4664795
399 -0.9444616 0.4233275 -0.8530533 0.4739492
400 -1.185624 0.4247058 -0.6631313 0.4410653
401 -1.061518 0.5079612 -1.026799 0.4694582
402 -1.063521 0.4550843 -0.1906898 0.4371704
403 -1.151996 0.5052122 -1.151996 0.5052122
404 -1.975633 0.4966167 -0.1906898 0.4371704
405 -1.287131 0.4302543 -1.345709 0.4434841
406 -1.072637 0.4356342 -0.9115175 0.4368269
407 -1.024504 0.4446558 -0.4418328 0.422577
408 -1.007641 0.4192294 -1.170071 0.4211173
409 -1.063521 0.4550843 -0.1986707 0.4463048
410 -1.185624 0.4434841 -0.08269172 0.4067372
411 -0.9808293 0.4564354 -0.7032996 0.4247058
412 -1.335455 0.4805323 -1.045969 0.4288938
413 -1.239926 0.5029099 -0.7357068 0.4090487
414 -0.9949339 0.4160295 -0.4706044 0.4367556
415 -0.9409833 0.4714943 -0.7230001 0.462738
416 -0.9409833 0.4714943 -1.225952 0.4533379
417 -1.150728 0.4166666 -0.7761181 0.4488203
418 -0.942893 0.4457037 0.1840036 0.4293769
419 -1.151996 0.5052122 -0.9923369 0.4360782
420 -1.443453 0.5604439 -0.6023722 0.4535157
421 -0.8472979 0.4186144 -0.363668 0.4951265
422 -1.068759 0.4152829 -0.3483067 0.4186228
423 -1.045969 0.4288938 -1.024504 0.4234789
424 -1.409825 0.4994459 -0.5564203 0.4345567
425 -1.193574 0.4664795 -1.265666 0.4433396
426 -1.170071 0.4211173 0.09047758 0.4254859
427 -0.8338145 0.4147769 -0.9949339 0.4877869
428 -1.082864 0.485402 -0.3690975 0.4312908
429 -0.9409833 0.4714943 1.850372e-16 0.4166666
430 -1.045969 0.4288938 -1.232722 0.4356342
431 -2.119574 0.5948452 -0.09047758 0.4254859
432 -1.15268 0.435487 -1.110882 0.4677977
433 -1.59639 0.4643593 -0.2578291 0.4152829
434 -1.063521 0.4550843 -0.6903022 0.4509496
435 -1.232722 0.4356342 -0.5389965 0.4272465
436 -1.126011 0.4290433 -0.3826743 0.4394047
437 -1.475453 0.4378935 -0.8644189 0.4234789
438 -0.9860676 0.4137975 0.08793007 0.4194426
439 -1.193574 0.4664795 -0.5055486 0.5083881
440 -1.072637 0.4356342 -1.193574 0.4664795
441 -0.8856259 0.4294942 -0.8299061 0.4378935
442 -1.546637 0.4533379 -0.7537718 0.4146224
443 -1.252763 0.4818121 -0.08793007 0.4194426
444 -1.063521 0.4550843 -0.4706044 0.4367556
445 -1.225952 0.4533379 -0.4893853 0.4458424
446 -1.072637 0.4356342 -0.2578291 0.4152829
447 -1.193574 0.4664795 -1.252763 0.4818121
448 -0.9808293 0.4564354 -0.7032996 0.4247058
449 -2.138063 0.4982115 -0.4706044 0.4367556
450 -1.417066 0.525544 -0.5126097 0.4160295
451 -1.238658 0.4194426 -1.393842 0.4368269
452 -0.9949339 0.4160295 -0.8967461 0.4581371
453 -1.076545 0.4171493 -0.7625757 0.4768785
454 -1.574128 0.4972743 -0.08793007 0.4194426
455 -0.942893 0.4457037 -0.3403258 0.4784871
456 -1.336846 0.4244145 -0.2811674 0.4339732
457 -0.8472979 0.4186144 -0.5564203 0.4345567
458 -1.252763 0.4818121 -0.173746 0.4171525
459 -1.026799 0.4694582 -0.7307103 0.4075027
460 -0.9115175 0.4368269 -0.1906898 0.4371704
461 -1.185624 0.4434841 -0.7625757 0.4768785
462 -1.275185 0.4654784 -0.5389965 0.4272465
463 -1.507544 0.4287463 -1.791759 0.8034665
464 -1.225952 0.4533379 -0.8299061 0.4378935
465 -1.063521 0.4550843 -0.7672552 0.4187675
466 -1.145132 0.5335063 -1.313022 0.4360782
467 -0.8338145 0.4147769 -0.169899 0.4124789
468 -0.9273406 0.4187675 0.2082179 0.4570067
469 -0.8856259 0.4294942 -0.5389965 0.4272465
470 -0.942893 0.4457037 -0.8299061 0.4378935
471 -1.193574 0.4664795 0.08004271 0.4001602
472 -0.9949339 0.4160295 -0.08161134 0.4040676
473 -1.642228 0.4410653 -0.5389965 0.4272465
474 -0.8644189 0.4234789 -0.5029516 0.411876
475 -1.072637 0.4356342 -0.6632942 0.41125
476 -1.466337 0.4529107 0.173746 0.4171525
477 -1.024504 0.4234789 -0.5832515 0.4114058
478 -0.9949339 0.4877869 0.1624307 0.4032581
479 -1.252763 0.4818121 0.1784077 0.4227496
480 -1.024504 0.4446558 -0.173746 0.4171525
481 -1.386294 0.4527692 -1.497885 0.6090528
482 -0.9273406 0.4187675 -0.6869552 0.4192294
483 -1.110882 0.4677977 -1.595049 0.6057863
484 -1.185624 0.4434841 -0.5934292 0.4152433
485 -1.045969 0.4288938 -0.3577496 0.4244145
486 -0.8338145 0.4147769 -0.9923369 0.4360782
487 -1.791759 0.4564354 -0.3577496 0.4244145
488 -1.386294 0.4527692 -0.8109302 0.4602233
489 -0.9444616 0.4233275 0.2336149 0.4844057
490 -1.08846 0.4200081 -0.7137665 0.4980118
491 -1.502882 0.523718 -0.1840036 0.4293769
492 -1.024504 0.4234789 -1.08846 0.4200081
493 -0.9923369 0.4360782 -0.5245245 0.4211173
494 -0.942893 0.4457037 -0.2578291 0.4152829
495 -0.8123216 0.4086459 -0.3989077 0.4489551
496 -1.024504 0.4446558 -0.4221322 0.4126686
497 -1.007641 0.4192294 -0.3405208 0.4137975
498 -1.064912 0.4143612 -0.6903022 0.4509496
499 -0.9444616 0.4233275 -0.6903022 0.4509496
500 -1.024504 0.4446558 -0.4150215 0.4090487
501 -1.356005 0.4647759 -0.4706044 0.4367556
502 -0.9659258 0.4290433 -0.6903022 0.4509496
503 -2.036882 0.5958794 -0.5718859 0.4844663
504 -1.185624 0.4434841 -0.2719337 0.4266656
505 -0.8644189 0.4234789 -1.326588 0.4222003
506 -1.287131 0.4302543 -0.2642236 0.4204775
507 -1.502882 0.523718 -0.8602013 0.4470831
508 -1.063521 0.4550843 -0.5245245 0.4211173
509 -1.535517 0.4345567 1.483597e-16 0.4454351
510 -1.225952 0.4533379 0.08081941 0.4020971
511 -1.185624 0.4434841 0.08581592 0.4143612
512 -1.265666 0.4433396 -0.5695909 0.4062239
513 -1.368742 0.4313371 -0.5718859 0.4844663
514 -0.9949339 0.4877869 -1.287131 0.4302543
515 -1.104804 0.4239357 0.1667748 0.4086459
516 -0.9409833 0.4714943 -0.9273406 0.4187675
517 -1.206311 0.4294942 -0.1611193 0.4016159
518 -1.335455 0.4805323 -0.7231952 0.4313371
519 -1.110882 0.4677977 -0.3826743 0.4394047
520 -1.082864 0.485402 -0.2525908 0.4109834
521 -0.8338145 0.4147769 -0.7231952 0.4313371
522 -1.329136 0.5277476 0.3053816 0.4526444
523 -1.306252 0.4529107 -0.5029516 0.411876
524 -1.024504 0.4446558 -0.6737291 0.4147769
525 -1.206311 0.4294942 -0.8299061 0.4378935
526 -0.9659258 0.4290433 -0.7761181 0.4488203
527 -1.145132 0.4540581 -0.6023722 0.4535157
528 -0.9444616 0.4233275 -1.024504 0.4446558
529 -1.275185 0.4654784 0.1986707 0.4463048
530 -1.15268 0.435487 -0.5832515 0.4114058
531 -0.8644189 0.4234789 -0.5389965 0.4272465
532 -0.9115175 0.4368269 -0.5389965 0.4272465
533 -1.325742 0.5010015 -1.426009 0.4439204
534 -1.475453 0.4378935 -6.664057e-16 0.4287463
535 -1.151996 0.5052122 -0.942893 0.4457037
536 -0.8856259 0.4294942 -0.5718859 0.4844663
537 -1.104804 0.4239357 -0.5564203 0.4345567
538 -1.061518 0.5079612 -5.156101e-16 0.4222003
539 -1.510592 0.4293769 -1.502882 0.523718
540 -1.170071 0.4211173 -0.8856259 0.4294942
541 -1.506828 0.4446558 -1.151996 0.5052122
542 -1.75751 0.4654784 -0.2719337 0.4266656
543 -0.8472979 0.4186144 -0.6631313 0.4410653
544 -1.335455 0.4805323 -0.4150215 0.4090487
545 -1.306252 0.4529107 -0.1667748 0.4086459
546 -1.045969 0.4288938 0.1784077 0.4227496
547 -1.159237 0.4186228 -1.024504 0.4234789
548 -1.267235 0.4258028 -0.4309984 0.4171493
549 -0.9444616 0.4233275 -0.3212048 0.4644956
550 -1.497885 0.4788776 -0.4150215 0.4090487
551 -1.306252 0.4529107 -0.7472144 0.4392975
552 -1.024504 0.4234789 -0.7137665 0.4980118
553 -0.9444616 0.4233275 -0.7472144 0.4392975
554 -1.325742 0.5010015 -0.6631313 0.4410653
555 -1.072637 0.4356342 -0.1784077 0.4227496
556 -1.252763 0.4818121 -0.8530533 0.4739492
557 -1.492517 0.4982115 -1.417066 0.4254859
558 -0.9273406 0.4187675 -1.345709 0.4434841
559 -1.349927 0.5634036 -0.3483067 0.4186228
560 -1.045969 0.4288938 0.09716375 0.4409583
561 -0.8338145 0.4147769 -1.265666 0.4433396
562 -0.9659258 0.4290433 -0.5245245 0.4211173
563 -1.076545 0.4171493 -0.8967461 0.4581371
564 -1.072637 0.4356342 -0.2719337 0.4266656
565 -1.417066 0.4795581 -1.082864 0.485402
566 -0.8644189 0.4234789 -1.306252 0.4529107
567 -0.9044563 0.4126686 -0.120628 0.4914773
568 -1.110882 0.4677977 -0.2811674 0.4339732
569 -1.145132 0.4540581 -0.4893853 0.4458424
570 -1.779053 0.6007208 -0.6737291 0.4147769
571 -1.170071 0.4211173 -1.516347 0.4642212
572 -0.9409833 0.4714943 -1.08846 0.4200081
573 -1.466337 0.4529107 -0.8109302 0.4602233
574 -1.345709 0.4434841 -0.6325226 0.4657377
575 -1.516347 0.4642212 -0.942893 0.4457037
576 -1.252763 0.422577 -0.9273406 0.4187675
577 -0.9790965 0.4120428 -1.193574 0.4664795
578 -0.8644189 0.4234789 -0.5245245 0.4211173
579 -0.9808293 0.4564354 0.4760827 0.5699932
580 -1.275185 0.4654784 0.09716375 0.4409583
581 -1.063521 0.4550843 -1.145132 0.4540581
582 -1.145132 0.4540581 -0.3483067 0.4186228
583 -1.105324 0.4439204 0.1840036 0.4293769
584 -0.9115175 0.4368269 -0.3989077 0.4489551
585 -0.9808293 0.4564354 -0.4418328 0.4735041
586 -0.8236369 0.411876 -0.8109302 0.4602233
587 -1.417066 0.4795581 -0.4418328 0.422577
588 -1.238658 0.5303797 1.670518e-15 0.4559604
589 -1.409825 0.4994459 -0.7032996 0.4247058
590 -1.159237 0.4186228 -0.1784077 0.4227496
591 -0.9141145 0.4152433 -1.026799 0.4694582
592 -0.9115175 0.4368269 -0.4095055 0.4062239
593 -1.961659 0.4602233 -1.275185 0.4654784
594 -1.193574 0.4664795 -0.8165262 0.4098468
595 -1.287131 0.4302543 -0.08581592 0.4143612
596 -1.045969 0.4288938 0.09716375 0.4409583
597 -1.232722 0.4356342 -0.3483067 0.4186228
598 -0.9923369 0.4360782 1.017704e-15 0.4166666
599 -1.356005 0.4647759 -0.7761181 0.4488203
600 -1.751268 0.5201536 -0.7231952 0.4313371
601 -1.252763 0.4818121 -0.5753641 0.4084183
602 -1.007641 0.4192294 -9.690816e-17 0.4364356
603 -0.8109302 0.4082483 -0.7032996 0.4247058
604 -1.393842 0.4368269 -0.5564203 0.4345567
605 -0.8236369 0.411876 -1.516347 0.4642212
606 -1.325742 0.5010015 -0.5773154 0.4432319
607 -0.9273406 0.4187675 -0.5564203 0.4345567
608 -0.9949339 0.4160295 -0.4706044 0.4367556
609 -1.417066 0.4795581 -0.5245245 0.4211173
610 -0.8856259 0.4294942 -1.151996 0.5052122
611 -1.356005 0.4647759 -0.2483862 0.4075027
612 -1.126011 0.4290433 -0.1906898 0.4371704
613 -0.9808293 0.4564354 -0.3212048 0.4644956
614 -2.091712 0.4714943 -0.5832515 0.4114058
615 -1.43401 0.4290639 -0.7137665 0.4980118
616 -1.024504 0.4446558 -0.6061358 0.4200081
617 -0.8472979 0.4186144 -0.6869552 0.4192294
618 -1.345709 0.4434841 -0.4893853 0.4458424
619 -1.912387 0.5191523 -1.306252 0.4529107
620 -1.08846 0.4200081 -0.6061358 0.5607057
621 -1.586965 0.5222301 -0.2719337 0.4266656
622 -1.386294 0.4527692 -0.7032996 0.4247058
623 -1.417066 0.4795581 -0.9659258 0.4290433
624 -0.9444616 0.4233275 0.4221322 0.4126686
625 -0.8644189 0.4234789 -0.6869552 0.4192294
626 -1.265666 0.4433396 -0.4418328 0.4735041
627 -1.007641 0.4192294 -0.2921968 0.4425626
628 -1.170071 0.4211173 -0.8472979 0.4186144
629 -1.145132 0.5335063 -0.4418328 0.422577
630 -1.110882 0.4677977 0.6023722 0.4535157
631 -1.105324 0.4439204 -0.5564203 0.4345567
632 -1.313022 0.4360782 0.8530533 0.4739492
633 -1.466337 0.4529107 -0.6122595 0.5027519
634 -1.026799 0.4694582 -0.6737291 0.4147769
635 -0.9141145 0.4152433 3.037306e-16 0.4559604
636 -0.9044563 0.4126686 -0.106711 0.4621676
637 -1.024504 0.4234789 -0.942893 0.4457037
638 -1.026799 0.4694582 0.6023722 0.4535157
639 -1.105324 0.4439204 4.845408e-17 0.4364356
640 -1.026799 0.4694582 -0.7230001 0.462738
641 -1.126011 0.4290433 -0.6631313 0.4410653
642 -0.9949339 0.4877869 -0.4893853 0.4458424
643 -0.8856259 0.4294942 1.829838e-15 0.4120428
644 -0.9659258 0.4290433 -0.9409833 0.4714943
645 -1.345709 0.4434841 -0.6325226 0.4657377
646 -1.193574 0.4664795 -0.8856259 0.4294942
647 -1.105324 0.4439204 -0.3826743 0.4394047
648 -1.265666 0.4433396 0.3483067 0.4186228
649 -0.8472979 0.4186144 -0.106711 0.4621676
650 -1.024504 0.4234789 -0.3577496 0.4244145
651 -1.546637 0.4533379 -0.2921968 0.4425626
652 -1.426009 0.4439204 -1.669657 0.5210497
653 -1.026799 0.4694582 0.08269172 0.4067372
654 -0.942893 0.4457037 -0.3212048 0.4644956
655 -0.9444616 0.4233275 -1.329136 0.5277476
656 -1.145132 0.4540581 -0.1986707 0.4463048
657 -1.063521 0.4550843 -0.3342021 0.4098468
658 -0.8123216 0.4086459 -0.8109302 0.4602233
659 -1.145132 0.4540581 -0.09352606 0.432608
660 -1.417066 0.4795581 -1.045969 0.4288938
661 -1.252763 0.4818121 -1.335455 0.4805323
662 -1.313022 0.4360782 -0.8109302 0.4940117
663 -1.443453 0.5604439 -1.275185 0.4654784
664 -1.024504 0.4446558 -1.026799 0.4694582
665 -1.252763 0.4818121 -0.7231952 0.4313371
666 -1.451434 0.4327624 -1.110882 0.4677977
667 -0.9808293 0.4564354 -0.4760827 0.5699932
668 -1.345709 0.4434841 -0.7231952 0.4313371
669 -1.75751 0.4654784 -0.173746 0.4171525
670 -1.329136 0.5277476 -0.5658078 0.4047822
671 -1.345709 0.4434841 -0.09716375 0.4409583
672 -0.8472979 0.4186144 0.6023722 0.4535157
673 -1.15268 0.435487 -0.5639354 0.4040676
674 -1.145132 0.4540581 -0.6216882 0.4258028
675 -1.356005 0.4647759 -0.3254224 0.4043038
676 -1.007641 0.4192294 -0.106711 0.4621676
677 -1.104804 0.4239357 -0.08793007 0.4194426
678 -0.8856259 0.4294942 -1.574128 0.4972743
679 -0.942893 0.4457037 1.214922e-15 0.4559604
680 -0.9115175 0.4368269 -0.5245245 0.4211173
681 -0.9923369 0.4360782 -0.1840036 0.4293769
682 -1.152842 0.4171525 -0.5389965 0.4692952
683 -0.9409833 0.4714943 -0.4309984 0.4171493
684 -1.335455 0.4805323 -0.6455468 0.4052204
685 -1.386294 0.4527692 -1.306252 0.4529107
686 -1.061518 0.5079612 0.2719337 0.5232681
687 -1.061518 0.5079612 -0.3989077 0.4489551
688 -0.9273406 0.4187675 0.1643031 0.4055887
689 -0.8338145 0.4147769 -1.08846 0.4200081
690 -1.58844 0.4457037 -0.5245245 0.4211173
691 -1.104804 0.4239357 -2.812419e-16 0.4222003
692 -1.045969 0.4288938 -1.105324 0.4439204
693 -1.225952 0.4533379 -0.6405034 0.4327624
694 -0.8644189 0.4234789 -0.9923369 0.4360782
695 -0.8644189 0.4234789 -0.7472144 0.4392975
696 -1.082864 0.485402 -0.4893853 0.4458424
697 -0.9044563 0.4126686 0.1840036 0.4293769
698 -1.026799 0.4694582 -0.6023722 0.4535157
699 -1.417066 0.4795581 -0.9679921 0.5112249
700 -1.159237 0.4186228 -0.6631313 0.4410653
701 -1.466337 0.4529107 -1.047969 0.5372124
702 -0.8472979 0.4186144 -1.082864 0.485402
703 -0.9273406 0.4187675 -1.159237 0.4186228
704 -1.654947 0.4966167 -0.7357068 0.4090487
705 -0.9273406 0.4187675 -0.3212048 0.4644956
706 -1.345709 0.4434841 -1.145132 0.4540581
707 -0.9444616 0.4233275 -0.8967461 0.4581371
708 -1.007641 0.4192294 -0.6631313 0.4410653
709 -1.275185 0.4654784 -0.6216882 0.4258028
710 -1.238658 0.5303797 -1.265666 0.4433396
711 -0.9659258 0.4290433 -0.08581592 0.4143612
712 -0.9115175 0.4368269 -0.9659258 0.4290433
713 -0.9808293 0.4564354 -0.4183685 0.4602043
714 -1.185624 0.4434841 -0.7230001 0.462738
715 -1.024504 0.4446558 -0.8981375 0.4109834
716 -1.151996 0.5052122 -1.252763 0.4818121
717 -1.238658 0.5303797 -0.942893 0.4457037
718 -1.151996 0.5052122 -0.6903022 0.4509496
719 -2.176171 0.6643858 -0.08581592 0.4143612
720 -1.08846 0.4200081 -0.9679921 0.5112249
721 -1.08846 0.4200081 -1.225952 0.4533379
722 -1.895333 0.4962268 -0.3577496 0.4244145
723 -1.306252 0.4529107 -1.654947 0.4966167
724 -1.16868 0.4834244 -0.9409833 0.4714943
725 -1.422662 0.4266656 -0.6023722 0.4535157
726 -1.265666 0.4433396 -0.7625757 0.4768785
727 -1.709068 0.4550843 -0.7032996 0.4247058
728 -1.238658 0.5303797 -0.3826743 0.4394047
729 -1.072637 0.4356342 -0.106711 0.4621676
730 -0.8472979 0.4186144 -1.061518 0.5079612
731 -1.026799 0.4694582 -0.4028161 0.4027779
732 -0.9659258 0.4290433 -0.3212048 0.4644956
733 -1.063521 0.4550843 -0.7032996 0.4247058
734 -0.8338145 0.4147769 -0.7032996 0.4247058
735 -1.16868 0.4834244 -0.9444616 0.4233275
736 -1.329136 0.5277476 -0.5029516 0.411876
737 -0.9141145 0.4152433 -0.2921968 0.4425626
738 -0.9044563 0.4126686 -1.126011 0.4290433
739 -1.145132 0.4540581 -0.3053816 0.4526444
740 -1.024504 0.4446558 -0.1840036 0.4293769
741 -1.151996 0.5052122 1.189394e-15 0.4120428
742 -1.145132 0.4540581 -0.3483067 0.4186228
743 -0.9949339 0.4160295 -1.325742 0.5010015
744 -1.007641 0.4192294 -0.1840036 0.4293769
745 -1.335455 0.4805323 -0.6690496 0.4803534
746 -0.8950133 0.4101499 -0.4028161 0.4027779
747 -0.9808293 0.4564354 -0.9679921 0.5112249
748 -0.8123216 0.4086459 -0.8981375 0.4109834
749 -1.193574 0.4664795 -0.9808293 0.4564354
750 -1.325742 0.5010015 -0.8856259 0.4294942
751 -0.9444616 0.4233275 -0.1986707 0.4463048
752 -0.942893 0.4457037 -0.7537718 0.4146224
753 -1.206311 0.4294942 -0.5773154 0.4432319
754 -0.9808293 0.4564354 -1.15268 0.435487
755 -0.8644189 0.4234789 -0.3405208 0.4137975
756 -1.105324 0.4439204 -0.8967461 0.4581371
757 -1.145132 0.5335063 -1.045969 0.4288938
758 -1.356005 0.4647759 -0.3342021 0.4098468
759 -1.082864 0.485402 -1.063521 0.4550843
760 -0.9444616 0.4233275 -0.7137665 0.4980118
761 -0.8123216 0.4086459 -1.206311 0.4294942
762 -1.045969 0.4288938 -0.1015069 0.4507285
763 -1.061518 0.5079612 -0.1784077 0.4227496
764 -0.9115175 0.4368269 -1.076545 0.4171493
765 -1.252763 0.4818121 -0.5389965 0.4272465
766 -1.238658 0.5303797 -0.7137665 0.4980118
767 -0.8856259 0.4294942 -9.690816e-17 0.4364356
768 -1.026799 0.4694582 -1.265666 0.4433396
769 -1.368742 0.4313371 -1.026799 0.4694582
770 -0.8338145 0.4147769 -0.8299061 0.4378935
771 -0.9949339 0.4877869 -0.9273406 0.4187675
772 -1.063521 0.4550843 -0.4703789 0.4893376
773 -1.185624 0.4434841 -0.5029516 0.411876
774 -0.9115175 0.4368269 -0.784119 0.4239357
775 -1.193574 0.4664795 -1.43401 0.4290639
776 -0.9659258 0.4290433 -0.4309984 0.4171493
777 -0.942893 0.4457037 -1.956063 0.5507762
778 -1.024504 0.4446558 -1.751268 0.5201536
779 -1.436305 0.4643593 -0.4893853 0.4458424
780 -0.8236369 0.411876 -0.4309984 0.4171493
781 -1.072637 0.4356342 -1.206311 0.4294942
782 -1.045969 0.4288938 -0.9115175 0.4368269
783 -1.329136 0.5277476 -0.4549134 0.4290639
784 -0.8338145 0.4147769 -0.08408312 0.4101499
785 -1.239926 0.5029099 -0.3342021 0.4098468
786 -1.193574 0.4664795 -1.082864 0.485402
787 -1.58844 0.4457037 -0.3254224 0.4043038
788 -1.151996 0.5052122 -0.7625757 0.4768785
789 -1.007641 0.4192294 -0.1624307 0.4032581
790 -0.8644189 0.4234789 0.8109302 0.4940117
791 -1.145132 0.4540581 -0.9409833 0.4714943
792 -1.072637 0.4356342 -0.9044563 0.4126686
793 -1.024504 0.4234789 0.3053816 0.4526444
794 -1.024504 0.4446558 -1.063521 0.4550843
795 -1.206311 0.4294942 -0.5718859 0.4844663
796 -0.9659258 0.4290433 -0.09352606 0.432608
797 -0.9808293 0.4564354 -0.2483862 0.4075027
798 -1.024504 0.4234789 -0.6631313 0.4410653
799 -0.8236369 0.411876 -0.7433369 0.4114058
800 -1.063521 0.4550843 -0.6405034 0.4327624
801 -0.9949339 0.4877869 -0.8299061 0.4378935
802 -0.8472979 0.4186144 -1.026799 0.4694582
803 -1.287131 0.4302543 -1.105324 0.4439204
804 -1.193574 0.4664795 -1.024504 0.4446558
805 -1.193574 0.4664795 -1.024504 0.4234789
806 -1.082864 0.485402 -0.5126097 0.4160295
807 -1.08846 0.4200081 -0.6631313 0.4410653
808 -1.206311 0.4294942 -0.5126097 0.4160295
809 -1.072637 0.4356342 -0.5389965 0.4272465
810 -1.225952 0.4533379 -0.5773154 0.4432319
811 -1.252763 0.422577 -0.2719337 0.4266656
812 -1.15268 0.435487 -0.9808293 0.4564354
813 -1.738271 0.4784736 -0.6632942 0.41125
814 -1.16868 0.4834244 -0.2336149 0.4844057
815 -1.193574 0.4664795 -0.8530533 0.4739492
816 -0.9115175 0.4368269 -0.08581592 0.4143612
817 -0.8644189 0.4234789 -0.4549134 0.4290639
818 -1.08846 0.4200081 -8.040306e-16 0.4828043
819 -1.658228 0.4783397 -0.6869552 0.4192294
820 -1.045969 0.4288938 -0.7672552 0.4187675
821 -0.9273406 0.4187675 -0.173746 0.4171525
822 -1.306252 0.4529107 -1.145132 0.4540581
823 -0.9044563 0.4126686 -0.6737291 0.4147769
824 -1.791759 0.4409583 -0.5753641 0.4084183
825 -1.126011 0.4290433 -0.6325226 0.4657377
826 -1.026799 0.4694582 -0.3403258 0.4784871
827 -1.063521 0.4550843 -0.6903022 0.4509496
828 -1.417066 0.4795581 -0.3053816 0.4526444
829 -0.942893 0.4457037 -0.3483067 0.4186228
830 -1.024504 0.4234789 -0.3483067 0.4186228
831 -1.024504 0.4234789 -0.6216882 0.4258028
832 -1.104804 0.4239357 -1.475453 0.4378935
833 -1.072637 0.4356342 -0.3989077 0.4489551
834 -0.8644189 0.4234789 -1.007641 0.4192294
835 -0.9409833 0.4714943 -0.6405034 0.4327624
836 -1.007641 0.4192294 -0.9949339 0.4160295
837 -0.9659258 0.4290433 -0.8299061 0.4378935
838 -1.16868 0.4834244 -0.6405034 0.4327624
839 -1.252763 0.4818121 -0.8299061 0.4378935
840 -0.9949339 0.4160295 -0.6869552 0.4192294
841 -0.9808293 0.4564354 0.09352606 0.432608
842 -1.386294 0.4527692 -0.3826743 0.4394047
843 -1.026799 0.4694582 0.3053816 0.4526444
844 -1.345709 0.4434841 -0.8602013 0.4470831
845 -0.942893 0.4457037 -0.9141145 0.4152433
846 -1.329136 0.5277476 -0.8338145 0.4147769
847 -1.045969 0.4288938 -0.8644189 0.4234789
848 -0.8856259 0.4294942 -0.6737291 0.4147769
849 -1.417066 0.525544 -0.2811674 0.4339732
850 -1.193574 0.4664795 -0.7693214 0.5196757
851 -1.981001 0.4805323 -2.201185 0.5940604
852 -0.9923369 0.4360782 -0.8048065 0.4302543
853 -0.942893 0.4457037 -0.4418328 0.422577
854 -0.8856259 0.4294942 -0.7761181 0.4488203
855 -1.627456 0.4540581 -0.5245245 0.4211173
856 -0.8644189 0.4234789 -0.6405034 0.4327624
857 -0.8644189 0.4234789 -0.169899 0.4124789
858 -1.335455 0.4805323 -0.1129869 0.4756037
859 -0.9860676 0.4137975 -0.6405034 0.4327624
860 -1.068759 0.4152829 -1.386294 0.4527692
861 -1.145132 0.4540581 0.2082179 0.4570067
862 -1.064912 0.4143612 -0.8967461 0.4581371
863 -1.061518 0.5079612 -1.356005 0.4647759
864 -0.9923369 0.4360782 -0.4549134 0.4290639
865 -0.942893 0.4457037 -0.3989077 0.4489551
866 -1.578185 0.4784736 -0.8109302 0.4602233
867 -1.578185 0.4784736 0.09352606 0.432608
868 -1.145132 0.4540581 -0.6498909 0.4067001
869 -0.9115175 0.4368269 -0.5118946 0.4565761
870 -1.53393 0.5579535 -0.5389965 0.4692952
871 -1.063521 0.4550843 -0.8048065 0.4302543
872 -0.8472979 0.4186144 -0.5126097 0.4160295
873 -0.9444616 0.4233275 -1.024504 0.4234789
874 -0.9115175 0.4368269 -0.3483067 0.4186228
875 -1.063521 0.4550843 -1.329136 0.5277476
876 -1.045969 0.4288938 -0.9923369 0.4360782
877 -0.8644189 0.4234789 -1.185624 0.4434841
878 -1.225952 0.4533379 -0.7672552 0.4187675
879 -0.9044563 0.4126686 -0.1906898 0.4371704
880 -0.9115175 0.4368269 -0.7472144 0.4392975
881 -1.239926 0.5029099 -0.7672552 0.4187675
882 -1.110882 0.4677977 -2.856024e-16 0.4287463
883 -1.082864 0.485402 -0.173746 0.4171525
884 -1.026799 0.4694582 -0.5564203 0.4345567
885 -0.9923369 0.4360782 -0.7537718 0.4146224
886 -1.67669 0.4647759 -0.3690975 0.4312908
887 -1.126011 0.4290433 -0.5753641 0.4084183
888 -1.185624 0.4247058 -3.749892e-16 0.4222003
889 -0.9273406 0.4187675 -0.8644189 0.4234789
890 -0.9949339 0.4877869 -0.1906898 0.4371704
891 -1.417066 0.4795581 -0.5718859 0.4844663
892 -1.185624 0.4247058 -0.5126097 0.4160295
893 -1.313022 0.4360782 0.08408312 0.4101499
894 -0.9409833 0.4714943 -0.6903022 0.4509496
895 -1.325742 0.5010015 -1.368742 0.4313371
896 -2.025374 0.7938561 -1.104804 0.4239357
897 -1.145132 0.4540581 -0.5564203 0.4345567
898 -1.81529 0.4960976 -0.5934292 0.4152433
899 -0.8338145 0.4147769 -0.09047758 0.4254859
900 -1.313022 0.4360782 -0.4895482 0.4060661
901 -1.306252 0.4529107 -1.345709 0.4434841
902 -1.510592 0.4293769 -0.2525908 0.4109834
903 -0.9808293 0.4564354 -0.169899 0.4124789
904 -1.546637 0.4533379 -0.9115175 0.4368269
905 -0.8472979 0.4186144 -0.1015069 0.4507285
906 -1.063521 0.4550843 -0.3254224 0.4043038
907 -1.072637 0.4356342 3.659675e-16 0.4120428
908 -1.306252 0.4529107 0.2811674 0.4339732
909 -0.9115175 0.4368269 -0.4549134 0.4290639
910 -0.8856259 0.4294942 -0.7231952 0.4313371
911 -0.942893 0.4457037 -0.9659258 0.4290433
912 -1.024504 0.4446558 -0.2642236 0.4204775
913 -1.193574 0.4664795 -0.6903022 0.4509496
914 -1.225952 0.4533379 -0.9141145 0.4152433
915 -1.170071 0.4211173 -0.8708284 0.5150913
916 -1.024504 0.4234789 -1.126011 0.4290433
917 -1.306252 0.4529107 -0.1906898 0.4371704
918 -1.67669 0.4647759 -1.345709 0.4434841
919 -1.574128 0.4972743 0.5389965 0.4272465
920 -0.9115175 0.4368269 0.3577496 0.4244145
921 -0.8856259 0.4294942 -0.5832515 0.4114058
922 -1.232722 0.4356342 -0.5718859 0.4844663
923 -1.007641 0.4192294 -0.5773154 0.4432319
924 -1.232722 0.4356342 -0.6903022 0.4509496
925 -1.206311 0.4294942 -0.8236369 0.411876
926 -0.9949339 0.4877869 0.2811674 0.4339732
927 -1.110882 0.4677977 -0.8048065 0.4302543
928 -1.956063 0.5507762 -1.012435e-16 0.4559604
929 -1.08846 0.4200081 -0.5934292 0.4152433
930 -0.9444616 0.4233275 -1.417066 0.525544
931 -0.942893 0.4457037 -1.409825 0.4994459
932 -1.335455 0.4805323 -0.7433369 0.4114058
933 -1.170071 0.4211173 -0.6737291 0.4147769
934 -0.8338145 0.4147769 -0.2578291 0.4152829
935 -1.239926 0.5029099 -0.1840036 0.4293769
936 -1.738271 0.4784736 -0.2642236 0.4204775
937 -1.110882 0.4677977 -0.08081941 0.4020971
938 -1.024504 0.4234789 -0.3212048 0.4644956
939 -1.193574 0.4664795 -0.5245245 0.4211173
940 -1.451434 0.4327624 -1.026799 0.4694582
941 -1.252763 0.4818121 -1.024504 0.4234789
942 -1.104804 0.4239357 -0.942893 0.4457037
943 -0.9115175 0.4368269 -1.193574 0.4664795
944 -1.239926 0.5029099 -0.2719337 0.4266656
945 -1.105324 0.4439204 1.252487e-15 0.4029072
946 -0.8338145 0.4147769 -0.9273406 0.4187675
947 -1.068759 0.4152829 -0.4418328 0.4735041
948 -0.9949339 0.4160295 -0.9444616 0.4233275
949 -0.9444616 0.4233275 -0.2921968 0.4425626
950 -0.9444616 0.4233275 -0.2921968 0.4425626
951 -1.024504 0.4234789 -0.9808293 0.4564354
952 -1.15268 0.435487 -1.345709 0.4434841
953 -1.072637 0.4356342 -0.2506811 0.5020471
954 -1.16868 0.4834244 -1.372378e-15 0.4120428
955 -0.9273406 0.4187675 -0.784119 0.4239357
956 -1.145132 0.5335063 -6.664057e-16 0.4287463
957 -1.061518 0.5079612 -0.7231952 0.4313371
958 -0.9808293 0.4564354 -0.2578291 0.4152829
959 -1.349927 0.4272465 0.1015069 0.4507285
960 -1.252763 0.4818121 -1.024504 0.4446558
961 -1.621333 0.4367556 -0.8967461 0.4581371
962 -1.206311 0.4294942 -0.6405034 0.4327624
963 -1.345709 0.4434841 0.1015069 0.4507285
964 -0.9808293 0.4564354 -1.026799 0.4694582
965 -1.151996 0.5052122 -0.7625757 0.4768785
966 -1.105324 0.4439204 -0.4418328 0.422577
967 -0.8472979 0.4186144 -1.072637 0.4356342
968 -1.185624 0.4434841 -0.2336149 0.4844057
969 -0.9923369 0.4360782 -0.6023722 0.4535157
970 -1.064912 0.4143612 -0.6631313 0.4410653
971 -0.942893 0.4457037 -1.417066 0.525544
972 -0.8644189 0.4234789 -0.8967461 0.4581371
973 -0.8644189 0.4234789 -1.072637 0.4356342
974 -1.151996 0.5052122 -0.1418806 0.5332081
975 -0.8644189 0.4234789 0.6325226 0.4657377
976 -0.9860676 0.4137975 -0.4309984 0.4171493
977 -0.9949339 0.4877869 -0.4150215 0.4090487
978 -1.58844 0.4457037 -0.4549134 0.4290639
979 -1.426009 0.4439204 -0.363668 0.4951265
980 -1.110882 0.4677977 -1.145132 0.4540581
981 -1.126011 0.4290433 -0.6737291 0.4147769
982 -1.026799 0.4694582 -0.08269172 0.4067372
983 -1.104804 0.4239357 -1.325742 0.5010015
984 -1.185624 0.4434841 0.09047758 0.4254859
985 -1.15268 0.435487 -0.9044563 0.4906335
986 -0.9949339 0.4877869 -0.5118946 0.4565761
987 -1.546637 0.4533379 -0.8602013 0.4470831
988 -1.16868 0.4834244 -1.061518 0.5079612
989 -1.206311 0.4294942 -1.151996 0.5052122
990 -0.8472979 0.4186144 -0.6023722 0.4535157
991 -0.9659258 0.4290433 -0.1784077 0.4227496
992 -1.335455 0.4805323 -0.4183685 0.4602043
993 -0.9044563 0.4126686 -1.239926 0.5029099
994 -0.9141145 0.4152433 -0.3577496 0.4244145
995 -1.492517 0.4982115 -0.6632942 0.41125
996 -1.267235 0.4258028 -0.6869552 0.4192294
997 -0.9923369 0.4360782 -1.238658 0.5303797
998 -1.126011 0.4290433 -0.9115175 0.4368269
999 -1.072637 0.4356342 -0.8644189 0.4234789
1000 -0.8472979 0.4186144 -1.287131 0.4302543
1001 -0.8950133 0.4101499 4.625929e-17 0.4166666
1002 -1.669657 0.5210497 -0.4418328 0.4735041
1003 -1.185624 0.4247058 -0.1129869 0.4756037
1004 -1.063521 0.4550843 -0.4309984 0.4171493
1005 -1.151996 0.5052122 -0.7433369 0.4114058
1006 -1.15268 0.435487 -1.755215 0.4488203
1007 -0.9444616 0.4233275 -1.126011 0.4290433
1008 -1.335455 0.4805323 -0.6631313 0.4410653
1009 -0.942893 0.4457037 -0.08161134 0.4040676
1010 -0.8856259 0.4294942 -0.6023722 0.4535157
1011 -1.466337 0.4529107 -0.6737291 0.4147769
1012 -1.669657 0.5210497 -0.8472979 0.4186144
1013 -1.586965 0.5222301 -0.4221322 0.4126686
1014 -1.045969 0.4288938 -0.4549134 0.4290639
1015 -1.791759 0.5527377 -0.7032996 0.4247058
1016 -1.145132 0.4540581 -0.7032996 0.4247058
1017 -0.9923369 0.4360782 0.1906898 0.4371704
1018 -1.110882 0.4677977 -0.5564203 0.4345567
1019 -1.045969 0.4288938 -0.5773154 0.4432319
1020 -1.238658 0.5303797 -0.8109302 0.4602233
1021 -0.9409833 0.4714943 -0.3403258 0.4784871
1022 -1.007641 0.4192294 -1.239926 0.5029099
1023 -1.061518 0.5079612 -0.7472144 0.4392975
1024 -1.193574 0.4664795 -0.7537718 0.4146224
1025 -1.063521 0.4550843 -1.170071 0.4211173
1026 -1.329136 0.4227496 -0.4549134 0.4290639
1027 -1.007641 0.4192294 -1.026799 0.4694582
1028 -0.8644189 0.4234789 -0.8602013 0.4470831
1029 -1.349927 0.4272465 -0.2642236 0.4204775
1030 -1.063521 0.4550843 -0.2921968 0.4425626
1031 -1.024504 0.4234789 -0.9444616 0.4233275
1032 -1.145132 0.4540581 0.09352606 0.432608
1033 -1.024504 0.4234789 -0.4549134 0.4290639
1034 -0.8338145 0.4147769 -0.7625757 0.4768785
1035 -0.9409833 0.4714943 -1.024504 0.4446558
1036 -0.9115175 0.4368269 -0.2719337 0.4266656
1037 -1.345709 0.4434841 -0.8109302 0.4940117
1038 -1.436305 0.4643593 -0.9273406 0.4187675
1039 -1.16868 0.4834244 -1.126011 0.4290433
1040 -1.558145 0.4392975 -0.5773154 0.4432319
1041 -1.110882 0.4677977 -1.072637 0.4356342
1042 -0.8856259 0.4294942 -0.9679921 0.5112249
1043 -1.232722 0.4356342 -1.265666 0.4433396
1044 -1.206311 0.4294942 -1.225952 0.4533379
1045 -1.755215 0.4488203 -0.1906898 0.4371704
1046 -1.252763 0.4818121 -0.2196978 0.4695742
1047 -0.9790965 0.4120428 -0.4309984 0.4171493
1048 -0.9923369 0.4360782 -0.6632942 0.41125
1049 -1.492517 0.4982115 -8.437256e-16 0.4222003
1050 -0.9141145 0.4152433 -0.2921968 0.4425626
1051 -0.9409833 0.4714943 -0.3405208 0.4137975
1052 -1.024504 0.4446558 -0.6737291 0.4147769
1053 -0.8644189 0.4234789 -1.082864 0.485402
1054 -0.9115175 0.4368269 -0.784119 0.4239357
1055 -1.151256 0.5710828 -0.8530533 0.4739492
1056 -1.497885 0.4788776 -0.7433369 0.4114058
1057 -1.688575 0.6030346 -0.3405208 0.4137975
1058 -1.105324 0.4439204 -0.09716375 0.4409583
1059 -1.59639 0.4643593 -0.9860676 0.4137975
1060 -0.9808293 0.4124789 -0.5564203 0.4345567
1061 -1.75751 0.4654784 -9.690816e-17 0.4364356
1062 -0.9659258 0.4290433 -1.024504 0.4234789
1063 -0.9808293 0.4124789 -9.374729e-17 0.4222003
1064 -0.9115175 0.4368269 -0.3690975 0.4312908
1065 -0.9808293 0.4124789 -1.671131 0.4470831
1066 -1.912387 0.5191523 -0.2525908 0.4109834
1067 -0.9860676 0.4137975 -0.4703789 0.4893376
1068 -1.063521 0.4550843 -0.5118946 0.4565761
1069 -1.239926 0.5029099 -0.8602013 0.4470831
1070 -0.942893 0.4457037 -0.9444616 0.4233275
1071 -1.265666 0.4433396 -0.1667748 0.4086459
1072 -1.063521 0.4550843 -0.4953214 0.4085753
1073 -1.578185 0.4784736 -0.4183685 0.4602043
1074 -1.15268 0.435487 -1.024504 0.4446558
1075 -0.9409833 0.4714943 -0.7231952 0.4313371
1076 -0.8644189 0.4234789 -0.7357068 0.4090487
1077 -1.265666 0.4433396 -0.4706044 0.4367556
1078 -0.9409833 0.4714943 -0.6023722 0.4535157
1079 -1.024504 0.4446558 -0.7693214 0.5196757
1080 -1.072637 0.4356342 -0.173746 0.4171525
1081 -0.942893 0.4457037 -0.8299061 0.4378935
1082 -1.063521 0.4550843 -1.15268 0.435487
1083 -1.193574 0.4664795 -0.2578291 0.4152829
1084 -1.409825 0.4994459 -0.4760827 0.5699932
1085 -1.239926 0.5029099 -0.5118946 0.4565761
1086 -0.9273406 0.4187675 -0.5389965 0.4692952
1087 -1.225952 0.4533379 -1.024504 0.4446558
1088 -1.105324 0.4439204 -1.252763 0.422577
1089 -0.9444616 0.4233275 -1.024504 0.4446558
1090 -0.9923369 0.4360782 -0.7537718 0.4146224
1091 -1.436305 0.4643593 -0.5389965 0.4272465
1092 -1.306252 0.4529107 -0.6023722 0.4535157
1093 -1.08846 0.4200081 -1.409825 0.4994459
1094 -1.082864 0.485402 -0.6631313 0.4410653
1095 -1.409825 0.4994459 0.106711 0.4621676
1096 -0.8856259 0.4294942 -0.9659258 0.4290433
1097 -0.9659258 0.4290433 -0.8299061 0.4378935
1098 -0.8236369 0.411876 -0.4095055 0.4062239
1099 -0.9115175 0.4368269 -0.4309984 0.4171493
1100 -1.105324 0.4439204 -0.9949339 0.4160295
1101 -1.265666 0.4433396 -0.9808293 0.4564354
1102 -0.9808293 0.4564354 -1.265666 0.4433396
1103 -1.275185 0.4654784 -1.58844 0.4457037
1104 -1.15268 0.435487 -1.045969 0.4288938
1105 -1.024504 0.4446558 0.1667748 0.4086459
1106 -0.8950133 0.4101499 -0.6869552 0.4192294
1107 -1.151996 0.5052122 -0.7625757 0.4768785
1108 -1.287131 0.4302543 -0.8602013 0.4470831
1109 -0.9409833 0.4714943 -0.8299061 0.4378935
1110 -1.061518 0.5079612 -0.4221322 0.4126686
1111 -0.942893 0.4457037 -9.251858e-17 0.4166666
1112 -1.08846 0.4200081 -1.313022 0.4360782
1113 -1.068759 0.4152829 0.1784077 0.4227496
1114 -1.151996 0.5052122 -0.7761181 0.4488203
1115 -1.598856 0.6813604 -0.1667748 0.4086459
1116 -1.232722 0.4356342 -0.3403258 0.4784871
1117 -1.045969 0.4288938 0 0.4559604
1118 -1.151996 0.5052122 -0.7537718 0.4146224
1119 -1.082864 0.485402 -0.9273406 0.4187675
1120 -1.026799 0.4694582 -1.252763 0.4818121
1121 -0.9923369 0.4360782 -0.8048065 0.4302543
1122 -0.9409833 0.4714943 -1.349927 0.5634036
1123 -0.8236369 0.411876 -1.061518 0.5079612
1124 -1.436305 0.4643593 -0.3483067 0.4186228
1125 -1.578185 0.4784736 -0.4549134 0.4290639
1126 -2.261987 0.6629423 -0.9044563 0.4906335
1127 -1.072637 0.4356342 -0.4706044 0.4367556
1128 -1.289668 0.6175663 -1.185624 0.4247058
1129 -1.082864 0.485402 -0.7032996 0.4247058
1130 -1.104804 0.4239357 -0.3342021 0.4098468
1131 -1.368742 0.4313371 -0.08408312 0.4101499
1132 -1.502882 0.523718 -0.3212048 0.4016159
1133 -1.15268 0.435487 -1.43401 0.4290639
1134 -1.206311 0.4294942 -0.1840036 0.4293769
1135 -0.9409833 0.4714943 -1.044545 0.5760508
1136 -1.417066 0.4795581 -0.8109302 0.4940117
1137 -2.049589 0.462738 -0.8109302 0.4602233
1138 -1.045969 0.4288938 0.784119 0.4239357
1139 -0.8472979 0.4186144 -0.6737291 0.4147769
1140 -0.9808293 0.4564354 0.5245245 0.4211173
1141 -0.942893 0.4457037 -1.007641 0.4192294
1142 -0.9273406 0.4187675 -1.039818e-16 0.4682925
1143 -1.417066 0.525544 -1.62186 0.5558697
1144 -1.492517 0.4982115 -1.393842 0.4368269
1145 -0.9444616 0.4233275 -0.1129869 0.4756037
1146 -0.9115175 0.4368269 0.1643031 0.4055887
1147 -0.8644189 0.4234789 -0.4418328 0.4735041
1148 -0.9273406 0.4187675 -0.7230001 0.462738
1149 -1.105324 0.4439204 -0.1986707 0.4463048
1150 -1.15268 0.435487 -0.09716375 0.4409583
1151 -1.08846 0.4200081 -0.9860676 0.4137975
1152 -1.654947 0.4966167 0.173746 0.4171525
1153 -1.185624 0.4434841 -0.784119 0.4239357
1154 -1.287131 0.4302543 -0.9444616 0.4233275
1155 -1.336846 0.4244145 -0.3053816 0.4526444
1156 -0.9115175 0.4368269 0.4549134 0.4290639
1157 -1.658228 0.4783397 -0.6903022 0.4509496
1158 -0.9659258 0.4290433 -0.8048065 0.4302543
1159 -1.145132 0.4540581 -0.3826743 0.4394047
1160 -1.349927 0.4272465 -0.4150215 0.4090487
1161 -0.8856259 0.4294942 -0.3053816 0.4526444
1162 -1.791759 0.4564354 -0.9808293 0.4564354
1163 -0.9115175 0.4368269 -0.3342021 0.4098468
1164 -1.072637 0.4356342 -0.6122595 0.5027519
1165 -1.232722 0.4356342 -0.7672552 0.4187675
1166 -0.9949339 0.4160295 -0.5564203 0.4345567
1167 -1.688575 0.6030346 -0.5773154 0.4432319
1168 -1.436305 0.4643593 -0.169899 0.4124789
1169 -1.185624 0.4434841 -0.2082179 0.4570067
1170 -0.9044563 0.4126686 -0.1986707 0.4463048
1171 -0.9409833 0.4714943 -0.8967461 0.4581371
1172 -0.8856259 0.4294942 -0.4221322 0.4126686
1173 -0.8856259 0.4294942 -0.4183685 0.4602043
1174 -1.818571 0.4788776 -0.3483067 0.4186228
1175 -1.024504 0.4446558 -1.627456 0.4540581
1176 -1.15268 0.435487 -0.2811674 0.4339732
1177 -1.110882 0.4677977 -0.8708284 0.5150913
1178 -1.239926 0.5029099 -1.151996 0.5052122
1179 -0.8338145 0.4147769 -0.6023722 0.4535157
1180 -0.8856259 0.4294942 -0.9949339 0.4877869
1181 -1.238658 0.5303797 -1.105324 0.4439204
1182 -1.325742 0.5010015 -0.5389965 0.4272465
1183 -0.9949339 0.4877869 -1.466337 0.4529107
1184 -1.443453 0.5604439 -0.173746 0.4171525
1185 -1.252763 0.4818121 -0.6632942 0.41125
1186 -0.8472979 0.4186144 -1.185624 0.4247058
1187 -1.024504 0.4446558 -1.08846 0.4200081
1188 -1.818571 0.4788776 -0.9044563 0.4906335
1189 -1.026799 0.4694582 -0.2811674 0.4339732
1190 -0.9949339 0.4160295 -0.5773154 0.4432319
1191 -1.110882 0.4677977 -1.16868 0.4834244
1192 -0.9044563 0.4126686 -1.225952 0.4533379
1193 -1.105324 0.4439204 0.1840036 0.4293769
1194 -1.349927 0.4272465 -0.4221322 0.4126686
1195 -0.8644189 0.4234789 -0.120628 0.4914773
1196 -0.9409833 0.4714943 -1.026799 0.4694582
1197 -0.9659258 0.4290433 -0.7672552 0.4187675
1198 -0.9115175 0.4368269 -0.8299061 0.4378935
1199 -1.313022 0.4360782 -0.3212048 0.4644956
1200 -0.9044563 0.4126686 -1.063521 0.4550843
1201 -1.105324 0.4439204 -0.9409833 0.4714943
1202 -1.345709 0.4434841 -0.4706044 0.4367556
1203 -1.024504 0.4446558 -0.5658078 0.4047822
1204 -1.185624 0.4434841 -0.4706044 0.4367556
1205 -0.9808293 0.4564354 0.1015069 0.4507285
1206 -1.105324 0.4439204 0.1667748 0.4086459
1207 -1.061518 0.5079612 -0.6405034 0.4327624
1208 -1.497885 0.4788776 -0.7672552 0.4187675
1209 -1.024504 0.4234789 -0.5564203 0.4345567
1210 -1.325742 0.5010015 -0.8299061 0.4378935
1211 -0.9808293 0.4564354 -0.9679921 0.5112249
1212 -1.688575 0.6030346 0.09716375 0.4409583
1213 -1.026799 0.4694582 -0.8048065 0.4302543
1214 -1.313022 0.4360782 -0.2578291 0.4152829
1215 -0.9659258 0.4290433 -0.9949339 0.4877869
1216 -1.306252 0.4529107 -0.7672552 0.4187675
1217 -1.43401 0.4290639 -0.6216882 0.4258028
1218 -1.045969 0.4288938 -1.329136 0.5277476
1219 -1.466337 0.4529107 -0.784119 0.4239357
1220 -1.024504 0.4446558 -0.4418328 0.422577
1221 -1.546637 0.4533379 -0.7433369 0.4114058
1222 -1.252763 0.4818121 -0.7761181 0.4488203
1223 -1.393842 0.4368269 -1.895333 0.4962268
1224 -0.9115175 0.4368269 1.214922e-15 0.4559604
1225 -1.287131 0.4302543 -0.3212048 0.4644956
1226 -1.368742 0.4313371 -0.8967461 0.4581371
1227 -1.104804 0.4239357 -0.4893853 0.4458424
1228 -0.9949339 0.4160295 -1.58844 0.4457037
1229 -0.8472979 0.4186144 -0.8602013 0.4470831
1230 -1.832088 0.519525 -0.5389965 0.4272465
1231 -1.335455 0.4805323 -1.238658 0.4194426
1232 -1.443453 0.5604439 -0.5029516 0.411876
1233 -1.170071 0.4211173 -0.7230001 0.462738
1234 -1.466337 0.4529107 -0.9679921 0.5112249
1235 -1.16868 0.4834244 -1.306252 0.4529107
1236 -1.265666 0.4433396 -0.7231952 0.4313371
1237 -1.349927 0.4272465 -1.738271 0.4784736
1238 -1.975633 0.4966167 -0.4183685 0.4602043
1239 -1.193574 0.4664795 -0.4706044 0.4367556
1240 -1.436305 0.4643593 -0.5639354 0.4040676
1241 -0.8236369 0.411876 -0.9409833 0.4714943
1242 -1.417066 0.525544 -0.6869552 0.4192294
1243 -1.325742 0.5010015 -0.5126097 0.4160295
1244 -0.8856259 0.4294942 -0.1840036 0.4293769
1245 -0.9444616 0.4233275 -0.3577496 0.4244145
1246 -1.287131 0.4302543 -0.120628 0.4914773
1247 -0.8472979 0.4186144 -1.082864 0.485402
1248 -0.8644189 0.4234789 -0.4183685 0.4602043
1249 -1.409825 0.4994459 -0.6631313 0.4410653
1250 -0.9923369 0.4360782 0.1840036 0.4293769
1251 -0.9444616 0.4233275 -1.16868 0.4834244
1252 -1.492517 0.4982115 -0.4706044 0.4367556
1253 -1.105324 0.4439204 -0.6023722 0.4535157
1254 -0.9409833 0.4714943 -0.1624307 0.4032581
1255 -1.151256 0.5710828 0.08581592 0.4143612
1256 -1.287131 0.4302543 -0.4893853 0.4458424
1257 -1.466337 0.4529107 -1.104804 0.4239357
1258 -0.9923369 0.4360782 -0.5055486 0.5083881
1259 -0.9409833 0.4714943 -0.3254224 0.4043038
1260 -0.9923369 0.4360782 -1.08846 0.4200081
1261 -1.436305 0.4643593 -1.436305 0.4643593
1262 -0.9949339 0.4877869 -1.024504 0.4446558
1263 -0.8123216 0.4086459 -0.3212048 0.4644956
1264 -0.9444616 0.4233275 -0.5934292 0.4152433
1265 -1.026799 0.4694582 -1.275185 0.4654784
1266 -0.9444616 0.4233275 -0.09047758 0.4254859
1267 -0.9808293 0.4564354 -0.9808293 0.4564354
1268 -1.728044 0.4432319 -0.6061358 0.4200081
1269 -0.9444616 0.4233275 -0.3826743 0.4394047
1270 -0.9141145 0.4152433 -0.7032996 0.4247058
1271 -1.451434 0.4327624 -0.4418328 0.422577
1272 -0.8338145 0.4147769 -0.5564203 0.4345567
1273 -1.076545 0.4171493 -0.2196978 0.4695742
1274 -1.818571 0.4788776 -0.4706044 0.4367556
1275 -1.443453 0.5604439 -0.7231952 0.4313371
1276 -1.409825 0.4994459 -0.5126097 0.4160295
1277 -0.8856259 0.4294942 -0.3577496 0.4244145
1278 -1.193574 0.4664795 -0.1129869 0.4756037
1279 -1.578185 0.4784736 -1.206311 0.4294942
1280 -0.8338145 0.4147769 -1.063521 0.4550843
1281 -0.9923369 0.4360782 -0.5126097 0.4160295
1282 -1.15268 0.435487 -1.072637 0.4356342
1283 -1.546637 0.4533379 -0.3690975 0.4312908
1284 -1.145132 0.4540581 -0.3405208 0.4137975
1285 -0.9808293 0.4564354 -0.4028161 0.4027779
1286 -1.206311 0.4294942 -0.3690975 0.4312908
1287 -0.8856259 0.4294942 -0.2451225 0.4047822
1288 -1.313022 0.4360782 -0.3405208 0.4137975
1289 -1.126011 0.4290433 -0.8299061 0.4378935
1290 -1.15268 0.435487 -1.145132 0.4540581
1291 -1.007641 0.4192294 -0.7672552 0.4187675
1292 -1.145132 0.4540581 -0.2336149 0.4844057
1293 -1.345709 0.4434841 -0.09352606 0.432608
1294 -0.8338145 0.4147769 -0.5389965 0.4272465
1295 -0.8338145 0.4147769 -0.8967461 0.4581371
1296 -1.152842 0.4171525 -0.3826743 0.4394047
1297 -1.386294 0.4527692 0.1015069 0.4507285
1298 -1.225952 0.4533379 -0.7472144 0.4392975
1299 -1.466337 0.4529107 -0.6061358 0.4200081
1300 -1.669657 0.5210497 -0.4418328 0.422577
1301 -1.110882 0.4677977 -1.082864 0.485402
1302 -1.325742 0.5010015 -0.8967461 0.4581371
1303 -1.072637 0.4356342 -0.6626105 0.5251303
1304 -1.026799 0.4694582 -0.5753641 0.4084183
1305 -0.9141145 0.4152433 -1.866983 0.5987859
1306 -1.072637 0.4356342 -0.5718859 0.4844663
1307 -1.417066 0.525544 -0.6405034 0.4327624
1308 -0.9659258 0.4290433 -0.6061358 0.4200081
1309 -1.145132 0.5335063 -0.8165262 0.4098468
1310 -1.185624 0.4434841 -0.8472979 0.4186144
1311 -0.8644189 0.4234789 -0.5126097 0.4160295
1312 -0.8165262 0.4098468 -0.9409833 0.4714943
1313 -1.185624 0.4434841 -0.5934292 0.4152433
1314 -0.9808293 0.4564354 -0.2578291 0.4152829
1315 -0.942893 0.4457037 -0.5118946 0.4565761
1316 -1.386294 0.4527692 -0.6405034 0.4327624
1317 -0.9808293 0.4564354 -0.784119 0.4239357
1318 -1.185624 0.4434841 -1.466337 0.4529107
1319 -1.061518 0.5079612 -0.2811674 0.4339732
1320 -1.265666 0.4433396 -0.5389965 0.4692952
1321 -0.8981375 0.4109834 -0.1643031 0.4055887
1322 -1.007641 0.4192294 0.09047758 0.4254859
1323 -1.275185 0.4654784 -1.335455 0.4805323
1324 -0.942893 0.4457037 -0.6737291 0.4147769
1325 -1.658228 0.4783397 -0.5389965 0.4272465
1326 -0.9860676 0.4137975 -0.6737291 0.4147769
1327 -1.024504 0.4446558 -0.6632942 0.41125
1328 -0.9808293 0.4564354 -0.5934292 0.4152433
1329 -1.024504 0.4446558 -0.8109302 0.4602233
1330 -0.8165262 0.4098468 -0.09352606 0.432608
1331 -1.145132 0.4540581 -0.8165262 0.4098468
1332 -0.8644189 0.4234789 -0.7032996 0.4247058
1333 -1.265666 0.4433396 -1.654947 0.4966167
1334 -1.105324 0.4439204 -0.1015069 0.4507285
1335 -1.082864 0.485402 -0.3577496 0.4244145
1336 -0.9923369 0.4360782 0.4549134 0.4290639
1337 -1.225952 0.4533379 -0.08161134 0.4040676
1338 -1.356005 0.4647759 0.09047758 0.4254859
1339 -1.443453 0.5604439 0.5118946 0.4565761
1340 -0.8644189 0.4234789 -1.497885 0.4788776
1341 -0.9141145 0.4152433 -0.942893 0.4457037
1342 -0.9115175 0.4368269 -1.047969 0.5372124
1343 -0.8472979 0.4186144 -0.7230001 0.462738
1344 -1.238658 0.5303797 -1.707676 0.5541437
1345 -0.8472979 0.4186144 0.1840036 0.4293769
1346 -1.110882 0.4677977 -0.9044563 0.4906335
1347 -1.026799 0.4694582 -0.5639354 0.4040676
1348 -0.9923369 0.4360782 -0.5245245 0.4211173
1349 -1.516347 0.4642212 -0.7230001 0.462738
1350 -1.16868 0.4834244 -0.3292056 0.4067001
1351 -1.024504 0.4446558 -0.5126097 0.4160295
1352 -1.67669 0.4647759 -0.7761181 0.4488203
1353 -1.466337 0.4529107 -1.072637 0.4356342
1354 -1.356005 0.4647759 -0.8048065 0.4302543
1355 -1.393842 0.4368269 1.665334e-16 0.4999999
1356 -1.024504 0.4446558 -0.4418328 0.4735041
1357 -1.578185 0.4784736 -0.9115175 0.4368269
1358 -0.9273406 0.4187675 -1.225952 0.4533379
1359 -1.238658 0.5303797 -1.238658 0.5303797
1360 -0.942893 0.4457037 -1.082864 0.485402
1361 -1.024504 0.4446558 -0.4706044 0.4367556
1362 -0.9409833 0.4714943 -0.5718859 0.4844663
1363 -1.072637 0.4356342 -0.784119 0.4239357
1364 -1.393842 0.4368269 -0.784119 0.4239357
1365 -1.225952 0.4533379 -0.2811674 0.4339732
1366 -1.024504 0.4234789 0.3989077 0.4489551
1367 -1.574128 0.4972743 -0.8048065 0.4302543
1368 -1.08846 0.4200081 -0.7537718 0.4146224
1369 -1.024504 0.4234789 -0.3292056 0.4067001
1370 -1.145132 0.4540581 -0.5029516 0.411876
1371 -0.9444616 0.4233275 -0.8856259 0.4294942
1372 -0.9949339 0.4877869 -1.193574 0.4664795
1373 -1.206311 0.4294942 9.618136e-16 0.4559604
1374 -1.076545 0.4171493 -0.8048065 0.4302543
1375 -1.061518 0.5079612 -1.045969 0.4288938
1376 -1.072637 0.4356342 -1.026799 0.4694582
1377 -1.225952 0.4533379 -0.09047758 0.4254859
1378 -1.061518 0.5079612 -1.252763 0.4818121
1379 -0.8165262 0.4098468 -0.1840036 0.4293769
1380 -0.942893 0.4457037 -0.9115175 0.4368269
1381 -1.252763 0.5669143 -0.4703789 0.4893376
1382 -0.8472979 0.4186144 -1.082864 0.485402
1383 -1.206311 0.4294942 -1.417066 0.525544
1384 -1.345709 0.4434841 -0.5773154 0.4432319
1385 -1.60107 0.432608 -2.856024e-16 0.4287463
1386 -0.8981375 0.4109834 -1.16868 0.4834244
1387 -1.409825 0.4994459 -0.8644189 0.4234789
1388 -0.9923369 0.4360782 -1.045969 0.4288938
1389 -1.306252 0.4529107 -0.5245245 0.4211173
1390 -1.252763 0.4818121 -0.9659258 0.4290433
1391 -1.145132 0.4540581 -0.6631313 0.4410653
1392 -1.313022 0.4360782 0.09352606 0.432608
1393 -1.15268 0.435487 -0.7357068 0.4090487
1394 -1.232722 0.4356342 -0.9808293 0.4564354
1395 -0.8856259 0.4294942 -0.4706044 0.4367556
1396 -1.206311 0.4294942 -0.1015069 0.4507285
1397 -1.045969 0.4288938 0.1986707 0.4463048
1398 -1.126011 0.4290433 -0.483116 0.4032581
1399 -2.438387 0.5507762 -1.252763 0.4818121
1400 -0.9949339 0.4877869 -0.7761181 0.4488203
1401 -0.8338145 0.4147769 -1.669657 0.5210497
1402 -1.265666 0.4433396 -0.9115175 0.4368269
1403 -1.15268 0.435487 -0.4953214 0.4085753
1404 -1.024504 0.4234789 -0.8644189 0.4234789
1405 -1.368742 0.4313371 0.2642236 0.4204775
1406 -0.9273406 0.4187675 -0.5718859 0.4844663
1407 -0.8644189 0.4234789 -0.169899 0.4124789
1408 -1.152842 0.4171525 -0.8299061 0.4378935
1409 -1.206311 0.4294942 -0.9949339 0.4877869
1410 -2.019438 0.4565761 -0.6631313 0.4410653
1411 -1.658228 0.4783397 -1.024504 0.4234789
1412 -1.104804 0.4239357 -1.356005 0.4647759
1413 -1.492517 0.4982115 -1.024504 0.4234789
1414 -1.045969 0.4288938 0.1784077 0.4227496
1415 -1.159237 0.4186228 -0.2525908 0.4109834
1416 -1.193574 0.4664795 -0.7761181 0.4488203
1417 -1.306252 0.4529107 -1.024504 0.4234789
1418 -1.082864 0.485402 5.062177e-16 0.4559604
1419 -1.59639 0.4643593 -0.4706044 0.4367556
1420 -1.105324 0.4439204 -1.082864 0.485402
1421 -1.239926 0.5029099 -1.024504 0.4446558
1422 -1.627456 0.4540581 -0.5029516 0.411876
1423 -1.306252 0.4529107 -0.5389965 0.4272465
1424 -1.275185 0.4654784 -1.275185 0.4654784
1425 -1.007641 0.4192294 -1.110882 0.4677977
1426 -0.9115175 0.4368269 -0.6631313 0.4410653
1427 -1.329136 0.5277476 -0.2921968 0.4425626
1428 -1.110882 0.4677977 -0.8048065 0.4302543
1429 -0.8856259 0.4294942 -0.4953214 0.4085753
1430 -0.8338145 0.4147769 -0.5029516 0.411876
1431 -1.16868 0.4834244 -0.6737291 0.4147769
1432 -1.735247 0.4962268 -0.942893 0.4457037
1433 -1.225952 0.4533379 -1.16868 0.4834244
1434 -1.082864 0.485402 -0.08793007 0.4194426
1435 -1.232722 0.4356342 -0.5126097 0.4160295
1436 -1.185624 0.4434841 -0.5773154 0.4432319
1437 -1.519826 0.4312908 -0.08269172 0.4067372
1438 -1.492517 0.4982115 -0.9923369 0.4360782
1439 -1.126011 0.4290433 -1.193574 0.4664795
1440 -0.942893 0.4457037 -0.7761181 0.4488203
1441 -0.9949339 0.4877869 -1.026799 0.4694582
1442 -1.329136 0.5277476 -1.829838e-16 0.4120428
1443 -0.9949339 0.4877869 -1.072637 0.4356342
1444 -0.9115175 0.4368269 -0.7433369 0.4114058
1445 -1.669657 0.5210497 0.1906898 0.4371704
1446 -0.9949339 0.4877869 -0.7032996 0.4247058
1447 -1.225952 0.4533379 -0.6737291 0.4147769
1448 -1.063521 0.4550843 -0.6325226 0.4657377
1449 -1.275185 0.4654784 -0.2719337 0.4266656
1450 -1.15268 0.435487 -0.2642236 0.4204775
1451 -1.145132 0.4540581 0.120628 0.4914773
1452 -1.393842 0.4368269 1.026799 0.4694582
1453 -1.252763 0.4818121 -0.09047758 0.4254859
1454 -0.8950133 0.4101499 -0.4703789 0.4893376
1455 -0.9808293 0.4564354 -0.7472144 0.4392975
1456 -1.586965 0.5222301 -0.1906898 0.4371704
1457 -1.024504 0.4234789 -0.8472979 0.4186144
1458 -1.024504 0.4234789 0.08581592 0.4143612
1459 -1.105324 0.4439204 -1.007641 0.4192294
1460 -1.15268 0.435487 -0.8338145 0.4147769
1461 -0.8644189 0.4234789 -1.063521 0.4550843
1462 -1.082864 0.485402 -1.082864 0.485402
1463 -1.436305 0.4643593 -0.6903022 0.4509496
1464 -0.8644189 0.4234789 -0.9273406 0.4187675
1465 -1.16868 0.4834244 -0.9409833 0.4714943
1466 -1.232722 0.4356342 -0.09352606 0.432608
1467 -0.8236369 0.411876 -0.6498909 0.4067001
1468 -1.126011 0.4290433 -0.7231952 0.4313371
1469 -1.578185 0.4784736 -1.185624 0.4247058
1470 -0.942893 0.4457037 -1.436305 0.4643593
1471 -0.9273406 0.4187675 -0.7231952 0.4313371
1472 -1.082864 0.485402 -0.4418328 0.4735041
1473 -0.8856259 0.4294942 -0.5639354 0.4040676
1474 -1.345709 0.4434841 -0.7231952 0.4313371
1475 -1.026799 0.4694582 -0.6061358 0.4200081
1476 -1.185624 0.4434841 -0.9444616 0.4233275
1477 -0.9808293 0.4564354 -0.2196978 0.4695742
1478 -1.232722 0.4356342 -0.3989077 0.4489551
1479 -0.9115175 0.4368269 0.3342021 0.4098468
1480 -1.150728 0.4166666 -0.7282385 0.4067372
1481 -1.104804 0.4239357 -0.3053816 0.4526444
1482 -0.9808293 0.4564354 -1.145132 0.4540581
1483 -0.8338145 0.4147769 -0.4893853 0.4458424
1484 -1.67669 0.4647759 -1.024504 0.4234789
1485 -1.026799 0.4694582 -1.325742 0.5010015
1486 -0.9115175 0.4368269 -1.024504 0.4446558
1487 -1.082864 0.485402 -0.1015069 0.4507285
1488 -0.8338145 0.4147769 -0.7537718 0.4146224
1489 -1.436305 0.4643593 -0.8109302 0.4940117
1490 -0.9808293 0.4564354 -0.7032996 0.4247058
1491 -0.9659258 0.4290433 -1.104804 0.4239357
1492 -1.105324 0.4439204 -0.106711 0.4621676
1493 -0.942893 0.4457037 -0.6455468 0.4052204
1494 -1.275185 0.4654784 -0.3577496 0.4244145
1495 -1.104804 0.4239357 2.967194e-16 0.4454351
1496 -1.386294 0.4527692 0.6690496 0.4803534
1497 -1.356005 0.4647759 -0.6216882 0.4258028
1498 -0.942893 0.4457037 -0.6216882 0.4258028
1499 -1.063521 0.4550843 -1.063521 0.4550843
1500 -1.126011 0.4290433 -0.7433369 0.4114058
1501 -1.045969 0.4288938 -0.9409833 0.4714943
1502 -1.874451 0.5516225 -1.75751 0.4654784
1503 -1.386294 0.4527692 -0.2196978 0.4695742
1504 -0.8981375 0.4109834 -1.225952 0.4533379
1505 -0.8472979 0.4186144 -0.9808293 0.4564354
1506 -1.072637 0.4356342 -0.1667748 0.4086459
1507 -1.558145 0.4392975 -0.5118946 0.4565761
1508 -1.336846 0.4244145 -0.9444616 0.4233275
1509 -1.110882 0.4677977 0.106711 0.4621676
1510 -1.08846 0.4200081 -0.8644189 0.4234789
1511 -1.275185 0.4654784 0.08269172 0.4067372
1512 -1.063521 0.4550843 -0.3483067 0.4186228
1513 -0.8472979 0.4186144 -1.024504 0.4446558
1514 -0.9923369 0.4360782 -0.2719337 0.4266656
1515 -0.9659258 0.4290433 -0.9141145 0.4152433
1516 -1.267235 0.4258028 -0.5126097 0.4160295
1517 -1.193574 0.4664795 -0.4309984 0.4171493
1518 -0.9444616 0.4233275 -0.3826743 0.4394047
1519 -1.082864 0.485402 -1.082864 0.485402
1520 -1.15268 0.435487 -0.4095055 0.4062239
1521 -1.170071 0.4211173 -1.063521 0.4550843
1522 -1.426009 0.4439204 -0.4549134 0.4290639
1523 -1.53393 0.5579535 -1.15268 0.435487
1524 -1.15268 0.435487 -0.7231952 0.4313371
1525 -1.110882 0.4677977 -1.265666 0.4433396
1526 -1.024504 0.4234789 -1.225952 0.4533379
1527 -1.151996 0.5052122 -1.145132 0.5335063
1528 -1.265666 0.4433396 -0.3212048 0.4644956
1529 -1.104804 0.4239357 -1.063521 0.4550843
1530 -0.942893 0.4457037 -0.5773154 0.4432319
1531 -0.8472979 0.4186144 -0.2578291 0.4152829
1532 -0.8644189 0.4234789 0.1906898 0.4371704
1533 -0.9409833 0.4714943 -0.2642236 0.4204775
1534 -1.267235 0.4258028 -0.5773154 0.4432319
1535 -0.9808293 0.4564354 -1.16868 0.4834244
1536 -1.67669 0.4647759 0.2921968 0.4425626
1537 -0.9659258 0.4290433 -0.3212048 0.4644956
1538 -0.9044563 0.4126686 -0.5126097 0.4160295
1539 -1.345709 0.4434841 -0.7230001 0.462738
1540 -1.225952 0.4533379 -0.1667748 0.4086459
1541 -0.9115175 0.4368269 0.1015069 0.4507285
1542 -1.145132 0.4540581 -0.3292056 0.4067001
1543 -1.145132 0.4540581 -0.942893 0.4457037
1544 -0.8644189 0.4234789 -0.5934292 0.4152433
1545 -1.145132 0.5335063 -0.7230001 0.462738
1546 -1.145132 0.4540581 -0.2196978 0.4695742
1547 -1.356005 0.4647759 -0.1840036 0.4293769
1548 -1.024504 0.4234789 -1.024504 0.4234789
1549 -0.9141145 0.4152433 -0.6903022 0.4509496
1550 -1.497885 0.4788776 -1.068759 0.4152829
1551 -1.026799 0.4694582 -0.169899 0.4124789
1552 -1.396378 0.6129348 0.1840036 0.4293769
1553 -1.193574 0.4664795 -0.2921968 0.4425626
1554 -0.8472979 0.4186144 -0.6498909 0.4067001
1555 -0.8123216 0.4086459 -0.9949339 0.4877869
1556 -1.335455 0.4805323 -0.1840036 0.4293769
1557 -0.9949339 0.4877869 -0.1129869 0.4756037
1558 -1.151996 0.5052122 -0.9808293 0.4564354
1559 -1.068759 0.4152829 -0.6216882 0.4258028
1560 -1.356005 0.4647759 -0.6405034 0.4327624
1561 -1.063521 0.4550843 -0.3227734 0.4026187
1562 -1.335455 0.4805323 -0.8109302 0.4940117
1563 -1.024504 0.4234789 -0.5389965 0.4272465
1564 -1.546637 0.4533379 -0.08269172 0.4067372
1565 -0.9659258 0.4290433 -0.4855078 0.4043038
1566 -1.252763 0.4818121 -0.5126097 0.4160295
1567 -1.335455 0.4805323 -0.784119 0.4239357
1568 -1.151256 0.5710828 -0.169899 0.4124789
1569 -1.466337 0.4529107 -2.233592 0.5201536
1570 -1.072637 0.4356342 -0.4309984 0.4171493
1571 -1.026799 0.4694582 -1.185624 0.4434841
1572 -1.110882 0.4677977 -0.08581592 0.4143612
1573 -0.8472979 0.4186144 -1.59639 0.4643593
1574 -1.287131 0.4302543 -1.110882 0.4677977
1575 -0.9444616 0.4233275 -0.5832515 0.4114058
1576 -1.417066 0.4795581 -0.6498909 0.4067001
1577 -0.9444616 0.4233275 -1.110882 0.4677977
1578 -1.026799 0.4694582 -0.9273406 0.4187675
1579 -1.110882 0.4677977 -1.393842 0.4368269
1580 -1.072637 0.4356342 -0.5389965 0.4272465
1581 -0.8165262 0.4098468 -1.045969 0.4288938
1582 -1.409825 0.4994459 -0.5118946 0.4565761
1583 -1.368742 0.4313371 -0.6061358 0.4200081
1584 -1.082864 0.485402 -0.2451225 0.4047822
1585 -0.8472979 0.4186144 -0.4150215 0.4090487
1586 -1.709068 0.4550843 -0.2811674 0.4339732
1587 -1.59639 0.4643593 -1.497885 0.4788776
1588 -0.9949339 0.4160295 -1.150728 0.4166666
1589 -0.9808293 0.4564354 -0.8109302 0.4602233
1590 -1.145132 0.4540581 -0.173746 0.4171525
1591 -0.8472979 0.4186144 -0.09047758 0.4254859
1592 -0.8856259 0.4294942 -0.942893 0.4457037
1593 -0.9444616 0.4233275 -0.5773154 0.4432319
1594 -1.185624 0.4434841 -0.9044563 0.4906335
1595 -1.082864 0.485402 1.316166e-15 0.4559604
1596 -0.8856259 0.4294942 -0.7672552 0.4187675
1597 -0.9141145 0.4152433 -0.5934292 0.4152433
1598 -0.9409833 0.4714943 -0.8856259 0.4294942
1599 -1.313022 0.4360782 -0.9273406 0.4187675
1600 -1.43401 0.4290639 -0.7472144 0.4392975
1601 -0.8338145 0.4147769 -1.252763 0.4818121
1602 -0.942893 0.4457037 -0.6903022 0.4509496
1603 -1.026799 0.4694582 -0.8048065 0.4302543
1604 -1.072637 0.4356342 -0.4150215 0.4090487
1605 -1.193574 0.4664795 -0.6903022 0.4509496
1606 -1.735247 0.4962268 -0.8602013 0.4470831
1607 -1.252763 0.4818121 -0.4150215 0.4090487
1608 -0.8856259 0.4294942 -0.5753641 0.4084183
1609 -1.007641 0.4192294 -0.8048065 0.4302543
1610 -1.024504 0.4234789 -0.4418328 0.422577
1611 -1.063521 0.4550843 -0.5695909 0.4062239
1612 -0.9949339 0.4877869 -0.8299061 0.4378935
1613 -0.8236369 0.411876 -0.3053816 0.4526444
1614 -1.076545 0.4171493 -1.15268 0.435487
1615 -1.185624 0.4434841 -0.3989077 0.4489551
1616 -1.193574 0.4664795 0.2921968 0.4425626
1617 -1.535517 0.4345567 -0.9808293 0.4564354
1618 -0.8472979 0.4186144 -0.9923369 0.4360782
1619 -1.306252 0.4529107 -0.784119 0.4239357
1620 -1.225952 0.4533379 -0.08793007 0.4194426
1621 -1.53393 0.5579535 0.169899 0.4124789
1622 -1.170071 0.4211173 -1.751268 0.5201536
1623 -0.942893 0.4457037 -0.8602013 0.4470831
1624 -1.67669 0.4647759 -0.5718859 0.4844663
1625 -1.349927 0.4272465 -1.193574 0.4664795
1626 -0.8472979 0.4186144 -0.6631313 0.4410653
1627 -0.9949339 0.4160295 -0.5029516 0.411876
1628 -1.007641 0.4192294 -0.6325226 0.4657377
1629 -1.082864 0.485402 0.09716375 0.4409583
1630 -0.8338145 0.4147769 -0.3483067 0.4186228
1631 -1.265666 0.4433396 -0.4183685 0.4602043
1632 -0.9444616 0.4233275 -0.2525908 0.4109834
1633 -0.8472979 0.4186144 -0.8950133 0.4101499
1634 -1.063521 0.4550843 -0.3254224 0.4043038
1635 -0.9808293 0.4564354 -1.265666 0.4433396
1636 -1.345709 0.4434841 -0.6869552 0.4192294
1637 -1.265666 0.4433396 0.3212048 0.4644956
1638 -1.16868 0.4834244 0.6023722 0.4535157
1639 -1.024504 0.4234789 -0.6903022 0.4509496
1640 -1.024504 0.4446558 -0.6554069 0.4085753
1641 -1.956063 0.5507762 -0.8109302 0.4602233
1642 -1.007641 0.4192294 -0.6632942 0.41125
1643 -0.8338145 0.4147769 -0.6903022 0.4509496
1644 -1.386294 0.4527692 -0.8472979 0.4186144
1645 -0.9659258 0.4290433 -1.516347 0.4642212
1646 -1.356005 0.4647759 -0.8048065 0.4302543
1647 -1.426009 0.4439204 -0.3826743 0.4394047
1648 -0.9659258 0.4290433 -0.8856259 0.4294942
1649 -1.58844 0.4457037 0.173746 0.4171525
1650 -0.9923369 0.4360782 -1.193574 0.4664795
1651 -1.126011 0.4290433 -0.6023722 0.4535157
1652 -0.942893 0.4457037 -0.7137665 0.4980118
1653 -1.59639 0.4643593 -0.6737291 0.4147769
1654 -0.8338145 0.4147769 0.09047758 0.4254859
1655 -0.9044563 0.4126686 -1.007641 0.4192294
1656 -0.8981375 0.4109834 -0.5753641 0.4084183
1657 -0.8644189 0.4234789 -0.2578291 0.4152829
1658 -1.045969 0.4288938 -0.8299061 0.4378935
1659 -0.9273406 0.4187675 -0.3405208 0.4137975
1660 -0.942893 0.4457037 -0.8338145 0.4147769
1661 -0.9949339 0.4160295 -0.4893853 0.4458424
1662 -0.8950133 0.4101499 -0.4054651 0.4041452
1663 -0.9949339 0.4877869 -1.193574 0.4664795
1664 -0.8472979 0.4186144 -0.3403258 0.4784871
1665 -1.145132 0.4540581 1.618414e-15 0.4287463
1666 -1.024504 0.4446558 -1.510592 0.4293769
1667 -0.9808293 0.4564354 -0.1643031 0.4055887
1668 -1.368742 0.4313371 -0.7761181 0.4488203
1669 -1.89939 0.4795581 -0.4183685 0.4602043
1670 -1.126011 0.4290433 -0.1129869 0.4756037
1671 -1.104804 0.4239357 -1.063521 0.4550843
1672 -0.8472979 0.4186144 -0.2719337 0.4266656
1673 -0.8644189 0.4234789 -1.126011 0.4290433
1674 -0.9808293 0.4564354 -0.4418328 0.4735041
1675 -1.063521 0.4550843 -1.497885 0.6090528
1676 -0.9409833 0.4714943 -0.120628 0.4914773
1677 -1.345709 0.4434841 -1.024504 0.4234789
1678 -1.076545 0.4171493 -1.024504 0.4234789
1679 -1.422662 0.4266656 -1.026799 0.4694582
1680 -1.306252 0.4529107 -0.5245245 0.4211173
1681 -1.151996 0.5052122 2.572898e-15 0.4828043
1682 -0.8338145 0.4147769 -0.5564203 0.4345567
1683 -1.126011 0.4290433 -1.265666 0.4433396
1684 -1.061518 0.5079612 -0.4183685 0.4602043
1685 -1.024504 0.4446558 -1.43401 0.4290639
1686 -1.443453 0.5604439 0.3292056 0.4067001
1687 -1.574128 0.4972743 -0.3053816 0.4526444
1688 -1.275185 0.4654784 -0.4418328 0.4735041
1689 -1.238658 0.5303797 -0.9949339 0.4877869
1690 -1.239926 0.5029099 -0.8708284 0.5150913
1691 -0.9409833 0.4714943 -0.5564203 0.4345567
1692 -0.8165262 0.4098468 -0.7761181 0.4488203
1693 -1.738271 0.4784736 -1.105324 0.4439204
1694 -0.9409833 0.4714943 -0.6869552 0.4192294
1695 -1.105324 0.4439204 -0.8299061 0.4378935
1696 -1.105324 0.4439204 -0.3577496 0.4244145
1697 -1.152842 0.4171525 -0.5126097 0.4160295
1698 -1.586965 0.5222301 -0.6023722 0.4535157
1699 -0.9115175 0.4368269 -0.3826743 0.4394047
1700 -0.8856259 0.4294942 -1.275185 0.4654784
1701 -0.9044563 0.4126686 -0.7137665 0.4980118
1702 -1.024504 0.4446558 -0.3403258 0.4784871
1703 -1.082864 0.485402 -0.08029994 0.4008031
1704 -0.9409833 0.4714943 -0.7032996 0.4247058
1705 -1.325742 0.5010015 -0.4706044 0.4367556
1706 -1.145132 0.4540581 -0.3826743 0.4394047
1707 -1.345709 0.4434841 -0.4418328 0.4735041
1708 -1.313022 0.4360782 -0.8856259 0.4294942
1709 -0.9659258 0.4290433 -0.8981375 0.4109834
1710 -1.185624 0.4434841 -0.5695909 0.4062239
1711 -1.24332 0.4204775 -0.784119 0.4239357
1712 -1.275185 0.4654784 -0.6737291 0.4147769
1713 -0.9409833 0.4714943 -0.3053816 0.4526444
1714 -0.9923369 0.4360782 -0.784119 0.4239357
1715 -0.9659258 0.4290433 -0.2811674 0.4339732
1716 -0.9044563 0.4126686 -0.4549134 0.4290639
1717 -1.368742 0.4313371 -0.5564203 0.4345567
1718 -1.546637 0.4533379 0.3403258 0.4784871
1719 -1.252763 0.4818121 -1.15268 0.435487
1720 -1.063521 0.4550843 -0.5639354 0.4040676
1721 -1.336846 0.4244145 -1.239926 0.5029099
1722 -1.024504 0.4234789 -0.5753641 0.4084183
1723 -1.232722 0.4356342 -0.2525908 0.4109834
1724 -1.58844 0.4457037 -0.1643031 0.4055887
1725 -1.267235 0.4258028 -0.5029516 0.411876
1726 -1.185624 0.4434841 -1.024504 0.4446558
1727 -1.368742 0.4313371 -0.4221322 0.4126686
1728 -1.026799 0.4694582 -0.9659258 0.4290433
1729 -1.345709 0.4434841 -1.145132 0.4540581
1730 -1.08846 0.4200081 -1.393842 0.4368269
1731 -1.082864 0.485402 -0.784119 0.4239357
1732 -1.024504 0.4234789 -0.3826743 0.4394047
1733 -1.104804 0.4239357 -0.8472979 0.4186144
1734 -0.9949339 0.4160295 -1.53393 0.5579535
1735 -1.026799 0.4694582 -1.105324 0.4439204
1736 -1.045969 0.4288938 -0.363668 0.4951265
1737 -1.705567 0.6771654 -0.6216882 0.4258028
1738 -1.306252 0.4529107 -0.1906898 0.4371704
1739 -1.024504 0.4234789 0.2082179 0.4570067
1740 -1.063521 0.4550843 -1.206311 0.4294942
1741 -1.061518 0.5079612 -0.5564203 0.4345567
1742 -1.275185 0.4654784 -1.329136 0.5277476
1743 -1.082864 0.485402 -0.1906898 0.4371704
1744 -0.9949339 0.4160295 -1.185624 0.4247058
1745 -1.063521 0.4550843 -0.8644189 0.4234789
1746 -0.8856259 0.4294942 -0.6216882 0.4258028
1747 -0.9659258 0.4290433 -0.9444616 0.4233275
1748 -0.8472979 0.4186144 -0.9679921 0.5112249
1749 -1.206311 0.4294942 -0.2642236 0.4204775
1750 -1.082864 0.485402 -0.9409833 0.4714943
1751 -0.942893 0.4457037 1.087792e-15 0.4082483
1752 -1.393842 0.4368269 -1.506828 0.4446558
1753 -1.007641 0.4192294 -1.306252 0.4529107
1754 -1.063521 0.4550843 -0.2082179 0.4570067
1755 -1.061518 0.5079612 -1.126011 0.4290433
1756 -1.313022 0.4360782 -0.3577496 0.4244145
1757 -0.8644189 0.4234789 -0.08793007 0.4194426
1758 -0.9141145 0.4152433 -0.8708284 0.5150913
1759 -1.206311 0.4294942 -0.8472979 0.4186144
1760 -1.024504 0.4446558 -0.2811674 0.4339732
1761 -1.007641 0.4192294 -0.7231952 0.4313371
1762 -0.9659258 0.4290433 -1.791759 0.4564354
1763 -1.574128 0.4972743 -0.4183685 0.4602043
1764 -1.75751 0.4654784 -0.2578291 0.4152829
1765 -1.252763 0.4818121 -0.8472979 0.4186144
1766 -1.335455 0.4805323 -7.251946e-16 0.4082483
1767 -1.082864 0.485402 -0.3826743 0.4394047
1768 -1.072637 0.4356342 -0.5564203 0.4345567
1769 -1.492517 0.4982115 -0.7537718 0.4146224
1770 -0.9115175 0.4368269 -1.08846 0.4200081
1771 -0.8338145 0.4147769 -1.443453 0.5604439
1772 -1.671131 0.4470831 -1.436305 0.4643593
1773 -0.8644189 0.4234789 -0.9949339 0.4160295
1774 -0.9273406 0.4187675 -1.145132 0.5335063
1775 -0.942893 0.4457037 -0.6325226 0.4657377
1776 -0.9273406 0.4187675 -0.5245245 0.4211173
1777 -0.9949339 0.4877869 -0.7230001 0.462738
1778 -1.026799 0.4694582 -0.6216882 0.4258028
1779 -1.654947 0.4966167 -0.5389965 0.4692952
1780 -1.024504 0.4234789 -0.4893853 0.4458424
1781 -1.409825 0.4994459 0.1840036 0.4293769
1782 -0.8644189 0.4234789 -0.4150215 0.4090487
1783 -0.9659258 0.4290433 -0.3577496 0.4244145
1784 -0.9141145 0.4152433 -0.7693214 0.5196757
1785 -0.8109302 0.4082483 -0.784119 0.4239357
1786 -1.325742 0.5010015 -0.7230001 0.462738
1787 -1.393842 0.4368269 -0.7137665 0.4980118
1788 -0.942893 0.4457037 -0.1418806 0.5332081
1789 -1.265666 0.4433396 -0.2578291 0.4152829
1790 -1.252763 0.4818121 -1.061518 0.5079612
1791 -1.026799 0.4694582 -0.6690496 0.4803534
1792 -0.9409833 0.4714943 0.1784077 0.4227496
1793 -0.9923369 0.4360782 -0.4823241 0.4029072
1794 -1.267235 0.4258028 -0.08793007 0.4194426
1795 -0.8856259 0.4294942 -0.9044563 0.4906335
1796 -1.417066 0.525544 -0.9659258 0.4290433
1797 -1.252763 0.4818121 -0.1667748 0.4086459
1798 -1.152842 0.4171525 -0.6631313 0.4410653
1799 -0.8856259 0.4294942 -0.4953214 0.4085753
1800 -0.9444616 0.4233275 2.422704e-16 0.4364356
1801 -0.9444616 0.4233275 -0.7625757 0.4768785
1802 -0.9409833 0.4714943 -1.265666 0.4433396
1803 -1.252763 0.4818121 -0.7672552 0.4187675
1804 -1.193574 0.4664795 -1.239926 0.5029099
1805 -1.239926 0.5029099 -0.4309984 0.4171493
1806 -1.329136 0.5277476 -1.225952 0.4533379
1807 -1.105324 0.4439204 0.169899 0.4124789
1808 -0.8856259 0.4294942 -0.3212048 0.4644956
1809 -1.061518 0.5079612 -0.3826743 0.4394047
1810 -1.239926 0.5029099 -1.287131 0.4302543
1811 -1.89939 0.4795581 -0.5773154 0.4432319
1812 -1.024504 0.4446558 -0.4221322 0.4126686
1813 -0.9409833 0.4714943 -0.9659258 0.4290433
1814 -1.126011 0.4290433 0.6023722 0.4535157
1815 -0.9659258 0.4290433 -1.185624 0.4434841
1816 -1.345709 0.4434841 -0.7761181 0.4488203
1817 -0.9808293 0.4564354 -1.574128 0.4972743
1818 -1.728044 0.4432319 0.1784077 0.4227496
1819 -0.9860676 0.4137975 -1.072637 0.4356342
1820 -1.755215 0.4488203 -0.9444616 0.4233275
1821 -0.9273406 0.4187675 -1.287131 0.4302543
1822 -1.451434 0.4327624 -0.8109302 0.4602233
1823 -1.335455 0.4805323 -0.8236369 0.411876
1824 -1.336846 0.4244145 -0.6405034 0.4327624
1825 -1.698233 0.4371704 -0.1906898 0.4371704
1826 -0.9115175 0.4368269 -0.1667748 0.4086459
1827 -1.024504 0.4446558 -1.185624 0.4247058
1828 -0.9949339 0.4160295 -0.2642236 0.4204775
1829 -1.275185 0.4654784 -7.616065e-16 0.4287463
1830 -1.59639 0.4643593 -0.6216882 0.4258028
1831 -0.9273406 0.4187675 -1.151996 0.5052122
1832 -0.8338145 0.4147769 -0.169899 0.4124789
1833 -1.08846 0.4200081 -0.4418328 0.4735041
1834 -1.105324 0.4439204 0.4893853 0.4458424
1835 -0.9444616 0.4233275 -0.3989077 0.4489551
1836 -1.072637 0.4356342 -1.502882 0.523718
1837 -0.8856259 0.4294942 -0.5832515 0.4114058
1838 -1.232722 0.4356342 -0.3212048 0.4644956
1839 -0.9949339 0.4160295 -0.4549134 0.4290639
1840 -1.506828 0.4446558 -1.047969 0.5372124
1841 -0.942893 0.4457037 -0.8472979 0.4186144
1842 -1.026799 0.4694582 -0.6631313 0.4410653
1843 -1.59639 0.4643593 -0.9409833 0.4714943
1844 -1.045969 0.4288938 -1.252763 0.4818121
1845 -1.225952 0.4533379 -1.225952 0.4533379
1846 -1.082864 0.485402 -0.5118946 0.4565761
1847 -1.232722 0.4356342 -1.705567 0.6771654
1848 -0.9808293 0.4564354 -0.08581592 0.4143612
1849 -1.287131 0.4302543 -0.7472144 0.4392975
1850 -0.9860676 0.4137975 -1.417066 0.525544
1851 -1.206311 0.4294942 -0.942893 0.4457037
1852 -0.8338145 0.4147769 -1.072637 0.4356342
1853 -1.151996 0.5052122 -0.169899 0.4124789
1854 -0.9273406 0.4187675 -0.8856259 0.4294942
1855 -0.9949339 0.4877869 -0.8109302 0.4940117
1856 -1.072637 0.4356342 -0.3292056 0.4067001
1857 -1.507544 0.4287463 -1.151996 0.5052122
1858 -0.9409833 0.4714943 -0.3053816 0.4526444
1859 -0.8123216 0.4086459 -1.287131 0.4302543
1860 -1.15268 0.435487 -0.9409833 0.4714943
1861 -1.738271 0.4784736 -0.2811674 0.4339732
1862 -0.9949339 0.4877869 -0.5564203 0.4345567
1863 -1.497885 0.4788776 -1.061518 0.5079612
1864 -1.287131 0.4302543 -0.2642236 0.4204775
1865 -1.024504 0.4234789 -0.5126097 0.4160295
1866 -1.045969 0.4288938 -0.5118946 0.4565761
1867 -1.393842 0.4368269 -1.239926 0.5029099
1868 -1.426009 0.4439204 -1.516347 0.4642212
1869 -0.9949339 0.4877869 -0.6903022 0.4509496
1870 0.9409833 0.4714943 -0.784119 0.4239357
1871 -1.735247 0.4962268 -0.8530533 0.4739492
1872 -0.9409833 0.4714943 -0.9044563 0.4906335
1873 -1.265666 0.4433396 -0.2811674 0.4339732
1874 -0.9949339 0.4160295 -1.061518 0.5079612
1875 -1.193574 0.4664795 -0.9115175 0.4368269
1876 -1.62186 0.5558697 -1.151996 0.5052122
1877 -1.185624 0.4434841 -0.4418328 0.4735041
1878 -0.9949339 0.4877869 -0.7032996 0.4247058
1879 -1.832088 0.519525 -1.325742 0.5010015
1880 -1.267235 0.4258028 0.9044563 0.4906335
1881 -1.110882 0.4677977 -0.6869552 0.4192294
1882 -1.185624 0.4434841 -1.145132 0.4540581
1883 -0.9659258 0.4290433 -0.9409833 0.4714943
1884 -1.265666 0.4433396 -3.119455e-16 0.4682925
1885 -1.104804 0.4239357 -0.5126097 0.4160295
1886 -1.239926 0.5029099 -0.8338145 0.4147769
1887 -1.007641 0.4192294 -0.6737291 0.4147769
1888 -1.110882 0.4677977 -0.5773154 0.4432319
1889 -0.8644189 0.4234789 -0.9808293 0.4124789
1890 -1.072637 0.4356342 -1.417066 0.4795581
1891 -1.185624 0.4434841 -0.7472144 0.4392975
1892 -1.185624 0.4434841 -1.578185 0.4784736
1893 -1.110882 0.4677977 -0.9808293 0.4564354
1894 -1.170071 0.4211173 -0.3577496 0.4244145
1895 -1.185624 0.4434841 -0.7231952 0.4313371
1896 -1.045969 0.4288938 -0.5118946 0.4565761
1897 -1.16868 0.4834244 -0.6023722 0.4535157
1898 -0.9409833 0.4714943 0.106711 0.4621676
1899 -1.16868 0.4834244 -0.8981375 0.4109834
1900 -0.9409833 0.4714943 -0.1840036 0.4293769
1901 -0.942893 0.4457037 -0.2578291 0.4152829
1902 -1.252763 0.422577 0.120628 0.4914773
1903 -1.026799 0.4694582 -0.1906898 0.4371704
1904 -0.9141145 0.4152433 0 0.4082483
1905 -1.535517 0.4345567 -1.516347 0.4642212
1906 -1.110882 0.4677977 -3.23815e-16 0.4166666
1907 -0.8856259 0.4294942 -0.2578291 0.4152829
1908 -0.9115175 0.4368269 -0.9949339 0.4160295
1909 -0.8644189 0.4234789 -0.7761181 0.4488203
1910 -1.15268 0.435487 -0.9808293 0.4564354
1911 -0.8856259 0.4294942 -0.7625757 0.4768785
1912 -0.9949339 0.4877869 -0.9409833 0.4714943
1913 -1.063521 0.4550843 -0.5389965 0.4692952
1914 -1.239926 0.5029099 -1.170071 0.4211173
1915 -1.436305 0.4643593 -1.082864 0.485402
1916 -1.386294 0.4527692 -1.045969 0.4288938
1917 -1.669657 0.5210497 0.3577496 0.4244145
1918 -0.8236369 0.411876 -1.063057e-15 0.4559604
1919 -1.145132 0.5335063 -0.6903022 0.4509496
1920 -1.082864 0.485402 -0.1986707 0.4463048
1921 -1.024504 0.4234789 -1.252763 0.4818121
1922 -1.329136 0.5277476 0.2196978 0.4695742
1923 -1.688575 0.6030346 -1.193574 0.4664795
1924 -1.072637 0.4356342 -1.024504 0.4234789
1925 -1.492517 0.4982115 -1.024504 0.4234789
1926 -1.81529 0.4960976 -0.4150215 0.4090487
1927 -0.9659258 0.4290433 -0.1784077 0.4227496
1928 -1.516347 0.4642212 -0.9409833 0.4714943
1929 -1.026799 0.4694582 -0.8338145 0.4147769
1930 -1.287131 0.4302543 -0.4309984 0.4171493
1931 -1.072637 0.4356342 -0.5564203 0.4345567
1932 -0.8472979 0.4186144 -0.3989077 0.4489551
1933 -0.9409833 0.4714943 -0.9949339 0.4877869
1934 -1.126011 0.4290433 -0.6903022 0.4509496
1935 -0.9949339 0.4877869 -0.7231952 0.4313371
1936 -1.422662 0.4266656 -0.2336149 0.4844057
1937 -0.9923369 0.4360782 -0.3292056 0.4067001
1938 -0.8236369 0.411876 -0.3292056 0.4067001
1939 -0.9949339 0.4877869 -0.2403854 0.4008031
1940 -1.252763 0.4818121 0.2578291 0.4152829
1941 -1.225952 0.4533379 -0.9808293 0.4564354
1942 -0.9115175 0.4368269 -1.045969 0.4288938
1943 -0.9923369 0.4360782 0.1015069 0.4507285
1944 -1.436305 0.4643593 -0.9949339 0.4877869
1945 -1.110882 0.4677977 -0.6023722 0.4535157
1946 -0.9273406 0.4187675 -0.3483067 0.4186228
1947 -0.8472979 0.4186144 -1.076545 0.4171493
1948 -0.9808293 0.4564354 -1.436305 0.4643593
1949 -1.225952 0.4533379 -1.952799 0.5971839
1950 -1.126011 0.4290433 -0.106711 0.4621676
1951 -1.225952 0.4533379 -0.5126097 0.4160295
1952 -0.8123216 0.4086459 -1.436305 0.4643593
1953 -1.061518 0.5079612 -5.43896e-16 0.4082483
1954 -0.9659258 0.4290433 -1.110882 0.4677977
1955 -0.8644189 0.4234789 -0.7537718 0.4146224
1956 -0.9273406 0.4187675 -0.7672552 0.4187675
1957 -1.151996 0.5052122 -0.173746 0.4171525
1958 -1.265666 0.4433396 -5.551114e-17 0.4999999
1959 -1.145132 0.5335063 -0.5564203 0.4345567
1960 -1.368742 0.4313371 -0.4895482 0.4060661
1961 -1.586965 0.5222301 -0.5389965 0.4272465
1962 -1.409825 0.4994459 -0.3053816 0.4526444
1963 -1.145132 0.4540581 -0.5695909 0.4062239
1964 -1.417066 0.4795581 -0.173746 0.4171525
1965 -1.159237 0.4186228 -0.1611193 0.4016159
1966 -1.151996 0.5052122 -1.206311 0.4294942
1967 -1.045969 0.4288938 0.1840036 0.4293769
1968 -1.105324 0.4439204 -0.9044563 0.4906335
1969 -1.007641 0.4192294 -0.2642236 0.4204775
1970 -2.119574 0.5948452 -0.5718859 0.4844663
1971 -2.138063 0.4982115 -1.126011 0.4290433
1972 -1.225952 0.4533379 -0.9409833 0.4714943
1973 -1.329136 0.5277476 -0.4893853 0.4458424
1974 -1.627456 0.4540581 -0.08408312 0.4101499
1975 -1.152842 0.4171525 -1.064912 0.4143612
1976 -0.9409833 0.4714943 -0.7032996 0.4247058
1977 -1.072637 0.4356342 -1.193574 0.4664795
1978 -0.8165262 0.4098468 0.120628 0.4914773
1979 -1.105324 0.4439204 -0.4418328 0.4735041
1980 -1.08846 0.4200081 -0.6631313 0.4410653
1981 -0.942893 0.4457037 -1.145132 0.4540581
1982 -1.306252 0.4529107 -0.1840036 0.4293769
1983 -0.8472979 0.4186144 -0.9444616 0.4233275
1984 -1.252763 0.4818121 -0.2082179 0.4570067
1985 -1.417066 0.525544 -0.6869552 0.4192294
1986 -1.818571 0.4788776 -0.6869552 0.4192294
1987 -0.8856259 0.4294942 -0.7032996 0.4247058
1988 -0.9808293 0.4564354 -0.5718859 0.4844663
1989 -0.9409833 0.4714943 -0.08581592 0.4143612
1990 -1.325742 0.5010015 0.3826743 0.4394047
1991 -1.345709 0.4434841 -0.7761181 0.4488203
1992 -1.466337 0.4529107 -0.106711 0.4621676
1993 -1.232722 0.4356342 -1.15268 0.435487
1994 -0.8644189 0.4234789 -1.007641 0.4192294
1995 -1.045969 0.4288938 -0.6061358 0.4200081
1996 -1.145132 0.4540581 -1.024504 0.4446558
1997 -1.105324 0.4439204 -0.7137665 0.4980118
1998 -1.409825 0.4994459 -1.044545 0.5760508
1999 -1.159237 0.4186228 -0.5718859 0.4844663
2000 -1.185624 0.4434841 -0.8472979 0.4186144
2001 -1.024504 0.4446558 -1.063521 0.4550843
2002 -1.072637 0.4356342 -0.7672552 0.4187675
2003 -0.9949339 0.4877869 -0.5055486 0.5083881
2004 -0.8950133 0.4101499 -0.9444616 0.4233275
2005 -1.417066 0.525544 -0.8967461 0.4581371
2006 -1.669657 0.5210497 -0.5245245 0.4211173
2007 -1.105324 0.4439204 0.09716375 0.4409583
2008 -0.9923369 0.4360782 -1.08846 0.4200081
2009 -1.16868 0.4834244 -0.1784077 0.4227496
2010 -1.105324 0.4439204 -1.238658 0.5303797
2011 -1.072637 0.4356342 -0.7672552 0.4187675
2012 -1.007641 0.4192294 -0.3053816 0.4526444
2013 -0.942893 0.4457037 -0.5658078 0.4047822
2014 -0.9444616 0.4233275 -0.9923369 0.4360782
2015 -1.232722 0.4356342 -1.08846 0.4200081
2016 -1.535517 0.4345567 -0.8530533 0.4739492
2017 -1.238658 0.5303797 -0.1906898 0.4371704
2018 -1.67669 0.4647759 -0.9273406 0.4187675
2019 -1.061518 0.5079612 -0.6737291 0.4147769
2020 -1.546637 0.4533379 -0.4028161 0.4027779
2021 -0.8472979 0.4186144 0.09352606 0.432608
2022 -1.345709 0.4434841 -0.8602013 0.4470831
2023 -1.061518 0.5079612 -1.755215 0.4488203
2024 -0.9444616 0.4233275 -1.586965 0.5222301
2025 -1.126011 0.4290433 -0.8048065 0.4302543
2026 -0.8950133 0.4101499 -0.6690496 0.4803534
2027 -1.185624 0.4434841 -0.6632942 0.41125
2028 -0.8109302 0.4082483 -0.5029516 0.411876
2029 -1.275185 0.4654784 -0.1300531 0.5103933
2030 -1.265666 0.4433396 -0.8602013 0.4470831
2031 -1.024504 0.4446558 -1.252763 0.4818121
2032 -1.105324 0.4439204 -0.1784077 0.4227496
2033 -1.024504 0.4446558 -0.8338145 0.4147769
2034 -1.007641 0.4192294 0.1015069 0.4507285
2035 -1.313022 0.4360782 -0.7537718 0.4146224
2036 -0.8472979 0.4186144 -1.063521 0.4550843
2037 -1.417066 0.525544 -1.125643e-15 0.4828043
2038 -0.9923369 0.4360782 -0.363668 0.4951265
2039 -0.8165262 0.4098468 -1.026799 0.4694582
2040 -1.325742 0.5010015 -0.4054651 0.4041452
2041 -1.225952 0.4533379 -1.586965 0.5222301
2042 -1.105324 0.4439204 -0.4309984 0.4171493
2043 -1.356005 0.4647759 -0.942893 0.4457037
2044 -1.145132 0.4540581 -1.063521 0.4550843
2045 -1.104804 0.4239357 -0.8299061 0.4378935
2046 -1.325742 0.5010015 -0.09352606 0.432608
2047 -0.942893 0.4457037 -1.151996 0.5052122
2048 -1.063521 0.4550843 0.2336149 0.4844057
2049 -1.145132 0.4540581 -0.7032996 0.4247058
2050 -1.105324 0.4439204 -0.4183685 0.4602043
2051 -1.082864 0.485402 -0.4953214 0.4085753
2052 -1.110882 0.4677977 -0.2811674 0.4339732
2053 -1.024504 0.4446558 -0.7761181 0.4488203
2054 -1.024504 0.4234789 -0.4183685 0.4602043
2055 -1.574128 0.4972743 -0.8472979 0.4186144
2056 -1.709068 0.4550843 -0.169899 0.4124789
2057 -0.9659258 0.4290433 -0.4706044 0.4367556
2058 -1.252763 0.4818121 -0.2578291 0.4152829
2059 -1.151996 0.5052122 -0.942893 0.4457037
2060 -1.126011 0.4290433 -0.4549134 0.4290639
2061 -1.287131 0.4302543 -0.7231952 0.4313371
2062 -1.072637 0.4356342 -0.7230001 0.462738
2063 -1.145132 0.4540581 -0.6216882 0.4258028
2064 -1.08846 0.4200081 -0.7032996 0.4247058
2065 -0.942893 0.4457037 -0.4549134 0.4290639
2066 -0.9444616 0.4233275 -0.173746 0.4171525
2067 -0.9923369 0.4360782 -0.7472144 0.4392975
2068 -1.063521 0.4550843 -0.7231952 0.4313371
2069 -1.436305 0.4643593 -1.185624 0.4434841
2070 -1.232722 0.4356342 -1.151996 0.5052122
2071 -1.356005 0.4647759 -0.3342021 0.4098468
2072 -0.8236369 0.411876 -1.061518 0.5079612
2073 -1.586965 0.5222301 -0.1015069 0.4507285
2074 -0.9273406 0.4187675 -1.145132 0.5335063
2075 -0.9409833 0.4714943 -0.6632942 0.41125
2076 -0.9860676 0.4137975 -0.8472979 0.4186144
2077 -1.516347 0.4642212 -1.045969 0.4288938
2078 -0.9409833 0.4714943 -0.4183685 0.4602043
2079 -0.8338145 0.4147769 -0.2483862 0.4075027
2080 -0.9409833 0.4714943 -0.7433369 0.4114058
2081 -1.232722 0.4356342 -0.4418328 0.4735041
2082 -1.417066 0.4795581 -0.6631313 0.4410653
2083 -0.8981375 0.4109834 -0.784119 0.4239357
2084 -1.024504 0.4446558 -1.063521 0.4550843
2085 -1.193574 0.4664795 -0.4893853 0.4458424
2086 -1.076545 0.4171493 -0.5753641 0.4084183
2087 -0.9115175 0.4368269 -0.2483862 0.4075027
2088 -0.9659258 0.4290433 -1.15268 0.435487
2089 -1.735247 0.4962268 -0.106711 0.4621676
2090 -0.9808293 0.4564354 -0.9044563 0.4906335
2091 -0.8644189 0.4234789 -0.7625757 0.4768785
2092 -0.9923369 0.4360782 -0.3483067 0.4186228
2093 -1.349927 0.4272465 -0.4893853 0.4458424
2094 -1.15268 0.435487 -0.8644189 0.4234789
2095 -0.9141145 0.4152433 -0.3826743 0.4394047
2096 -0.942893 0.4457037 0.09047758 0.4254859
2097 -1.024504 0.4446558 -0.6405034 0.4327624
2098 -1.105324 0.4439204 0.09047758 0.4254859
2099 -1.417066 0.4254859 -0.4549134 0.4290639
2100 -1.024504 0.4446558 -1.586965 0.5222301
2101 -1.265666 0.4433396 -0.3826743 0.4394047
2102 -0.9409833 0.4714943 -0.3292056 0.4067001
2103 -1.53393 0.5579535 -1.368742 0.4313371
2104 -1.586965 0.5222301 -1.110882 0.4677977
2105 -1.08846 0.4200081 -0.08793007 0.4194426
2106 -1.08846 0.4200081 -0.3405208 0.4137975
2107 -0.8644189 0.4234789 -0.9679921 0.5112249
2108 -1.67669 0.4647759 -1.707676 0.5541437
2109 -1.007641 0.4192294 -0.363668 0.4951265
2110 -0.942893 0.4457037 -0.5029516 0.411876
2111 -1.072637 0.4356342 -0.6869552 0.4192294
2112 -0.8338145 0.4147769 -0.6626105 0.5251303
2113 -0.9409833 0.4714943 -0.7693214 0.5196757
2114 -0.8338145 0.4147769 -1.126011 0.4290433
2115 -1.193574 0.4664795 -0.9044563 0.4906335
2116 -1.024504 0.4446558 -0.8338145 0.4147769
2117 -1.145132 0.4540581 -0.4028161 0.4027779
2118 -1.466337 0.4529107 -0.7761181 0.4488203
2119 -0.8472979 0.4186144 -0.4221322 0.4126686
2120 -1.43401 0.4290639 -0.8602013 0.4470831
2121 -0.9949339 0.4160295 -0.3405208 0.4137975
2122 -0.9444616 0.4233275 -0.9141145 0.4152433
2123 -1.082864 0.485402 -0.08408312 0.4101499
2124 -1.072637 0.4356342 -0.7357068 0.4090487
2125 -0.9923369 0.4360782 -0.7472144 0.4392975
2126 -1.356005 0.4647759 -0.09352606 0.432608
2127 -1.225952 0.4533379 -1.225952 0.4533379
2128 -1.289668 0.6175663 -0.9444616 0.4233275
2129 -1.063521 0.4550843 -0.7433369 0.4114058
2130 -0.9444616 0.4233275 -0.3292056 0.4067001
2131 -1.492517 0.4982115 -0.2578291 0.4152829
2132 -1.145132 0.4540581 -0.3483067 0.4186228
2133 -1.170071 0.4211173 -0.9444616 0.4233275
2134 -1.669657 0.5210497 -0.5389965 0.4272465
2135 -1.546637 0.4533379 -0.9679921 0.5112249
2136 -1.15268 0.435487 -1.502882 0.523718
2137 -1.105324 0.4439204 -0.9949339 0.4160295
2138 -0.9949339 0.4877869 -0.942893 0.4457037
2139 -1.335455 0.4805323 -1.466337 0.4529107
2140 -0.8338145 0.4147769 -0.6061358 0.4200081
2141 -0.8644189 0.4234789 -1.024504 0.4446558
2142 -1.110882 0.4677977 -0.09716375 0.4409583
2143 -1.126011 0.4290433 -1.349927 0.4272465
2144 -1.225952 0.4533379 0.1986707 0.4463048
2145 -1.145132 0.4540581 -1.225952 0.4533379
2146 -2.304838 0.5010015 -0.1667748 0.4086459
2147 -0.9949339 0.4877869 0.09047758 0.4254859
2148 -1.265666 0.4433396 -0.3212048 0.4644956
2149 -1.061518 0.5079612 -0.7230001 0.462738
2150 -1.252763 0.5669143 -0.3053816 0.4526444
2151 -1.151996 0.5052122 -0.4309984 0.4171493
2152 -1.063521 0.4550843 -1.16868 0.4834244
2153 -1.08846 0.4200081 -0.9044563 0.4126686
2154 -1.267235 0.4258028 -0.5934292 0.4152433
2155 -0.942893 0.4457037 -0.09716375 0.4409583
2156 -1.53393 0.5579535 -0.8602013 0.4470831
2157 -1.313022 0.4360782 -0.4150215 0.4090487
2158 -1.287131 0.4302543 -0.2642236 0.4204775
2159 -1.574128 0.4972743 -5.712049e-16 0.4287463
2160 -0.9808293 0.4564354 -0.9808293 0.4564354
2161 -0.9949339 0.4877869 -1.335455 0.4805323
2162 -1.063521 0.4550843 -0.9923369 0.4360782
2163 -0.9444616 0.4233275 0.09047758 0.4254859
2164 -1.466337 0.4529107 -0.2811674 0.4339732
2165 -1.306252 0.4529107 1.978129e-16 0.4454351
2166 -1.627456 0.4540581 -1.206311 0.4294942
2167 -1.510592 0.4293769 -0.5029516 0.411876
2168 -1.510592 0.4293769 -0.942893 0.4457037
2169 -0.8236369 0.411876 -0.9923369 0.4360782
2170 -1.072637 0.4356342 -0.8109302 0.4602233
2171 -1.287131 0.4302543 -1.150728 0.4166666
2172 -1.185624 0.4434841 -0.7761181 0.4488203
2173 -1.072637 0.4356342 -0.09047758 0.4254859
2174 -0.9409833 0.4714943 -0.6216882 0.4258028
2175 -1.252763 0.5669143 -0.9923369 0.4360782
2176 -1.658228 0.4783397 0.09716375 0.4409583
2177 -1.436305 0.4643593 4.945323e-17 0.4454351
2178 -1.145132 0.4540581 -0.4418328 0.422577
2179 -1.688575 0.6030346 -0.3577496 0.4244145
2180 -0.8644189 0.4234789 -1.024504 0.4234789
2181 -1.516347 0.4642212 -1.275185 0.4654784
2182 -1.516347 0.4642212 -1.239926 0.5029099
2183 -1.082864 0.485402 -0.7230001 0.462738
2184 -1.225952 0.4533379 -0.5389965 0.4272465
2185 -0.9044563 0.4126686 -0.120628 0.4914773
2186 -0.8644189 0.4234789 -0.2578291 0.4152829
2187 -1.386294 0.4527692 -0.5389965 0.4272465
2188 -1.436305 0.4643593 -1.193574 0.4664795
2189 -0.8472979 0.4186144 0.1600854 0.4003203
2190 -1.072637 0.4356342 0.1643031 0.4055887
2191 -1.193574 0.4664795 -1.335455 0.4805323
2192 -0.9808293 0.4564354 -0.4549134 0.4290639
2193 -0.9273406 0.4187675 0.1015069 0.4507285
2194 -1.58844 0.4457037 -0.2719337 0.4266656
2195 -1.185624 0.4434841 -0.1986707 0.4463048
2196 -1.152842 0.4171525 -0.1624307 0.4032581
2197 -1.126011 0.4290433 -0.4703789 0.4893376
2198 -1.105324 0.4439204 -1.558145 0.4392975
2199 -1.546637 0.4533379 -1.024504 0.4234789
2200 -1.329136 0.5277476 -1.063521 0.4550843
2201 -1.267235 0.4258028 -0.9949339 0.4160295
