-0.6204627 0.3126092 -0.3271679 0.2866688
-0.6631313 0.3118803 -0.6306572 0.3034386
-0.8581088 0.3480741 -0.9008904 0.2911283
-1.127237 0.3256196 -0.4028161 0.284807
-0.7058862 0.3228518 -0.4073069 0.2864445
-0.960462 0.3277531 -0.4795731 0.3119123
-0.7291634 0.2878092 -1.225661 0.3135139
-0.7231952 0.3050014 0.1280519 0.2922965
-1.225661 0.3135139 -0.1039897 0.322597
-0.9808293 0.2916667 -0.1245388 0.2882453
-0.9044563 0.3469303 -0.5478424 0.2923799
-0.9382696 0.3059263 -0.6061358 0.2969906
-0.7391835 0.290001 -0.7418251 0.3319723
-0.6281424 0.2920488 -0.2466415 0.2871211
-0.6090641 0.3094803 -0.3718742 0.2883707
-1.045969 0.3032737 -0.2962658 0.2915595
-0.7230001 0.3272052 -1.124255 0.3173031
-0.6760944 0.3152225 -0.3254224 0.3058744
-0.6931472 0.3082206 -0.4058358 0.301682
-0.7137665 0.3521475 0.2763448 0.3041763
-0.6760944 0.3152225 -0.5663955 0.3102149
-0.5790339 0.2897793 0.3755834 0.30772
-0.9044563 0.2993645 -0.4015047 0.2843256
-0.8856259 0.3036982 -0.1267517 0.2908036
-0.6405034 0.3060092 -0.04119198 0.2870371
-0.8855378 0.3122757 -0.120628 0.2836683
-0.6962384 0.3330662 -0.1255828 0.289455
-0.6090641 0.3094803 -0.8527773 0.2893115
-0.8873032 0.2960321 -0.2247552 0.3002558
-0.6336275 0.2934287 -0.3105711 0.2986563
-0.6718492 0.3029629 -0.04119198 0.2870371
-0.8353772 0.3205028 -0.0463475 0.3044776
-0.6190392 0.2897517 -0.2525908 0.2906091
-0.654222 0.2985827 -0.545017 0.3178497
-0.8530533 0.3351327 -0.3064596 0.2966316
-0.7937771 0.2932096 -0.2336149 0.3425266
-0.9264601 0.3118732 -0.4150215 0.2892411
-0.760999 0.3138466 -0.2061502 0.287435
-1.145522 0.3137188 -0.5126097 0.2941773
-0.6513001 0.3088166 -0.5118946 0.322848
-0.7032996 0.3003124 -0.7433369 0.2909078
-0.9258242 0.3035119 -0.5986563 0.3066096
-0.6869552 0.29644 0.1255828 0.289455
-0.5646361 0.2859081 -0.2408508 0.3109525
-0.9044563 0.2993645 -0.8342799 0.3016509
-0.5753641 0.2887954 -1.061518 0.3591828
-0.8109302 0.325427 -0.4353181 0.3128842
-0.6466272 0.3197359 -0.2362766 0.3079472
-0.8553787 0.2976293 -0.106711 0.3268018
-0.7032996 0.3003124 -0.3904272 0.3139453
-0.9949339 0.3449174 0.1473247 0.3136154
-0.7032996 0.3003124 -0.7481904 0.2919664
-0.9544425 0.2938705 -0.6397767 0.2949719
-0.6931472 0.3082206 -0.2550738 0.2920538
-0.6947134 0.2982805 0.5126097 0.2941773
-0.8530533 0.3351327 -0.3212048 0.328448
-0.6869552 0.29644 -0.5531011 0.2938705
-0.6760944 0.3152225 -0.5126097 0.2941773
-0.679975 0.2947801 -0.2827681 0.2847225
-0.6466272 0.3197359 -0.8001193 0.2945349
-0.7271535 0.2962491 -0.9273406 0.2961133
-0.8183542 0.3167167 -0.5273549 0.2865285
-0.7481904 0.2919664 -0.4586966 0.2901959
-0.9088558 0.2926302 -1.05341 0.3373007
-1.086045 0.3260623 -0.171727 0.2932414
-0.9141145 0.2936214 1.287621e-15 0.2899464
-0.6513001 0.3088166 -1.058607 0.3055311
-0.6947134 0.2982805 -0.9141145 0.2936214
-0.7758389 0.30722 -0.7053673 0.3112217
-0.6681797 0.2919664 -0.5832515 0.2909078
-0.7162282 0.3383806 -0.5322168 0.2879237
-1.007641 0.3112382 -0.3129272 0.324087
-0.6190392 0.2897517 -0.1015069 0.3187131
-0.7127714 0.3025479 -0.2076971 0.2885212
-0.5639354 0.285719 -0.4719207 0.2945429
-0.786716 0.330969 -0.7758389 0.30722
-0.7350414 0.298035 -0.6096925 0.2873836
-0.7350414 0.298035 -0.04367506 0.2955652
-1.010263 0.3380451 -0.298493 0.3163606
-0.6479829 0.2871211 -0.6990819 0.2898623
-1.002152 0.3183208 -0.2282587 0.3026137
-0.8299061 0.3096375 -0.2513144 0.3177298
-0.6204627 0.3126092 -0.1267517 0.2908036
-0.6306572 0.3034386 -0.08013898 0.2831262
-0.7937771 0.2932096 -0.3946542 0.2973507
-0.5753641 0.2887954 -0.4626235 0.2914915
-0.6962384 0.3330662 -0.05735517 0.3387332
-0.7534605 0.302192 -2.00452e-15 0.3224127
-0.7127714 0.3025479 -0.3254224 0.2858859
-1.128268 0.3106916 -0.08914585 0.2986376
-1.206311 0.3036982 -0.2076971 0.2885212
-0.9353894 0.2976293 -0.7834385 0.291046
-0.7939519 0.3018934 -0.5029516 0.2912403
-0.9841307 0.332642 -0.2032282 0.3192185
-0.6061358 0.2969906 -0.4953214 0.2889063
-0.9923369 0.3083539 0.169899 0.2916667
-0.8342799 0.3016509 0.4495429 0.2871599
-0.7334496 0.3180802 -0.315081 0.3008638
-0.8028461 0.31326 -1.063521 0.3217932
-0.8165262 0.2898054 -0.7081851 0.291939
-0.8338145 0.2932916 -0.6626105 0.3006705
-0.5994486 0.29522 -0.5029516 0.2912403
-1.007641 0.3112382 -0.6498909 0.2875804
-0.6902432 0.3455994 -0.2032282 0.3192185
-0.6397767 0.2949719 -0.2186368 0.2960966
-0.6336275 0.2934287 -1.48904 0.3953747
-0.7032996 0.3003124 -0.1039897 0.322597
-0.6466272 0.3197359 -0.5722221 0.2879515
-0.7672552 0.2961133 -0.2320898 0.3051729
-0.8452979 0.3039391 -0.5431499 0.291046
-0.7939519 0.3018934 0.04808619 0.310139
-0.8109302 0.325427 -0.4495429 0.2871599
-0.8167611 0.3068109 -0.0463475 0.3044776
-1.030958 0.2937334 -0.3904272 0.3139453
-0.6737291 0.2932916 -0.2839227 0.285313
-0.6781093 0.32822 -0.5790339 0.2897793
-0.7200766 0.2946437 -0.3778772 0.2907584
-0.8243173 0.2995791 0.2408508 0.3109525
-0.7927086 0.3212122 -0.4150215 0.2892411
-0.9838152 0.3147613 -0.8401246 0.294562
-0.760114 0.294562 -0.2638496 0.3256813
-0.8574502 0.3064599 0.04092224 0.2860954
-0.6204627 0.3126092 -0.5574813 0.3217194
-0.8553787 0.2976293 -0.1015069 0.3187131
-0.6096925 0.2873836 -0.8338145 0.2932916
-0.760114 0.294562 -0.4183685 0.2904481
-0.9754268 0.2977101 -0.3206853 0.2837516
-0.6336275 0.2934287 -0.1443423 0.3104092
-1.104443 0.3214026 -0.8153413 0.2977101
-0.7625757 0.337204 0.04717856 0.3071967
-0.7200766 0.2946437 -0.5934292 0.2936214
-0.7927086 0.3212122 0.04184711 0.2893115
-1.107105 0.3581687 -0.2136886 0.3274153
-1.063521 0.3217932 -0.3755834 0.30772
-0.6190392 0.2897517 -0.5389965 0.3021089
-0.6955085 0.2890455 -0.2076971 0.2885212
-0.7761181 0.3173638 -0.3027199 0.2947797
-0.8001193 0.2945349 -0.487015 0.3524272
-0.8048065 0.3042357 -0.32396 0.2852287
-0.6090641 0.3094803 -0.4150215 0.2892411
-0.7231952 0.3050014 -0.2135741 0.2926136
-0.6329471 0.3160189 -0.9444616 0.2993378
-0.6153695 0.2888231 -0.9674422 0.2962491
-0.6479829 0.2871211 0.09526475 0.3087361
-1.08846 0.2969906 -0.8342799 0.3016509
-0.7058862 0.3228518 -0.08581592 0.2929976
-0.7334496 0.3180802 -0.1541507 0.3208369
-0.6096925 0.2873836 -1.124255 0.3173031
-0.760999 0.3138466 -0.6076549 0.286866
-0.9258242 0.3035119 -0.8708284 0.3092315
-0.830971 0.3300504 -0.4221322 0.2918008
-0.6336275 0.2934287 -0.5029516 0.2912403
-1.096079 0.3366252 -0.2503657 0.289309
-0.942893 0.3151601 -0.3027199 0.2947797
-0.7882278 0.2920488 -0.6190392 0.2897517
-0.6135329 0.2989429 -1.129149 0.2973528
-0.8443458 0.3127373 -2.846707e-16 0.2848984
-0.8048065 0.3042357 -0.7032996 0.2908252
-1.043074 0.3179259 -0.3053816 0.3200679
-0.6690496 0.3396611 3.271026e-16 0.2946278
-0.8540775 0.3246537 -0.96096 0.3187736
-0.6046245 0.2860954 -0.2638496 0.3256813
-0.960462 0.2949719 -0.04425501 0.2975219
-1.044545 0.3265638 -0.5589572 0.2955253
-0.9946226 0.3012235 -0.2503657 0.289309
-0.8602013 0.3161355 0.04068909 0.2852747
-1.265666 0.3134884 -0.8739161 0.2934287
-0.6737291 0.2932916 -0.3342021 0.2898054
-0.7641174 0.3045893 -0.4444945 0.3163113
-0.6405034 0.3060092 -0.315081 0.3008638
-0.6076549 0.286866 -0.2135741 0.2926136
-0.7834385 0.291046 -0.1601496 0.2831262
-0.6153695 0.2888231 -0.545017 0.3178497
-0.6781093 0.32822 -0.4719207 0.2945429
-0.9754268 0.2977101 -0.3814431 0.2921694
-0.895384 0.2976024 -0.4895482 0.2871321
-1.237665 0.3646646 -0.3303028 0.3331859
-0.5753641 0.2887954 -0.6090641 0.3094803
-0.7334496 0.3180802 -0.3854117 0.2937334
-0.7081851 0.291939 -0.3778772 0.2907584
-0.6737291 0.2932916 -0.5248061 0.3271514
-0.7433369 0.2909078 -0.08408312 0.2900198
-0.8873032 0.3550357 -0.2513144 0.3177298
-0.9946226 0.3012235 -0.1228033 0.2862234
-0.6329471 0.3160189 -0.09193424 0.3032807
-0.6135329 0.2989429 -0.1347326 0.2998531
-1.138315 0.3360152 -0.3053816 0.3200679
-0.9754268 0.2977101 -0.3212048 0.2839853
-0.6090641 0.3094803 -0.7053673 0.3112217
-0.6513001 0.3088166 -0.6466272 0.2966868
-0.7350414 0.298035 -0.5396587 0.3504949
-0.7760348 0.2894941 -0.8183542 0.3167167
-0.7672552 0.326276 -0.04367506 0.2955652
-0.8167611 0.3068109 -0.2076971 0.2885212
-0.6903022 0.3188695 -0.5589572 0.2955253
-0.7481904 0.2919664 -0.8873032 0.2960321
-0.5880407 0.2921864 -0.3702823 0.3268672
-0.8530533 0.3351327 -0.2263131 0.3370615
-0.8072925 0.2960321 0.04266859 0.2921384
-0.8028461 0.31326 0.04149973 0.2881077
-1.110606 0.2942749 -0.8299061 0.3096375
-0.8553787 0.2976293 -0.08793007 0.2965907
-0.8197099 0.2904481 -0.3513979 0.3439629
-0.9808293 0.2916667 -0.9409833 0.3333968
-0.679975 0.2947801 -0.2076971 0.2885212
-0.7346469 0.3076892 0.1221027 0.2854031
-1.164583 0.3170723 -0.7641174 0.3045893
-0.6479829 0.2871211 0.1541507 0.3208369
-0.9900362 0.2933054 -0.978468 0.3057413
-0.7391835 0.290001 -0.4183685 0.2904481
-0.7481904 0.2919664 -0.3694039 0.2873836
-0.5934292 0.2936214 -0.5353588 0.2888231
-0.7641174 0.3045893 -0.6931472 0.3082206
-0.7231952 0.3050014 -0.298493 0.3163606
-0.6513001 0.3088166 0.08269172 0.2876066
-0.7230001 0.3272052 -0.4776276 0.3284756
-0.8744783 0.3014633 -0.4586966 0.2901959
-0.5790339 0.2897793 -0.2578291 0.2936493
-0.7053673 0.3112217 -0.4795731 0.3119123
-0.9044563 0.2993645 -0.3618939 0.2843628
-0.8338145 0.2932916 -0.5256094 0.2860265
-0.6329471 0.3160189 -0.4221322 0.2918008
-0.6466272 0.2966868 -0.4626235 0.2914915
-1.053661 0.3688306 -0.5646361 0.2859081
-0.9264601 0.3118732 -0.3898064 0.2954577
-1.308427 0.3015667 -0.08581592 0.2929976
-0.7271535 0.2962491 -0.2135741 0.2926136
-0.6281424 0.2920488 -0.2458493 0.3142065
-0.760114 0.294562 -0.2578291 0.2936493
-0.9493471 0.2929382 -0.8602013 0.2907584
-1.058607 0.3055311 -0.1201443 0.283098
-0.8644189 0.2994448 -0.3313284 0.3087051
-0.6590445 0.2897793 -0.5473104 0.3045818
-1.044545 0.3265638 0.106711 0.3268018
-0.6397767 0.2949719 0.09923853 0.3151235
-0.9194603 0.3192865 -0.7127714 0.3025479
-0.6681797 0.2919664 -0.120628 0.2836683
-0.6616312 0.3237908 -1.206311 0.3036982
-0.7032996 0.3003124 -0.3483067 0.296011
-0.8299061 0.3096375 -0.4054651 0.2857738
-0.9008904 0.2911283 -0.6718492 0.3029629
-0.8855378 0.3122757 -0.5050743 0.3052547
-0.6925595 0.2883707 -0.7939519 0.3018934
-0.6061358 0.2864799 -0.3448405 0.3151017
-0.718763 0.3144996 -0.6397767 0.2949719
-0.7752397 0.2978451 -0.7162282 0.3383806
-0.7760348 0.2894941 -0.5431499 0.291046
-0.7282385 0.2876066 -0.8072925 0.2960321
-0.5639354 0.285719 -0.2247552 0.3002558
-0.950043 0.3458802 -0.4183685 0.3254136
-0.6632942 0.2907976 -0.3778772 0.2907584
-0.8744783 0.3014633 0.1580569 0.3249001
-0.6061358 0.2864799 -0.3577496 0.3001064
-0.6820032 0.305474 -0.7137665 0.2932096
-0.6690496 0.3396611 -0.2094434 0.2897429
-0.8342799 0.3016509 -0.4058358 0.301682
-0.760114 0.294562 -0.3483067 0.296011
-0.6336275 0.2934287 -0.1541507 0.3208369
-0.5880407 0.2921864 -0.09526475 0.3087361
-0.7927086 0.3212122 -0.5314187 0.2998443
-0.785508 0.3429614 -0.4773459 0.2963135
-0.5832515 0.2909078 -1.487974e-15 0.2913583
-0.874646 0.3292112 -0.9841307 0.332642
-1.145132 0.3000119 -0.6405034 0.3060092
-0.7887141 0.310103 -0.1505845 0.3170839
-0.6153695 0.2888231 -0.6681797 0.2919664
-0.6626105 0.3006705 -0.5589572 0.2955253
-0.8855378 0.3122757 -0.6737291 0.2932916
-0.9520088 0.3085912 -0.6626105 0.3006705
-0.7700856 0.2882453 -0.4545394 0.3200329
-0.8299061 0.3096375 -0.7127714 0.3025479
-0.8342799 0.3016509 -0.04367506 0.2955652
-0.9145799 0.3013299 0.1945033 0.3122281
-0.6931472 0.3082206 -0.3690975 0.3049687
-0.9665881 0.3388624 -0.1255828 0.289455
-0.7834385 0.291046 -0.9659258 0.3033794
-0.6554069 0.2889063 -0.3448405 0.3151017
-0.9451454 0.2921694 -0.2438211 0.2854539
-0.8165262 0.2898054 -0.187199 0.3062607
-0.7672552 0.2961133 -0.7481904 0.2919664
-0.6397767 0.2949719 -0.1310774 0.295742
-0.6616312 0.3237908 -0.4418328 0.2988071
-0.6523611 0.2881745 0.2679025 0.2994175
-0.6523611 0.2881745 -0.3904272 0.3139453
-0.8744783 0.3014633 -0.7433369 0.2909078
-0.978468 0.3057413 -6.469453e-17 0.2913583
-0.8001193 0.2945349 -0.8001193 0.2945349
-0.7733789 0.2889368 -0.1328209 0.2977099
-1.086045 0.3260623 -0.2186368 0.2960966
-0.6931472 0.3082206 1.027485e-15 0.2985407
-1.147187 0.366569 -0.4183685 0.2904481
-0.7472144 0.3106302 -0.6498909 0.2875804
-0.6737291 0.2932916 -0.04092224 0.2860954
-1.287289 0.3470819 -0.08269172 0.2876066
-0.6204627 0.3126092 -0.6498909 0.2875804
-0.9841307 0.332642 -0.5232481 0.3110241
-0.6190392 0.2897517 -0.2811674 0.2839006
-0.7641174 0.3045893 -0.2076971 0.2885212
-0.6397767 0.2949719 -0.3904272 0.3139453
-0.6153695 0.2888231 -0.6405034 0.3060092
-0.6626105 0.3006705 -0.6027123 0.3355536
-0.7887141 0.310103 -0.3814431 0.2921694
-0.6281424 0.2920488 -0.7230001 0.3272052
-1.164583 0.3170723 -0.2018084 0.2843628
-0.7481904 0.2919664 -0.4795731 0.3119123
-0.8048065 0.3042357 -0.3483067 0.296011
-0.7481904 0.2919664 -0.8602013 0.3161355
-0.8856259 0.3036982 -0.3577496 0.3001064
-1.104443 0.3214026 -0.1810801 0.3011757
-0.8183542 0.3167167 -0.2910548 0.2889368
-1.147187 0.366569 -0.4626235 0.2914915
-0.6096925 0.2873836 -0.3672695 0.2865285
-0.7752397 0.2978451 -0.1643031 0.2867945
-0.5994486 0.29522 -0.4521741 0.288035
-0.8299061 0.3096375 -0.3999856 0.2994219
-0.6405034 0.3060092 -0.3315461 0.2886245
-0.7081851 0.291939 -0.6513001 0.3088166
-0.7200766 0.2946437 -0.9393295 0.2911051
-0.6626105 0.3006705 -0.9115175 0.3088833
-0.7672552 0.2961133 -0.4095055 0.2872437
-1.086045 0.3260623 -0.3946542 0.2973507
-0.8165262 0.2898054 -0.3654598 0.2858018
-1.021765 0.2921384 -0.4353181 0.3128842
-1.00079 0.29522 -0.8744783 0.3014633
-0.7127714 0.3025479 -0.2408508 0.3109525
-0.8342799 0.3016509 -1.451434 0.3060092
-1.024504 0.2994448 -0.4269293 0.3097273
-1.088167 0.310821 -0.4586966 0.2901959
-1.01857 0.3056098 0.08914585 0.2986376
-0.7887141 0.310103 0.2082179 0.3231526
-0.6626105 0.3006705 -0.5531011 0.2938705
-0.6306572 0.3034386 0.04049136 0.2845825
-0.7291634 0.2878092 -0.5389965 0.3021089
-1.083763 0.3175872 -0.5353588 0.2888231
-0.7641174 0.3045893 -0.7346469 0.3076892
-0.6760944 0.3152225 -1.180162 0.3354674
-0.6632942 0.2907976 -0.4549134 0.303394
-0.7334496 0.3180802 -0.2466415 0.2871211
-1.204781 0.3168939 -0.5722221 0.2879515
-0.7927086 0.3212122 -0.1368251 0.3021821
-0.9044563 0.2993645 -0.5819215 0.3650422
-0.5639354 0.285719 -0.1784077 0.2989291
-0.7472144 0.3106302 -0.09923853 0.3151235
-0.6397767 0.2949719 -0.8855378 0.3122757
-0.6405034 0.3060092 -0.3854117 0.2937334
-0.8109302 0.325427 -0.4909103 0.3332674
-0.7472144 0.3106302 -0.2763448 0.3041763
-0.6397767 0.2949719 -0.2550738 0.2920538
-0.8109302 0.325427 -0.3271679 0.2866688
-0.8109302 0.325427 0.04149973 0.2881077
-0.5722221 0.2879515 -0.1667748 0.2889563
-1.088167 0.310821 -0.2136886 0.3274153
-0.5753641 0.2887954 -0.3904272 0.3139453
-0.8109302 0.2886751 -0.2993288 0.2930916
-0.7758389 0.30722 8.836767e-16 0.2842662
-1.128268 0.3106916 -0.08211423 0.2865991
-0.5790339 0.2897793 -0.4624058 0.3059994
-0.6884743 0.287435 0.04489084 0.2996526
-0.6122595 0.288035 -1.553995e-15 0.285656
-0.6737291 0.2932916 -0.2427307 0.284807
-1.105324 0.3138991 -0.2061502 0.287435
-0.6306572 0.3034386 -0.3702823 0.3268672
-0.5753641 0.2887954 -0.5891575 0.3039774
-0.7437909 0.3000119 -0.3631672 0.3024355
-1.047969 0.2966868 -0.785508 0.3429614
-0.5880407 0.2921864 -0.4221322 0.2918008
-0.6554069 0.2889063 -0.4183685 0.3254136
-0.7625757 0.337204 -0.4361539 0.2967999
-0.8353772 0.3205028 0.04425501 0.2975219
-1.238658 0.3750351 -0.293513 0.2901766
-0.895384 0.2976024 -0.4773459 0.2963135
-0.8540775 0.3246537 -0.7887141 0.310103
-0.8183542 0.3167167 -0.04092224 0.2860954
-0.8109302 0.325427 -0.3218565 0.2842782
-0.6737291 0.2932916 -0.4922115 0.2879515
-0.6760944 0.3152225 -0.6690496 0.3396611
-0.5994486 0.29522 -0.2763448 0.3041763
-0.7534605 0.302192 -0.2811674 0.3068654
-0.9044563 0.2993645 -0.4353181 0.3128842
-0.8153413 0.2977101 -0.6955085 0.2890455
-0.7495613 0.3219938 -0.5790339 0.2897793
-0.8048065 0.3042357 -1.245053 0.3476725
-0.6631313 0.3118803 3.123255e-15 0.3057803
-0.7200766 0.2946437 -0.4269293 0.3097273
-0.6820032 0.305474 -2.12049e-15 0.3031694
-0.7200766 0.2946437 -0.8048065 0.3042357
-0.760999 0.3138466 -0.2811674 0.3068654
-0.5646361 0.2859081 -0.5589572 0.2955253
-0.8540775 0.3246537 -0.1201443 0.283098
-0.5646361 0.2859081 0.3694039 0.2873836
-0.6737291 0.2932916 -0.04019834 0.2835524
-0.8644189 0.2994448 -0.4586966 0.2901959
-0.6216882 0.301088 -0.6884743 0.287435
-0.6090641 0.3094803 -0.5790339 0.2897793
-0.5790339 0.2897793 -1.044545 0.3265638
-0.5832515 0.2909078 -0.1541507 0.3208369
-0.7383294 0.3442248 -0.5336403 0.3142937
-0.9659258 0.3033794 -0.7346469 0.3076892
-0.762844 0.3506736 0.1945033 0.3122281
-0.7271535 0.2962491 -0.298493 0.3163606
-0.7752397 0.2978451 -0.7200766 0.2946437
-0.6397767 0.2949719 -0.8472979 0.2960051
-0.5753641 0.2887954 -0.1784077 0.2989291
-0.8443458 0.3127373 -0.2993288 0.2930916
-0.6076549 0.286866 -0.589272 0.3168931
-0.8443458 0.3127373 -0.7053673 0.3112217
-0.8540775 0.3246537 -0.1245388 0.2882453
-0.8776132 0.319862 -0.4122448 0.3041433
-0.9659258 0.3033794 0.5029516 0.2912403
-0.8602013 0.2907584 -0.9273406 0.2961133
-0.6902189 0.2878348 -0.5234441 0.2854031
-1.022329 0.3222412 -0.6632942 0.2907976
-1.193574 0.3298508 -0.6466272 0.2966868
-0.8109302 0.325427 -0.5790339 0.2897793
-0.6329471 0.3160189 -0.5478424 0.2923799
-0.6681797 0.2919664 -0.589272 0.3168931
-0.7761181 0.3173638 -0.08081941 0.2843256
-0.8443458 0.3127373 -0.1255828 0.289455
-0.7200766 0.2946437 -0.04425501 0.2975219
-0.6931472 0.3082206 -0.6869552 0.29644
-0.6632942 0.2907976 -0.4263339 0.2933054
-0.7200766 0.2946437 -0.2320898 0.3051729
-0.784119 0.2997678 -0.3814431 0.2921694
-0.9544425 0.2938705 0.05406722 0.3288734
-1.178655 0.3056098 -0.9808293 0.3227486
-0.8530533 0.3351327 -0.2136886 0.3274153
-0.6204627 0.3126092 -1.072637 0.3080399
-1.185624 0.3135906 -0.120628 0.2836683
-0.7758389 0.30722 -0.6325226 0.3293263
-0.5994486 0.29522 -0.3577496 0.3001064
-0.784119 0.2997678 -0.7032996 0.2908252
-0.7534605 0.302192 -0.08161134 0.285719
-0.786716 0.330969 -0.3577496 0.3001064
-0.7307103 0.2881479 -0.8353772 0.3205028
-0.9546172 0.3012501 -0.5126097 0.2941773
-0.6690496 0.3396611 -0.3528071 0.2979685
-0.7534605 0.302192 -0.3483067 0.296011
-0.718763 0.3144996 -0.4058358 0.301682
-0.6466272 0.3197359 -0.3755834 0.30772
-0.6466272 0.2966868 -0.2719337 0.3016982
-0.8553787 0.2976293 -0.3442197 0.294224
-0.6925595 0.2883707 -0.4122448 0.3041433
-0.8549902 0.2897429 -0.5718859 0.3425694
-0.8109302 0.325427 -0.6626105 0.3006705
-0.7937771 0.2932096 0.08682239 0.2947135
-0.8602013 0.3161355 -0.4444945 0.3163113
-1.01857 0.3056098 -0.3377835 0.3117745
-0.6902189 0.2878348 0.1945033 0.3122281
-0.7534605 0.302192 0.08682239 0.2947135
-0.8776132 0.319862 0.0463475 0.3044776
-0.6498909 0.2875804 -1.047969 0.311003
-0.6873163 0.2871695 0.215982 0.2942749
-0.7437909 0.3000119 -0.6216882 0.301088
-0.6990819 0.2898623 -0.04425501 0.2975219
-0.8342799 0.3016509 -0.3525602 0.3187087
-0.6455468 0.2865341 -0.784119 0.2997678
-0.6869552 0.29644 -0.5232481 0.3110241
-0.6466272 0.3197359 -0.1682514 0.2902403
-0.8299061 0.3096375 0.08211423 0.2865991
-0.8318555 0.3418005 -0.5234441 0.2854031
-0.9088558 0.2926302 -0.4221322 0.2918008
-1.127237 0.3256196 -0.1759682 0.2968643
-0.679975 0.2947801 -0.718763 0.3144996
-0.5832515 0.2909078 -0.2135741 0.2926136
-0.7625757 0.337204 -0.2466415 0.2871211
-0.6405034 0.3060092 0.3403258 0.3383414
-0.6216882 0.301088 -0.1443423 0.3104092
-0.8342799 0.3016509 -0.5832515 0.2909078
-0.7534605 0.302192 -0.4909103 0.3332674
-0.8072925 0.2960321 -0.1368251 0.3021821
-0.8602013 0.2907584 -0.1255828 0.289455
-0.7927086 0.3212122 0.2719337 0.3016982
-0.8685277 0.2923799 -0.32396 0.2852287
-0.7162282 0.3383806 -0.6718492 0.3029629
-0.8530533 0.3351327 -0.2506811 0.3550009
-1.05341 0.3373007 -0.2113988 0.2911051
-0.8685277 0.2923799 -0.3814431 0.2921694
-0.5994486 0.29522 -0.5790339 0.2897793
-0.7472144 0.3106302 -0.8602013 0.2907584
-0.5934292 0.2936214 -0.1682514 0.2902403
-0.654222 0.2985827 -0.5880407 0.2921864
-0.7162282 0.3383806 -0.3989077 0.3174592
-0.6513001 0.3088166 -0.5891575 0.3039774
-0.6090641 0.3094803 -0.2451225 0.2862242
-0.7334496 0.3180802 -0.5986563 0.3066096
-1.024504 0.2994448 0.0463475 0.3044776
-0.6873163 0.2871695 -0.6204627 0.3126092
-0.7672552 0.2961133 -0.8644189 0.2994448
-0.718763 0.3144996 -0.5994486 0.29522
-0.9444616 0.2993378 -0.5353588 0.2888231
-0.654222 0.2985827 -0.6867388 0.2870371
-0.6397767 0.2949719 0.09047758 0.300864
-0.6336275 0.2934287 -0.08211423 0.2865991
-0.6061358 0.2864799 -0.3639654 0.2852006
-0.7834385 0.291046 -0.1632947 0.2859081
-1.45275 0.3452985 -0.6466272 0.3197359
-0.7081851 0.291939 -0.4971494 0.302717
-0.7834385 0.291046 -2.070854e-15 0.3057803
-0.6397767 0.2949719 -0.4192584 0.3068198
-0.6336275 0.2934287 -0.654222 0.2985827
-0.7758389 0.30722 -0.4719207 0.2945429
-0.8183542 0.3167167 -0.6990819 0.2898623
-0.8856259 0.3036982 -0.4269293 0.3097273
-0.6947134 0.2982805 -0.4495429 0.2871599
-0.7231952 0.3050014 -0.4895482 0.2871321
-1.010263 0.3380451 -0.3989077 0.3174592
-0.7901394 0.3578191 -0.5564203 0.307278
-0.6781093 0.32822 -0.8967461 0.3239518
-0.7032996 0.2908252 -0.8299061 0.3096375
-0.7927086 0.3212122 -0.4221322 0.2918008
-0.8072925 0.2960321 0.08052638 0.28381
-0.880162 0.2946437 0.1580569 0.3249001
-0.7534605 0.302192 8.58111e-16 0.3360512
-0.6616312 0.3237908 -0.5832515 0.2909078
-0.9444616 0.2993378 -0.5232481 0.3110241
-0.6681797 0.2919664 -0.5126097 0.2941773
-0.6281424 0.2920488 -0.2921968 0.312939
-0.7231952 0.3050014 -0.2076971 0.2885212
-0.9344818 0.3538109 -0.6090641 0.3094803
-1.024504 0.2994448 0.3702823 0.3268672
-0.6216882 0.301088 -0.880162 0.2946437
-0.7433369 0.2909078 -0.6466272 0.2966868
-0.8283294 0.2921864 -0.4893853 0.3152582
-0.9389821 0.3233179 -0.3377835 0.3117745
-1.16868 0.3418327 -0.6781093 0.32822
-1.002698 0.3271264 -0.3946542 0.2973507
-0.8165262 0.2898054 -0.6523611 0.2881745
-0.7328875 0.2886245 -0.187199 0.3062607
-0.8342799 0.3016509 -0.4263339 0.2933054
-0.6931472 0.3082206 -0.3854117 0.2937334
-0.6903022 0.3188695 -0.5075144 0.2926302
-0.8739161 0.2934287 -0.3746934 0.2894941
-0.880162 0.2946437 -0.1784077 0.2989291
-0.654222 0.2985827 -0.2864375 0.3097805
-0.6336275 0.2934287 -0.895384 0.2976024
-0.7672552 0.326276 -0.7328875 0.2886245
-0.96096 0.3187736 -0.5753641 0.2887954
-1.206311 0.3036982 -0.8553787 0.2976293
-1.115562 0.3498391 -0.3313284 0.3087051
-0.7307103 0.2881479 -0.8744783 0.3014633
-0.6903022 0.3188695 -0.6498909 0.2875804
-0.8776132 0.319862 -0.2572955 0.3215458
-0.96096 0.3187736 -0.2679025 0.2994175
-0.7887141 0.310103 -0.6626105 0.3006705
-0.8183542 0.3167167 -0.7713994 0.2885212
-0.8112776 0.2887453 -0.3672695 0.2865285
-0.7481904 0.2919664 -0.2320898 0.3051729
-0.7641174 0.3045893 -0.6204627 0.3126092
-0.6281424 0.2920488 -0.7472144 0.3106302
-0.7927086 0.3212122 -0.8574502 0.3064599
-0.6135329 0.2989429 -0.7200766 0.2946437
-0.5790339 0.2897793 -0.6135329 0.2989429
-0.8183542 0.3167167 -0.1945033 0.3122281
-0.6329471 0.3160189 -0.5050743 0.3052547
-0.6061358 0.2969906 -0.4353181 0.3128842
-0.6616312 0.3237908 -0.6325226 0.3293263
-0.8342799 0.3016509 -0.4586966 0.2901959
-0.6631313 0.3118803 -0.6873163 0.2871695
-0.6781093 0.32822 -0.4480718 0.3010011
-0.6902189 0.2878348 -0.221555 0.2980871
-1.058607 0.3055311 -0.4150215 0.2892411
-0.9044563 0.3469303 0.173746 0.2949713
-0.6336275 0.2934287 -0.6061358 0.2864799
-1.002152 0.3183208 -0.3129272 0.324087
-0.6626105 0.3006705 -0.5804962 0.3015667
-0.5880407 0.2921864 -1.252763 0.3406926
-0.6216882 0.301088 -0.129491 0.2939402
-0.6869552 0.29644 -0.7481904 0.2919664
-0.654222 0.2985827 -0.6523611 0.2881745
-0.8644189 0.2994448 0.06371581 0.3570395
-0.9679921 0.3614906 -0.1643031 0.2867945
-0.6760944 0.3152225 -0.4192584 0.3068198
-0.8153413 0.2977101 -0.1722459 0.3392664
-1.166113 0.3035119 -0.4429177 0.2849481
-0.5934292 0.2936214 -0.9674422 0.2962491
-0.7127714 0.3025479 -0.2608728 0.2954029
-1.547518 0.3147613 0.3718742 0.2883707
-0.8443458 0.3127373 -0.4521741 0.288035
-0.6329471 0.3160189 -0.173746 0.2949713
-0.942893 0.3151601 -0.7437909 0.3000119
-0.6090641 0.3094803 3.083599e-16 0.3086066
-0.784119 0.2997678 -0.7058862 0.3228518
-0.9844669 0.2993645 -0.6061358 0.2969906
-0.9841307 0.332642 -0.3631672 0.3024355
-0.6947134 0.2982805 2.404864e-15 0.3185454
-0.8581088 0.3480741 -0.129491 0.2939402
-0.6718492 0.3029629 -0.0849046 0.2914353
-0.7162282 0.3383806 -0.2076971 0.2885212
-0.7939519 0.3018934 -0.9273406 0.2961133
-0.8338145 0.2932916 -0.2186368 0.2960966
-1.05341 0.3373007 -0.6616312 0.3237908
-0.6718492 0.3029629 -0.5478424 0.2923799
-0.679975 0.2947801 -0.4150215 0.2892411
-0.7081851 0.291939 -0.7760348 0.2894941
-0.8967461 0.3239518 -0.7032996 0.3003124
-0.6090641 0.3094803 -0.187199 0.3062607
-0.7032996 0.3003124 -0.2888775 0.2878348
-0.6869552 0.29644 -0.5336403 0.3142937
-0.6690496 0.3396611 -0.4521741 0.288035
-0.8855378 0.3122757 -0.5245245 0.2977749
-0.5934292 0.2936214 -1.074665 0.3013299
-0.7472144 0.3106302 -0.7927086 0.3212122
-0.6760944 0.3152225 0.3053816 0.3200679
-0.7433369 0.2909078 0.0849046 0.2914353
-0.6329471 0.3160189 -0.6023722 0.320684
-0.8708284 0.3092315 -0.4545394 0.3200329
-1.196251 0.3563881 -1.01857 0.3056098
-0.8153413 0.2977101 -0.718763 0.3144996
-0.6632942 0.2907976 -0.2466415 0.2871211
-0.6329471 0.3160189 -0.7481904 0.2919664
-1.002152 0.3183208 -0.6216882 0.301088
-0.6962384 0.3330662 -0.2320898 0.3051729
-0.7437909 0.3000119 -0.5389965 0.3021089
-0.6931472 0.3082206 -0.5137517 0.3080179
-0.5639354 0.285719 -0.2962658 0.2915595
-0.6962384 0.3330662 -0.2679025 0.2994175
-0.8153413 0.2977101 -0.9115175 0.3088833
-0.8981375 0.2906091 -0.1682514 0.2902403
-0.901701 0.3156175 -0.3313284 0.3087051
-0.6405034 0.3060092 -0.221555 0.2980871
-0.6061358 0.2969906 -0.2503657 0.289309
-0.7346469 0.3076892 -0.4495429 0.2871599
-1.112674 0.3079618 -0.2525908 0.2906091
-0.6513001 0.3088166 -0.169899 0.2916667
-0.8443458 0.3127373 -1.164583 0.3170723
-0.6232889 0.2908252 -0.3898064 0.2954577
-0.6336275 0.2934287 -0.7758389 0.30722
-0.7752397 0.2978451 0.09716375 0.3118046
-1.015528 0.2978451 0.1347326 0.2998531
-0.6122595 0.288035 -0.1443423 0.3104092
-0.7053673 0.3112217 -0.2719337 0.3016982
-0.760999 0.3138466 0.04717856 0.3071967
-0.8048065 0.3042357 0.09526475 0.3087361
-0.6090641 0.3094803 -0.5589572 0.2955253
-0.7901394 0.3578191 -0.8572153 0.2901766
-0.6513001 0.3088166 -0.3528071 0.2979685
-0.5994486 0.29522 -0.6096925 0.2873836
-0.6990819 0.2898623 -0.5986563 0.3066096
-0.6903022 0.3188695 -0.2921968 0.312939
-0.5832515 0.2909078 -0.2061502 0.287435
-0.8028461 0.31326 -0.8183542 0.3167167
-1.126011 0.3033794 -0.3898064 0.2954577
-0.718763 0.3144996 -0.08793007 0.2965907
-0.8602013 0.3161355 -0.7231952 0.3050014
-0.8153413 0.2977101 -0.1682514 0.2902403
-0.6232889 0.2908252 -0.3690975 0.3049687
-0.9264601 0.3118732 -0.6869552 0.29644
-1.005963 0.3033001 -0.4058358 0.301682
-0.6513001 0.3088166 -0.4263339 0.2933054
-0.6216882 0.301088 -0.589272 0.3168931
-0.760114 0.294562 -0.1505845 0.3170839
-0.8001193 0.2945349 -0.0849046 0.2914353
-0.7350414 0.298035 -0.2888775 0.2878348
-0.6466272 0.2966868 -0.4122448 0.3041433
-0.786716 0.330969 0.08581592 0.2929976
-0.6153695 0.2888231 -0.4893853 0.3152582
-0.6903022 0.3188695 -0.8452979 0.3039391
-0.9844669 0.2993645 -0.2076971 0.2885212
-0.6631313 0.3118803 -0.1654611 0.2878092
-0.8153413 0.2977101 0.04489084 0.2996526
-0.6616312 0.3237908 -0.6931472 0.3082206
-1.005575 0.3701138 0.04092224 0.2860954
-0.8048065 0.3042357 -0.6513001 0.3088166
-0.7641174 0.3045893 -0.5564203 0.307278
-0.654222 0.2985827 -0.04425501 0.2975219
-0.5994486 0.29522 -0.5478424 0.2923799
-0.7032996 0.3003124 -0.4549134 0.303394
-0.6336275 0.2934287 -0.9145799 0.3013299
-1.210916 0.3412319 -0.6869552 0.29644
-0.9409833 0.3333968 -0.4795731 0.3119123
-0.718763 0.3144996 -0.315081 0.3008638
-0.8685277 0.2923799 -0.6903022 0.3188695
-1.002152 0.3183208 -0.1667748 0.2889563
-0.6737291 0.2932916 -0.6466272 0.2966868
-0.9841307 0.332642 -0.5589572 0.2955253
-0.7137665 0.2932096 -0.7230001 0.3272052
-0.874646 0.3292112 -0.4545394 0.3200329
-0.8109302 0.325427 -0.3371881 0.2911283
-0.7761181 0.3173638 -0.6626105 0.3006705
-0.6232889 0.2908252 -0.6204627 0.3126092
-0.6466272 0.3197359 -0.5753641 0.2887954
-0.5790339 0.2897793 -0.5256094 0.2860265
-0.7383294 0.3442248 -0.2408508 0.3109525
-0.9564972 0.3715106 -0.2018084 0.2843628
-0.6306572 0.3034386 0.2910548 0.2889368
-0.7230001 0.3272052 -0.760999 0.3138466
-0.7834385 0.291046 -0.7625757 0.337204
-0.7334496 0.3180802 -0.4480718 0.3010011
-0.9946226 0.3012235 -0.5126097 0.2941773
-0.8401246 0.294562 -0.05134598 0.3204849
-1.064996 0.3141322 -0.7271535 0.2962491
-0.6760944 0.3152225 -1.024504 0.2994448
-0.7391835 0.290001 -0.4295414 0.3299158
-0.6947134 0.2982805 -0.9202636 0.2947801
-0.6190392 0.2897517 -0.04489084 0.2996526
-0.8081624 0.3361236 -1.164583 0.3170723
-1.043074 0.3179259 -0.8644189 0.2994448
-0.6397767 0.2949719 -0.08161134 0.285719
-0.6931472 0.3082206 -0.5654467 0.2973528
-0.8048065 0.3042357 -0.3718742 0.2883707
-0.6632942 0.2907976 -0.1015069 0.3187131
-0.6466272 0.3197359 -0.5986563 0.3066096
-0.7537718 0.2931823 -0.2853208 0.2860265
-1.02726 0.2930916 -0.8197099 0.2904481
-0.7437909 0.3000119 -0.6513001 0.3088166
-0.8540775 0.3246537 -0.2011567 0.2839006
-0.6281424 0.2920488 -0.8708284 0.3092315
-0.6204627 0.3126092 -0.7939519 0.3018934
-0.8774422 0.3407347 0.04184711 0.2893115
-1.010263 0.3380451 -0.3053816 0.3200679
-0.8338145 0.2932916 -0.4122448 0.3041433
-0.6466272 0.3197359 -0.2135741 0.2926136
-1.138315 0.3360152 -0.1221027 0.2854031
-0.6479829 0.2871211 -0.1580569 0.3249001
-0.9444616 0.2993378 -0.6061358 0.2969906
-0.6955085 0.2890455 -0.5314187 0.2998443
-0.8081624 0.3361236 -0.8530533 0.3351327
-0.7761181 0.3173638 -0.96096 0.3187736
-0.5658078 0.2862242 0.3916718 0.3365049
-0.679975 0.2947801 -0.3702823 0.3268672
-1.024504 0.3144192 -0.2818511 0.2842501
-0.8774422 0.3407347 -0.8553787 0.2976293
-1.045969 0.3032737 -0.2864375 0.3097805
-0.5880407 0.2921864 -0.6631313 0.3118803
-0.8708284 0.3092315 0.1505845 0.3170839
-0.6626105 0.3006705 0.09193424 0.3032807
-0.6990819 0.2898623 -0.08029994 0.2834106
-0.6090641 0.3094803 -0.960462 0.3277531
-0.6737291 0.2932916 0.1280519 0.2922965
-0.7053673 0.3112217 -0.9264601 0.3118732
-0.6090641 0.3094803 -0.8776132 0.319862
-0.6281424 0.2920488 -0.2466415 0.2871211
-0.6466272 0.2966868 -0.3303028 0.3331859
-0.6090641 0.3094803 0.1391128 0.3047087
-0.6523611 0.2881745 -0.4183685 0.2904481
-0.8338145 0.2932916 -0.3105711 0.2986563
-1.104443 0.3214026 -0.171727 0.2932414
-0.8318555 0.3418005 -0.2962658 0.2915595
-0.9273406 0.2961133 -0.5804962 0.3015667
-0.5994486 0.29522 -0.1255828 0.289455
-0.9659258 0.3033794 9.845044e-16 0.3057803
-0.8973083 0.3342255 -0.4495429 0.2871599
-0.6513001 0.3088166 0.2076971 0.2885212
-0.6554069 0.2889063 0.1391128 0.3047087
-0.9841307 0.332642 -0.6820032 0.305474
-0.7334496 0.3180802 -0.3690975 0.3049687
-0.6466272 0.2966868 -0.979529 0.2914353
-1.15268 0.3079358 -0.96096 0.3187736
-0.6329471 0.3160189 -0.2642236 0.2973225
-0.6405034 0.3060092 -0.04314733 0.2937734
-0.5753641 0.2887954 -0.467023 0.2929382
-1.007641 0.3112382 -0.9665881 0.3388624
-0.6190392 0.2897517 -0.3254224 0.3058744
-0.6760944 0.3152225 -0.8744783 0.3014633
-0.8574502 0.3064599 -0.8318555 0.3418005
-0.7752397 0.2978451 -0.32396 0.2852287
-0.9177934 0.3284468 -0.5075144 0.2926302
-0.8048065 0.3042357 -0.2525908 0.2906091
-0.7433369 0.2909078 -0.1986707 0.3155851
-1.01857 0.3056098 -0.5773154 0.3134123
-0.7672552 0.2961133 -0.4418328 0.2988071
-0.5639354 0.285719 -0.4893853 0.3152582
-1.024504 0.3144192 -0.6931472 0.3082206
-0.6466272 0.2966868 -0.04314733 0.2937734
-0.6760944 0.3152225 -0.5001261 0.3188943
-1.346289 0.3201812 -0.1015069 0.3187131
-0.7081851 0.291939 -0.6903022 0.3188695
-0.8540775 0.3246537 -0.8338145 0.2932916
-0.8776132 0.319862 -0.7882278 0.2920488
-0.8873032 0.3550357 -0.4269293 0.3097273
-0.6590445 0.2897793 -0.6955085 0.2890455
-0.6336275 0.2934287 -0.1654611 0.2878092
-0.8299061 0.3096375 -0.7672552 0.326276
-0.6135329 0.2989429 -0.120628 0.2836683
-1.299283 0.3061654 -0.4549134 0.303394
-0.9900362 0.2933054 -0.1541507 0.3208369
-0.5832515 0.2909078 -0.6737291 0.2932916
-0.6626105 0.3006705 -0.2608728 0.2954029
-1.126011 0.3033794 -0.2320898 0.3051729
-0.6590445 0.2897793 -0.2247552 0.3002558
-0.8644189 0.2994448 -0.6232889 0.2908252
-0.5695909 0.2872437 -0.2710438 0.3301675
-0.7307103 0.2881479 -0.3254224 0.2858859
-0.8001193 0.2945349 -0.1310774 0.295742
-0.8739161 0.2934287 -0.4833325 0.2982589
-0.7137665 0.3521475 0.2839227 0.285313
-0.7882278 0.2920488 -0.4192584 0.3068198
-0.9194603 0.3192865 -0.4833325 0.2982589
-0.8973083 0.3342255 -0.718763 0.3144996
-0.7437909 0.3000119 -0.3129272 0.324087
-0.7481904 0.2919664 0.2525908 0.2906091
-0.7472144 0.3106302 -0.2513144 0.3177298
-0.5753641 0.2887954 0.129491 0.2939402
-0.5880407 0.2921864 -0.3618939 0.2843628
-0.7350414 0.298035 -0.6061358 0.2969906
-0.6962384 0.3330662 -0.6947134 0.2982805
-0.7058862 0.3228518 -0.7433369 0.2909078
-0.6690496 0.3396611 -0.8001193 0.2945349
-0.8236369 0.2912403 -0.2869696 0.286866
-0.9389821 0.3233179 -0.2811674 0.3068654
-0.6931472 0.3082206 -0.1643031 0.2867945
-0.6455468 0.2865341 -0.4309984 0.2949691
-0.718763 0.3144996 -0.3746934 0.2894941
-0.7433369 0.2909078 -0.6135329 0.2989429
-0.6135329 0.2989429 -0.1255828 0.289455
-1.110882 0.3307829 -0.5118946 0.322848
-0.7939519 0.3018934 -0.524308 0.285652
-0.6204627 0.3126092 -0.4192584 0.3068198
-0.9949339 0.3449174 -0.3064596 0.2966316
-0.6616312 0.3237908 -0.8197099 0.2904481
-0.7334496 0.3180802 -0.293513 0.2901766
-0.5832515 0.2909078 -0.8167611 0.3068109
-0.8028461 0.31326 -0.5473104 0.3045818
-0.5934292 0.2936214 -0.8243173 0.2995791
-0.7346469 0.3076892 -0.3105711 0.2986563
-0.7472144 0.3106302 -0.04367506 0.2955652
-0.6820032 0.305474 -0.8979416 0.3061654
-0.7334496 0.3180802 0.1945033 0.3122281
-0.9444616 0.2993378 -0.1328209 0.2977099
-0.8048065 0.3042357 -0.3371881 0.2911283
-0.6405034 0.3060092 -0.2438211 0.2854539
-0.9264601 0.3118732 -0.2719337 0.3016982
-0.5994486 0.29522 -0.3525602 0.3187087
-0.9949339 0.2941773 -0.6466272 0.3197359
-0.6061358 0.2864799 -0.5531011 0.2938705
-0.7672552 0.2961133 -0.5389965 0.2898623
-1.024504 0.3144192 -0.2853208 0.2860265
-0.7761181 0.3173638 -0.09716375 0.3118046
-0.6122595 0.288035 -0.7472144 0.3106302
-0.7534605 0.302192 -0.5589572 0.2955253
-0.6061358 0.2969906 -0.5934292 0.2936214
-0.6632942 0.2907976 -0.1039897 0.322597
-1.096079 0.3366252 -1.071307 0.3507059
-0.8081624 0.3361236 -0.221555 0.2980871
-0.9145799 0.3013299 -0.04717856 0.3071967
-0.9844669 0.2993645 -0.718763 0.3144996
-1.039189 0.344036 -0.5589572 0.2955253
-0.8109302 0.325427 -0.2438211 0.2854539
-0.7758389 0.30722 -0.3371881 0.2911283
-0.8109302 0.325427 -0.6023722 0.320684
-0.7495613 0.3219938 -0.3946542 0.2973507
-0.9044563 0.2993645 -0.6616312 0.3237908
-0.6884743 0.287435 -0.4795731 0.3119123
-0.7939519 0.3018934 -0.7437909 0.3000119
-0.6204627 0.3126092 0.09352606 0.3059001
-0.9264601 0.3118732 -0.3690975 0.3049687
-0.6947134 0.2982805 -0.2032282 0.3192185
-0.6281424 0.2920488 -0.6204627 0.3126092
-0.8236369 0.2912403 -0.2642236 0.2973225
-0.7537718 0.2931823 -0.8744783 0.3014633
-0.7137665 0.2932096 -0.3755834 0.30772
-0.7641174 0.3045893 -0.2061502 0.287435
-0.7694305 0.2881077 -0.2679025 0.2994175
-0.6820032 0.305474 -0.200348 0.2833258
-0.8967461 0.3239518 -0.7032996 0.2908252
-0.6718492 0.3029629 -0.3989077 0.3174592
-0.6135329 0.2989429 -0.4081919 0.3212724
-0.5790339 0.2897793 -0.3631672 0.3024355
-0.6820032 0.305474 -1.022329 0.3222412
-0.6718492 0.3029629 -0.5389965 0.3318418
-0.7937771 0.2932096 -0.1945033 0.3122281
-0.5753641 0.2887954 0.187199 0.3062607
-1.044545 0.3265638 -0.2962658 0.2915595
-0.9444616 0.2993378 -0.7641174 0.3045893
-0.9194603 0.3192865 -0.4833325 0.2982589
-0.760999 0.3138466 -0.4624058 0.3059994
-0.6718492 0.3029629 -0.3200199 0.3032655
-0.6962384 0.3330662 -0.3613064 0.2841268
-0.718763 0.3144996 -0.4361539 0.2967999
-0.7761181 0.3173638 -0.4361539 0.2967999
-0.6523611 0.2881745 -0.5314187 0.2998443
-0.8443458 0.3127373 -0.4418328 0.334818
-0.6616312 0.3237908 -0.7472144 0.3106302
-0.6632942 0.2907976 -0.2869696 0.286866
-0.6153695 0.2888231 -0.1039897 0.322597
-0.6513001 0.3088166 -0.3525602 0.3187087
-1.105324 0.3138991 -0.5431499 0.291046
-0.6061358 0.2969906 -1.16868 0.3418327
-0.7752397 0.2978451 -0.6232889 0.2908252
-0.7346469 0.3076892 -0.3577496 0.3001064
-0.6046245 0.2860954 -0.8443458 0.3127373
-0.760999 0.3138466 -0.9808293 0.2916667
-1.248317 0.3106142 -0.6931472 0.3082206
-0.7127714 0.3025479 -0.3105711 0.2986563
-0.8685277 0.2923799 -0.1368251 0.3021821
-0.6737291 0.2932916 -0.6631313 0.3118803
-0.7032996 0.2908252 6.311977e-17 0.2842662
-0.7672552 0.2961133 -0.3200199 0.3032655
-0.6931472 0.3082206 -0.4473122 0.2864166
-0.6336275 0.2934287 0.2196978 0.3320391
-0.8109302 0.325427 -0.315081 0.3008638
-0.7334496 0.3180802 -0.05264373 0.3245123
-1.225952 0.3205583 0.05406722 0.3288734
-0.679975 0.2947801 -0.6023722 0.320684
-0.9923369 0.3083539 -0.4895482 0.2871321
-1.386294 0.3201562 -0.4719207 0.2945429
-0.6820032 0.305474 -1.110882 0.3307829
-0.9177934 0.3284468 0.2247552 0.3002558
-0.8776132 0.319862 -0.120628 0.3475269
-0.9493471 0.2929382 -0.4795731 0.3119123
-1.010263 0.3380451 -0.221555 0.2980871
-0.679975 0.2947801 -0.2320898 0.3051729
-0.6631313 0.3118803 -0.4480718 0.3010011
-0.6329471 0.3160189 -0.6306572 0.3034386
-0.7334496 0.3180802 -0.2320898 0.3051729
-0.6216882 0.301088 -0.2642236 0.2973225
-0.9546172 0.3012501 -9.854615e-16 0.3413942
-1.202384 0.3483266 -0.3313284 0.3087051
-0.8855378 0.3122757 -0.5832515 0.2909078
-0.9671491 0.3115279 -0.3694039 0.2873836
-0.6232889 0.2908252 0.1015069 0.3187131
-0.7127714 0.3025479 -0.5722221 0.2879515
-1.071307 0.3507059 -0.9841307 0.332642
-0.8001193 0.2945349 -0.9830046 0.2920538
-0.6306572 0.3034386 -0.09193424 0.3032807
-0.8540775 0.3246537 -0.6204627 0.3126092
-0.9202636 0.2947801 -0.6990819 0.2898623
-0.6902189 0.2878348 -0.3254224 0.2858859
-1.195293 0.3018934 -0.4361539 0.2967999
-0.7127714 0.3025479 -0.1310774 0.295742
-0.7927086 0.3212122 -0.9389821 0.3233179
-0.8109302 0.325427 -0.814068 0.289309
-0.6820032 0.305474 -0.5248061 0.3271514
-0.7472144 0.3106302 -0.8776132 0.319862
-0.7937771 0.2932096 -0.8744783 0.3014633
-1.329136 0.3465516 -0.08118045 0.2849592
-1.166113 0.3035119 0.1416122 0.307446
-0.6405034 0.3060092 0.1654611 0.2878092
-0.8574502 0.3064599 -0.2135741 0.2926136
-0.5832515 0.2909078 -0.8072925 0.2960321
-0.7927086 0.3212122 -0.4122448 0.3041433
-0.6947134 0.2982805 -0.2513144 0.3177298
-1.202384 0.3483266 -0.4795731 0.3119123
-0.7927086 0.3212122 -1.176456e-15 0.3116639
-0.9808293 0.3227486 0.04808619 0.310139
-0.6718492 0.3029629 -0.08269172 0.2876066
-0.8081624 0.3361236 -0.8153413 0.2977101
-1.055727 0.298035 0.1201443 0.283098
-0.6820032 0.305474 -0.6336275 0.2934287
-0.5994486 0.29522 -0.2362766 0.3079472
-0.6590445 0.2897793 -0.2032282 0.3192185
-0.6869552 0.29644 -0.2136886 0.3274153
-0.6090641 0.3094803 -0.09193424 0.3032807
-0.830971 0.3300504 -0.6903022 0.3188695
-0.6281424 0.2920488 -0.3129272 0.324087
-0.6135329 0.2989429 -0.3755834 0.30772
-0.6122595 0.288035 -0.7433369 0.2909078
-0.6232889 0.2908252 -1.192774 0.3655754
-0.5722221 0.2879515 -0.4795731 0.3119123
-0.5658078 0.2862242 -0.589272 0.3168931
-0.8283294 0.2921864 0.08408312 0.2900198
-1.007641 0.3112382 -0.04223601 0.2906532
-0.7032996 0.3003124 -0.6498909 0.3342574
-0.6216882 0.301088 -0.6681797 0.2919664
-0.784119 0.2997678 -0.3577496 0.3001064
-0.8165262 0.2898054 -0.6632942 0.2907976
-0.96096 0.3187736 -0.1580569 0.3249001
-1.185624 0.3207865 -0.9264601 0.3118732
-0.6869552 0.29644 -0.0849046 0.2914353
-0.7081851 0.291939 -0.4263339 0.2933054
-0.6096925 0.2873836 -0.2811674 0.3068654
-1.034628 0.3012501 -0.2047944 0.2864799
-1.185624 0.3207865 -0.5695909 0.2872437
-0.7231952 0.3050014 -0.3755834 0.30772
-0.8048065 0.3042357 -0.1280519 0.2922965
-0.6632942 0.2907976 1.931431e-16 0.2899464
-0.6931472 0.3082206 -0.1267517 0.2908036
-0.7481904 0.2919664 -0.5389965 0.2898623
-0.7032996 0.3003124 -0.5674565 0.2866688
-0.5674565 0.2866688 -0.6466272 0.3197359
-0.7939519 0.3018934 -0.5790339 0.2897793
-1.00079 0.29522 2.768132e-16 0.3116639
-0.654222 0.2985827 -0.6513001 0.3088166
-0.6466272 0.2966868 -0.4353181 0.3128842
-0.7282385 0.2876066 -0.2282587 0.3026137
-0.8072925 0.2960321 -0.3718742 0.2883707
-0.8165262 0.2898054 -1.115562 0.3498391
-0.6061358 0.2864799 -0.04558674 0.3019673
-0.6554069 0.2889063 -1.047969 0.311003
-0.7927086 0.3212122 -0.1255828 0.289455
-0.6884743 0.287435 -0.3483067 0.3754082
-0.7346469 0.3076892 -0.1255828 0.289455
-0.7437909 0.3000119 -0.2608728 0.2954029
-0.8028461 0.31326 -0.3814431 0.2921694
-0.6153695 0.2888231 -0.4081919 0.3212724
-0.6760944 0.3152225 -0.08408312 0.2900198
-0.9808293 0.3227486 -0.2032282 0.3192185
-0.8776132 0.319862 -0.08161134 0.285719
-0.7162282 0.3383806 -0.6306572 0.3034386
-0.5674565 0.2866688 -0.4626235 0.2914915
-0.7534605 0.302192 -0.7231952 0.3050014
-0.8299061 0.3096375 0.3577496 0.3001064
-0.9115175 0.3088833 -0.5273549 0.2865285
-0.8540775 0.3246537 -0.4263339 0.2933054
-1.096055 0.2982805 -0.5934292 0.2936214
-0.8028461 0.31326 -0.3129272 0.324087
-0.6681797 0.2919664 -0.2438211 0.2854539
-0.8708284 0.3092315 -0.2921968 0.312939
-0.7271535 0.2962491 -0.6153695 0.2888231
-0.6631313 0.3118803 -0.3200199 0.3032655
-0.6590445 0.2897793 -0.5336403 0.3142937
-0.7641174 0.3045893 -0.7625757 0.337204
-0.7231952 0.3050014 6.869154e-16 0.2946278
-1.010263 0.3380451 -0.08013898 0.2831262
-1.126011 0.3033794 -0.2962658 0.2915595
-1.022329 0.3222412 -0.1368251 0.3021821
-0.7058862 0.3228518 -0.4221322 0.2918008
-0.6631313 0.3118803 -0.3442197 0.294224
-0.6216882 0.301088 -0.5654467 0.2973528
-0.6090641 0.3094803 -0.32396 0.2852287
-0.7271535 0.2962491 -0.6204627 0.3126092
-0.9382696 0.3059263 -0.05406722 0.3288734
-1.196251 0.3563881 -0.106711 0.3268018
-0.7127714 0.3025479 0.1810801 0.3011757
-0.5695909 0.2872437 -0.5478424 0.2923799
-0.9808293 0.3227486 0.1228033 0.2862234
-0.9946226 0.3012235 -0.4773459 0.2963135
-0.8167611 0.3068109 0.04003737 0.2829843
-0.6513001 0.3088166 -0.04266859 0.2921384
-0.8452979 0.3039391 -0.08013898 0.2831262
-0.6090641 0.3094803 -0.1245388 0.2882453
-0.901701 0.3156175 -0.6903022 0.3188695
-0.8873032 0.3550357 -0.123614 0.2871695
-1.124255 0.3173031 -0.2869696 0.286866
-0.6903022 0.3188695 -0.173746 0.2949713
-1.01857 0.3056098 0.04092224 0.2860954
-0.6306572 0.3034386 -0.2458493 0.3142065
-0.8581088 0.3480741 -0.2136886 0.3274153
-0.7882278 0.2920488 0.1215085 0.2847026
-1.063521 0.3217932 -0.6616312 0.3237908
-0.6061358 0.2969906 -0.679975 0.2947801
-0.8081624 0.3361236 -0.05016097 0.3167628
0.6466272 0.3197359 -0.6405034 0.3060092
-0.6513001 0.3088166 -0.187199 0.3062607
-1.124255 0.3173031 -0.8530533 0.3351327
-0.5832515 0.2909078 -0.7058862 0.3228518
-1.083763 0.3175872 -0.3631672 0.3024355
-0.7937771 0.2932096 -0.4269293 0.3097273
-0.6466272 0.3197359 -0.3528071 0.2979685
-0.9177934 0.3284468 -0.3271679 0.2866688
-0.7672552 0.2961133 -0.874646 0.3292112
-0.8338145 0.2932916 -0.3448405 0.3151017
-0.6090641 0.3094803 -0.1623427 0.3293025
-0.6190392 0.2897517 -0.1606654 0.2835835
-0.6405034 0.3060092 -0.4454704 0.2858018
-1.124255 0.3173031 -0.6690496 0.3396611
-0.7758389 0.30722 -0.8001193 0.2945349
-0.8553787 0.2976293 -0.7761181 0.3173638
-0.6190392 0.2897517 0.1368251 0.3021821
-0.8048065 0.3042357 -0.5986563 0.3066096
-0.785508 0.3429614 -0.2719337 0.3016982
-0.7625757 0.337204 -0.8183542 0.3167167
-0.5722221 0.2879515 -0.2853208 0.2860265
-0.8072925 0.2960321 0.08914585 0.2986376
-1.386294 0.3201562 -0.7137665 0.2932096
-0.6306572 0.3034386 -0.08408312 0.2900198
-1.244883 0.316767 -0.6523611 0.2881745
-0.7081851 0.291939 -0.9844669 0.2993645
-0.7672552 0.2961133 -0.5880407 0.2921864
-0.8243173 0.2995791 -0.5050743 0.3052547
-0.654222 0.2985827 -0.1267517 0.2908036
-0.8856259 0.3036982 -0.3315461 0.2886245
-0.7346469 0.3076892 -0.8109302 0.325427
-0.9382696 0.3059263 -0.3483067 0.296011
-0.7834385 0.291046 -0.2458493 0.3142065
-0.6681797 0.2919664 -0.5994486 0.29522
-0.6122595 0.288035 -0.467023 0.2929382
-0.6513001 0.3088166 -0.5314187 0.2998443
-0.9177934 0.3284468 -0.2550738 0.2920538
-1.072637 0.3080399 -0.04489084 0.2996526
-0.6590445 0.2897793 -0.8153413 0.2977101
-0.6523611 0.2881745 -0.3746934 0.2894941
-0.8072925 0.2960321 -0.2525908 0.2906091
-0.6204627 0.3126092 0.04489084 0.2996526
-0.8973083 0.3342255 -0.4893853 0.3152582
-0.8112776 0.2887453 -0.5001261 0.3188943
-0.6931472 0.3082206 -1.010263 0.3380451
-0.6190392 0.2897517 -0.3129272 0.324087
-0.6760944 0.3152225 -0.08682239 0.2947135
-1.185624 0.3207865 1.4318e-15 0.3224127
-0.6329471 0.3160189 -0.1416122 0.307446
-0.6153695 0.2888231 -0.4095055 0.2872437
-0.8048065 0.3042357 -0.3271679 0.2866688
-0.654222 0.2985827 0.04149973 0.2881077
-1.015528 0.2978451 -0.4545394 0.3200329
-0.8776132 0.319862 -0.5314187 0.2998443
-0.6590445 0.2897793 -0.9044563 0.2993645
-0.8183542 0.3167167 -0.3904272 0.3139453
-0.96096 0.3187736 -0.4120725 0.2881745
-0.7231952 0.3050014 -0.3371881 0.2911283
-0.9546172 0.3012501 -0.4899189 0.3003895
-0.6466272 0.3197359 -0.5994486 0.29522
-0.9923369 0.3083539 -0.1039897 0.322597
-0.6466272 0.2966868 -0.2719337 0.3016982
-0.8530533 0.3351327 -0.8028461 0.31326
-0.6046245 0.2860954 -0.0463475 0.3044776
-0.9115175 0.3088833 -0.467023 0.2929382
-0.7758389 0.30722 -0.9353894 0.2976293
-1.151996 0.357239 -0.9659258 0.3033794
-0.6190392 0.2897517 -0.1280519 0.2922965
-1.780814 0.3585548 -0.3313284 0.3087051
-0.6681797 0.2919664 -0.467023 0.2929382
-0.8443458 0.3127373 -0.4706044 0.3088329
-0.760114 0.294562 -0.3200199 0.3032655
-0.7081851 0.291939 -0.1416122 0.307446
-0.6216882 0.301088 -1.211709e-15 0.3031694
-0.6306572 0.3034386 -0.0556317 0.3336011
-0.9044563 0.3469303 -0.6216882 0.301088
-0.7032996 0.2908252 -0.05264373 0.3245123
-0.8472979 0.2960051 -1.569382e-15 0.3007603
-1.00079 0.29522 -0.5804962 0.3015667
-0.6616312 0.3237908 -0.04119198 0.2870371
-0.8530533 0.3351327 -0.5353588 0.2888231
-0.8342799 0.3016509 -0.2427307 0.284807
-0.679975 0.2947801 -0.2864375 0.3097805
-0.8602013 0.3161355 -0.786716 0.330969
-0.8342799 0.3016509 -0.04489084 0.2996526
-0.8553787 0.2976293 -0.4719207 0.2945429
-1.136546 0.2985827 -0.3292056 0.2875804
-0.6820032 0.305474 -0.2483862 0.2881479
-0.9520088 0.3085912 0.173746 0.2949713
-0.9044563 0.3469303 0.1759682 0.2968643
-0.7534605 0.302192 -0.5389965 0.3318418
-0.6962384 0.3330662 -0.4081919 0.3212724
-0.8873032 0.2960321 -1.145132 0.3210676
-0.6216882 0.301088 -0.6090641 0.3094803
-0.7162282 0.3383806 -0.08408312 0.2900198
-0.5658078 0.2862242 -0.2408508 0.3109525
-0.874646 0.3292112 0.04808619 0.310139
-0.8855378 0.3122757 -0.4909103 0.3332674
-0.7437909 0.3000119 -1.471702 0.3822244
-0.8685277 0.2923799 -0.2525908 0.2906091
-1.043074 0.3179259 -0.2921968 0.312939
-0.8167611 0.3068109 -0.215982 0.2942749
-0.8856259 0.3036982 -0.4221322 0.2918008
-0.6135329 0.2989429 -0.1667748 0.2889563
-0.6329471 0.3160189 1.590944e-15 0.2985407
-0.7481904 0.2919664 -0.7534605 0.302192
-1.265666 0.3134884 -0.3989077 0.3174592
-0.6090641 0.3094803 -0.5589572 0.2955253
-0.5880407 0.2921864 -0.5531011 0.2938705
-0.6281424 0.2920488 -0.7418251 0.3319723
-1.225952 0.3205583 -0.4953214 0.2889063
-0.8572153 0.2901766 -0.1221027 0.2854031
-0.6781093 0.32822 -0.4833325 0.2982589
-0.7433369 0.2909078 -0.2864375 0.3097805
-0.7399785 0.359398 -0.4058358 0.301682
-0.9679921 0.3614906 -0.3254224 0.3058744
-0.760999 0.3138466 0.1541507 0.3208369
-0.6061358 0.2969906 -0.4841097 0.2854539
-0.9044563 0.2993645 -0.6306572 0.3034386
-1.147187 0.366569 -0.784119 0.2997678
-0.6232889 0.2908252 -0.6466272 0.2966868
-0.8109302 0.325427 -0.7032996 0.3003124
-0.6955085 0.2890455 -0.5389965 0.2898623
-0.7625757 0.337204 1.78975e-16 0.3224127
-0.7939519 0.3018934 -0.2719337 0.3016982
-0.6554069 0.2889063 -0.4971494 0.302717
-1.206311 0.3036982 0.04032804 0.284009
-0.6216882 0.301088 -0.6884743 0.287435
-0.6990819 0.2898623 -0.3405208 0.292599
-0.7231952 0.3050014 -0.7350414 0.298035
-0.7346469 0.3076892 -0.3212048 0.328448
-0.6232889 0.2908252 0.04489084 0.2996526
-0.9353894 0.2976293 -0.9520088 0.3085912
-0.7641174 0.3045893 -0.1601496 0.2831262
-0.6466272 0.2966868 -0.7495613 0.3219938
-0.8452979 0.3039391 -0.8981375 0.2906091
-0.8081624 0.3361236 -0.2973307 0.3461238
-0.6626105 0.3006705 -0.1623427 0.3293025
-0.8739161 0.2934287 -0.6718492 0.3029629
-0.7495613 0.3219938 -0.2483862 0.2881479
-0.7793819 0.2901959 -0.2006707 0.2835553
-0.7357068 0.2892411 -0.2839227 0.285313
-0.8553787 0.2976293 -0.3631672 0.3024355
-0.6681797 0.2919664 -0.169899 0.2916667
-1.104443 0.3214026 -0.293513 0.2901766
-0.6616312 0.3237908 -0.4552198 0.2890455
-0.6718492 0.3029629 -0.8452979 0.3039391
-0.8072925 0.2960321 -0.5050743 0.3052547
-0.654222 0.2985827 -0.5726107 0.2993628
-0.6990819 0.2898623 -0.3627787 0.2847225
-1.096055 0.2982805 -0.4899189 0.3003895
-0.6061358 0.2969906 -0.2763448 0.3041763
-0.762844 0.3506736 -0.4971494 0.302717
-0.96096 0.3187736 0.05406722 0.3288734
-0.6090641 0.3094803 -0.5639354 0.285719
-0.7230001 0.3272052 -0.4444945 0.3163113
-0.9808293 0.3526857 -0.1015069 0.3187131
-0.6090641 0.3094803 -0.1310774 0.295742
-0.7834385 0.291046 -0.2408508 0.3109525
-0.5790339 0.2897793 -0.3483067 0.296011
-0.7271535 0.2962491 -0.3405208 0.292599
-0.654222 0.2985827 -0.3525602 0.3187087
-0.6466272 0.2966868 -0.2032282 0.3192185
-0.6631313 0.3118803 -0.5564203 0.307278
-0.9841307 0.332642 -0.5994486 0.29522
-0.679975 0.2947801 -0.240676 0.2835835
-0.7346469 0.3076892 -0.6061358 0.2969906
-0.7137665 0.2932096 -0.8574502 0.3064599
-0.6626105 0.3006705 -0.7472144 0.3106302
-0.8452979 0.3039391 -0.3080363 0.3524427
-0.9177934 0.3284468 -0.1623427 0.3293025
-0.8081624 0.3361236 -0.7834385 0.291046
-0.6931472 0.3082206 0.04003737 0.2829843
-0.6962384 0.3330662 -0.4095055 0.2872437
-0.8081624 0.3361236 -0.901701 0.3156175
-0.6204627 0.3126092 -0.7032996 0.2908252
-0.6616312 0.3237908 -1.007641 0.3112382
-0.8342799 0.3016509 -0.215982 0.2942749
-0.7053673 0.3112217 0.3303028 0.3331859
-0.960462 0.2949719 -0.1368251 0.3021821
-0.7793819 0.2901959 -0.4039707 0.2852287
-0.7279308 0.2875392 -0.8153413 0.2977101
-0.6947134 0.2982805 -0.5994486 0.29522
-0.6336275 0.2934287 -0.1601496 0.2831262
-0.7053673 0.3112217 -0.4039707 0.2852287
-1.047969 0.2966868 -0.4429177 0.2849481
-1.002698 0.3271264 -0.4150215 0.2892411
-0.9444616 0.2993378 -0.4626235 0.2914915
-0.9393295 0.2911051 -0.3778772 0.2907584
-0.9141145 0.2936214 -0.04489084 0.2996526
-0.8581088 0.3480741 -0.2864375 0.3097805
-0.6903022 0.3188695 -0.9382696 0.3059263
-0.6061358 0.2969906 0.08211423 0.2865991
-0.901701 0.3156175 -0.7495613 0.3219938
-1.145132 0.3000119 -0.6023722 0.320684
-0.6090641 0.3094803 -0.3027199 0.2947797
-0.6760944 0.3152225 -1.105324 0.3138991
-0.6204627 0.3126092 -0.1986707 0.3155851
-0.7350414 0.298035 -0.1255828 0.289455
-0.7271535 0.2962491 -0.171727 0.2932414
-1.083763 0.3175872 -0.4418328 0.2988071
-0.6204627 0.3126092 -0.8299061 0.3096375
-0.9409833 0.3333968 -0.5722221 0.2879515
-0.8873032 0.2960321 -0.2818511 0.2842501
-0.6061358 0.2969906 -0.09923853 0.3151235
-0.8109302 0.325427 0.05134598 0.3204849
-0.8708284 0.3092315 0.04184711 0.2893115
-0.6135329 0.2989429 -0.3027199 0.2947797
-0.9841307 0.332642 -0.4150215 0.2892411
-1.071307 0.3507059 -0.04717856 0.3071967
-1.32782 0.3045893 -0.1347326 0.2998531
-0.6122595 0.288035 0.1280519 0.2922965
-0.6867388 0.2870371 -0.5353588 0.2888231
-0.6718492 0.3029629 -0.4899189 0.3003895
-0.7882278 0.2920488 0.1945033 0.3122281
-0.6329471 0.3160189 0.09352606 0.3059001
-0.6329471 0.3160189 -1.232722 0.3080399
-0.6626105 0.3006705 -0.6925595 0.2883707
-0.7231952 0.3050014 -0.1228033 0.2862234
-0.8602013 0.3161355 0.1310774 0.295742
-0.6902432 0.3455994 -0.08408312 0.2900198
-0.5658078 0.2862242 -0.3746934 0.2894941
-0.7752397 0.2978451 -0.4549134 0.303394
-0.8183542 0.3167167 -0.221555 0.2980871
-0.6466272 0.2966868 -0.6336275 0.2934287
-0.9044563 0.3469303 -0.3814431 0.2921694
-0.9115175 0.3088833 -0.5248061 0.3271514
-0.8183542 0.3167167 -0.3989077 0.3174592
-0.7481904 0.2919664 -0.8197099 0.2904481
-0.7231952 0.3050014 -0.2082179 0.3231526
-0.5646361 0.2859081 -0.1906898 0.3091261
-0.9444616 0.2993378 0.1203373 0.2833258
-0.6135329 0.2989429 -0.2113988 0.2911051
-0.5880407 0.2921864 -0.04489084 0.2996526
-1.204781 0.3168939 0.09352606 0.3059001
-1.063521 0.3217932 -0.1039897 0.322597
-0.6061358 0.2969906 -0.4706044 0.3088329
-0.6632942 0.2907976 0.280487 0.2835524
-0.654222 0.2985827 -0.3377835 0.3117745
-0.880162 0.2946437 -0.3105711 0.2986563
-0.6190392 0.2897517 -0.3064596 0.2966316
-0.6090641 0.3094803 -0.3814431 0.2921694
-0.6479829 0.2871211 -0.589272 0.3168931
-1.053661 0.3688306 -0.3746934 0.2894941
-0.6135329 0.2989429 -0.4120725 0.2881745
-0.6281424 0.2920488 -0.2839227 0.285313
-0.760999 0.3138466 -0.6405034 0.3060092
-1.110882 0.3307829 -0.7641174 0.3045893
-0.8167611 0.3068109 -0.1416122 0.307446
-0.8540775 0.3246537 -0.3826743 0.310706
-0.9838152 0.3147613 -0.2888775 0.2878348
-1.071307 0.3507059 -0.1601496 0.2831262
-0.9808293 0.3227486 -0.1280519 0.2922965
-1.409934 0.305474 0.04266859 0.2921384
-0.7761181 0.3173638 0.04019834 0.2835524
-0.5753641 0.2887954 -0.09047758 0.300864
-0.6061358 0.2969906 0.04717856 0.3071967
-0.7081851 0.291939 -0.4545394 0.3200329
-0.6955085 0.2890455 -0.2888775 0.2878348
-0.8028461 0.31326 -0.08161134 0.285719
-0.8856259 0.3036982 -0.08052638 0.28381
-0.6090641 0.3094803 0.04184711 0.2893115
-1.185624 0.3135906 -0.4776276 0.3284756
-0.7887141 0.310103 -0.3672695 0.2865285
-0.8109302 0.325427 -0.6090641 0.3094803
-1.071307 0.3507059 -0.901701 0.3156175
-0.9409833 0.3333968 -1.192685 0.3079618
-0.7758389 0.30722 -0.7231952 0.3050014
-0.9841307 0.332642 -0.4706044 0.3088329
-1.122893 0.2963135 -0.2320898 0.3051729
-0.5994486 0.29522 -0.215982 0.2942749
-0.7534605 0.302192 -0.4626235 0.2914915
-0.7887141 0.310103 -0.8338145 0.2932916
-0.6479829 0.2871211 0.4329478 0.3545366
-0.8081624 0.3361236 -0.6204627 0.3126092
-0.8153413 0.2977101 -0.1443423 0.3104092
-0.6869552 0.29644 -0.7927086 0.3212122
-0.6902189 0.2878348 -0.6947134 0.2982805
-0.6820032 0.305474 -0.1473247 0.3136154
-0.8553787 0.2976293 -0.4521741 0.288035
-0.7472144 0.3106302 -0.2807134 0.2836683
-0.7472144 0.3106302 -0.2408508 0.3109525
-0.6061358 0.2969906 -0.5182681 0.2958893
-0.7032996 0.3003124 -0.2642236 0.2973225
-0.6760944 0.3152225 -0.4263339 0.2933054
-0.7495613 0.3219938 -0.1606654 0.2835835
-0.6336275 0.2934287 0.09923853 0.3151235
-1.002152 0.3183208 -0.5804962 0.3015667
-0.6869552 0.29644 -0.9177934 0.3284468
-1.335455 0.3397877 2.544934e-16 0.2865341
-1.096079 0.3366252 0.2438211 0.2854539
-0.8855378 0.3122757 -0.9754268 0.2977101
-0.718763 0.3144996 -0.3654598 0.2858018
-1.010263 0.3380451 -0.04425501 0.2975219
-0.6122595 0.288035 -0.524308 0.285652
-0.7032996 0.2908252 -0.04489084 0.2996526
-0.8001193 0.2945349 -0.5314187 0.2998443
-0.8639649 0.2914915 -0.2047944 0.2864799
-0.8855378 0.3122757 -0.4150215 0.2892411
-0.5695909 0.2872437 -0.3271679 0.2866688
-0.7672552 0.326276 0.3826743 0.310706
-1.00079 0.29522 0.1541507 0.3208369
-0.8530533 0.3351327 0.1759682 0.2968643
-0.6190392 0.2897517 -0.8644189 0.2994448
-0.7882278 0.2920488 -0.8353772 0.3205028
-0.6820032 0.305474 0.2026291 0.2849481
-0.7437909 0.3000119 -0.2638496 0.3256813
-0.6781093 0.32822 -0.6631313 0.3118803
-0.6466272 0.2966868 -0.5711536 0.3259342
-0.6903022 0.3188695 -0.6523611 0.2881745
-0.7032996 0.2908252 -0.5182681 0.2958893
-0.8581088 0.3480741 -0.3778772 0.2907584
-0.7137665 0.2932096 -0.880162 0.2946437
-0.6962384 0.3330662 -0.5726107 0.2993628
-0.8028461 0.31326 0.0849046 0.2914353
-0.6869552 0.29644 0.04092224 0.2860954
-0.6153695 0.2888231 -0.04149973 0.2881077
-1.185624 0.3207865 -0.4095055 0.2872437
-0.8165262 0.2898054 -0.2136886 0.3274153
-0.5790339 0.2897793 -0.4073069 0.2864445
-0.6626105 0.3006705 -0.3129272 0.324087
-0.7350414 0.298035 -0.293513 0.2901766
-0.8048065 0.3042357 -0.1368251 0.3021821
-0.7534605 0.302192 -0.6631313 0.3118803
-0.6405034 0.3060092 -0.5790339 0.2897793
-0.6955085 0.2890455 -0.4120725 0.2881745
-0.6947134 0.2982805 -0.3483067 0.296011
-0.6523611 0.2881745 0.04092224 0.2860954
-0.7641174 0.3045893 -1.039189 0.344036
-0.6955085 0.2890455 -0.5564203 0.307278
-1.01857 0.3056098 -0.5804962 0.3015667
-0.8353772 0.3205028 -0.1810801 0.3011757
-0.8855378 0.3122757 0.1443423 0.3104092
-0.9258242 0.3035119 -0.1443423 0.3104092
-0.6061358 0.2969906 -0.5050743 0.3052547
-0.6616312 0.3237908 -0.2962658 0.2915595
-0.7418251 0.3319723 -6.438104e-17 0.2899464
-0.942893 0.3151601 -0.2513144 0.3177298
-0.7350414 0.298035 -0.5654467 0.2973528
-0.5790339 0.2897793 -0.2827681 0.2847225
-0.8472979 0.2960051 -0.9194603 0.3192865
-0.8299061 0.3096375 -0.9145799 0.3013299
-1.026799 0.3319571 -0.4309984 0.2949691
-0.7058862 0.3228518 -1.238658 0.3750351
-0.9841307 0.332642 -0.3904272 0.3139453
-0.8318555 0.3418005 -0.5230132 0.2852747
-0.8167611 0.3068109 -0.08682239 0.2947135
-0.8081624 0.3361236 -0.5232481 0.3110241
-1.072637 0.3080399 -0.08914585 0.2986376
-1.010263 0.3380451 -0.483116 0.2851465
-0.7137665 0.2932096 -0.09716375 0.3118046
-0.760114 0.294562 -0.09923853 0.3151235
-1.138618 0.3055311 -0.187199 0.3062607
-0.5695909 0.2872437 -0.1228033 0.2862234
-0.6632942 0.2907976 -0.2466415 0.2871211
-0.6135329 0.2989429 -0.4418328 0.2988071
-0.7625757 0.337204 -1.026416 0.3516529
-0.6523611 0.2881745 -0.1643031 0.2867945
-0.8243173 0.2995791 -0.3315461 0.2886245
-0.7053673 0.3112217 -0.3989077 0.3174592
-1.098612 0.3055049 -0.4795731 0.3119123
-0.6884743 0.287435 -0.4988949 0.290001
-1.007641 0.3112382 -0.3403258 0.3383414
-0.8109302 0.325427 -0.785508 0.3429614
-0.6737291 0.2932916 -0.3342021 0.2898054
-0.8774422 0.3407347 -0.8708284 0.3092315
-0.6046245 0.2860954 -0.7271535 0.2962491
-0.9923369 0.3083539 -0.04367506 0.2955652
-0.7200766 0.2946437 1.897805e-16 0.2848984
-0.6336275 0.2934287 -0.4039707 0.2852287
-0.6523611 0.2881745 0.2642236 0.2973225
-0.8527773 0.2893115 0.04149973 0.2881077
-0.6513001 0.3088166 -0.2466415 0.2871211
-1.245053 0.3476725 -0.1473247 0.3136154
-0.8967461 0.3239518 -0.2839227 0.285313
-0.8109302 0.325427 -0.7137665 0.2932096
-0.5994486 0.29522 0.08269172 0.2876066
-0.7032996 0.3003124 -0.3755834 0.30772
-0.6902432 0.3455994 -0.2921968 0.312939
-0.9202636 0.2947801 -0.1347326 0.2998531
-0.6718492 0.3029629 -0.4893853 0.3152582
-1.145132 0.3000119 -0.3442197 0.294224
-0.6479829 0.2871211 -0.9830046 0.2920538
-0.9546172 0.3012501 -0.3746934 0.2894941
-0.6061358 0.2864799 -0.4019955 0.2845041
-0.6760944 0.3152225 -0.09193424 0.3032807
-0.7391835 0.290001 -0.04266859 0.2921384
-0.6397767 0.2949719 -0.8001193 0.2945349
-0.786716 0.330969 -0.2869696 0.286866
-0.7053673 0.3112217 -0.3200199 0.3032655
-0.6616312 0.3237908 -0.5934292 0.2936214
0.6405034 0.3060092 -0.5353588 0.2888231
-0.7418251 0.3319723 -0.5790339 0.2897793
-0.6902432 0.3455994 -0.3448405 0.3151017
-0.760999 0.3138466 -0.4988949 0.290001
-0.7760348 0.2894941 -0.3755834 0.30772
-1.032535 0.3081704 -0.2811674 0.3068654
-0.6760944 0.3152225 -0.08334684 0.2887453
-0.6947134 0.2982805 -0.1611193 0.2839853
-0.5832515 0.2909078 -0.3442197 0.294224
-0.7231952 0.3050014 -0.2993288 0.2930916
-0.9088558 0.2926302 -0.5137517 0.3080179
-0.8342799 0.3016509 -0.08408312 0.2900198
-1.071307 0.3507059 -0.4418328 0.334818
-0.7495613 0.3219938 -0.5389965 0.3021089
-0.6232889 0.2908252 -0.1347326 0.2998531
-0.7418251 0.3319723 -1.055727 0.298035
-0.6903022 0.3188695 -0.8401246 0.294562
-0.5832515 0.2909078 -1.168306 0.3106142
-0.8048065 0.3042357 0.08269172 0.2876066
-0.6513001 0.3088166 -0.4795731 0.3119123
-0.7733789 0.2889368 -0.04425501 0.2975219
-0.6626105 0.3006705 -0.7481904 0.2919664
-0.7350414 0.298035 -0.2525908 0.2906091
-0.8283294 0.2921864 -0.2642236 0.2973225
-0.7761181 0.3173638 -0.04425501 0.2975219
-0.5880407 0.2921864 -0.3854117 0.2937334
-0.7793819 0.2901959 -0.4177352 0.3479711
-0.6216882 0.301088 -0.3946542 0.2973507
-0.9258242 0.3035119 -3.678027e-15 0.3185454
-0.901701 0.3156175 -0.6466272 0.3197359
-0.7834385 0.291046 -0.5790339 0.2897793
-0.784119 0.2997678 0.1391128 0.3047087
-0.7032996 0.3003124 -0.4054651 0.2857738
-0.7761181 0.3173638 -0.1617068 0.2845041
-0.6466272 0.3197359 -0.8153413 0.2977101
-0.6931472 0.3082206 -0.3064596 0.2966316
-0.6869552 0.29644 -0.4150215 0.2892411
-0.8283294 0.2921864 -0.4624058 0.3059994
-0.718763 0.3144996 -0.786716 0.330969
-0.6122595 0.288035 -0.4353181 0.3128842
-0.6190392 0.2897517 -0.5029516 0.2912403
-0.7927086 0.3212122 -0.4895482 0.2871321
-0.8644189 0.2994448 -0.4480718 0.3010011
-0.8243173 0.2995791 -1.061518 0.3591828
-0.8318555 0.3418005 -1.115562 0.3498391
-0.7752397 0.2978451 -0.1945033 0.3122281
-0.9382696 0.3059263 -0.4095055 0.2872437
-0.7939519 0.3018934 -0.2047944 0.2864799
-0.8342799 0.3016509 -0.1391128 0.3047087
-0.7053673 0.3112217 -0.7887141 0.310103
-0.7937771 0.2932096 -0.9671491 0.3115279
-0.6204627 0.3126092 -0.1443423 0.3104092
-0.8243173 0.2995791 -0.2094434 0.2897429
-0.7200766 0.2946437 -0.2362766 0.3079472
-0.5658078 0.2862242 -0.7081851 0.291939
-0.6760944 0.3152225 -0.6947134 0.2982805
-0.760114 0.294562 -1.002698 0.3271264
-1.117737 0.2954577 -0.8739161 0.2934287
-0.8081624 0.3361236 -0.524308 0.285652
-0.6903022 0.3188695 -0.4122448 0.3041433
-0.8602013 0.2907584 -0.173746 0.2949713
-0.8028461 0.31326 -0.08408312 0.2900198
-0.6281424 0.2920488 -0.3377835 0.3117745
-0.6760944 0.3152225 -0.5389965 0.3021089
-0.5790339 0.2897793 -0.1347326 0.2998531
-0.679975 0.2947801 -0.6869552 0.29644
-1.043074 0.3179259 -0.1632947 0.2859081
-0.6458165 0.2865991 -0.6167404 0.3248163
-0.679975 0.2947801 -0.6405034 0.3060092
-0.6135329 0.2989429 -0.8001193 0.2945349
-0.6925595 0.2883707 -0.5473104 0.3045818
-1.002152 0.3183208 -0.4833325 0.2982589
-0.7032996 0.2908252 -0.08013898 0.2831262
-0.7752397 0.2978451 -0.4773459 0.2963135
-0.9923369 0.3083539 -0.6204627 0.3126092
-0.6466272 0.3197359 -0.3702823 0.3268672
-0.6616312 0.3237908 -0.7127714 0.3025479
-0.8961822 0.2902403 -0.4473122 0.2864166
-0.7032996 0.2908252 -0.4953214 0.2889063
-1.047969 0.311003 -0.4183685 0.2904481
-0.6204627 0.3126092 -0.5389965 0.3318418
-0.7383294 0.3442248 -0.9949339 0.3449174
-0.8602013 0.3161355 -0.3694039 0.2873836
-0.96096 0.3187736 -0.4988949 0.290001
-0.6955085 0.2890455 -2.036906e-16 0.3057803
-0.8028461 0.31326 -0.3631672 0.3024355
-0.5832515 0.2909078 -0.7391835 0.290001
-0.7346469 0.3076892 -0.0849046 0.2914353
-0.8342799 0.3016509 -0.1667748 0.2889563
-0.6820032 0.305474 -0.4454704 0.2858018
-0.6990819 0.2898623 -1.01857 0.3056098
-0.7927086 0.3212122 -0.221555 0.2980871
-0.830971 0.3300504 -0.3292056 0.2875804
-0.9900362 0.2933054 -0.4480718 0.3010011
-0.7641174 0.3045893 -0.6925595 0.2883707
-0.8318555 0.3418005 -0.483116 0.2851465
-0.8028461 0.31326 -0.05264373 0.3245123
-0.6204627 0.3126092 -0.3804638 0.331482
-0.7700856 0.2882453 1.442222e-15 0.2886751
-0.874646 0.3292112 -0.7032996 0.2908252
-0.6153695 0.2888231 -0.3999856 0.2994219
-0.9409833 0.3333968 -0.08161134 0.285719
-0.6204627 0.3126092 -0.5389965 0.3021089
-0.6135329 0.2989429 -0.7887141 0.310103
-0.8452979 0.3039391 -0.6232889 0.2908252
-0.7433369 0.2909078 0.173746 0.2949713
-0.6523611 0.2881745 0.2094434 0.2897429
-0.8553787 0.2976293 -0.3577496 0.3001064
0.7472144 0.3106302 -0.6869552 0.29644
-0.7127714 0.3025479 -0.2525908 0.2906091
-0.9838152 0.3147613 -0.4221322 0.2918008
-0.8112776 0.2887453 -0.2962658 0.2915595
-0.7672552 0.2961133 -0.2993288 0.2930916
-1.126011 0.3033794 -0.08682239 0.2947135
-1.536993 0.3602172 -0.5029516 0.2912403
-0.6397767 0.2949719 -0.5663955 0.3102149
-0.7058862 0.3228518 -0.4971494 0.302717
-0.7495613 0.3219938 -0.2047944 0.2864799
-0.6590445 0.2897793 -0.04717856 0.3071967
-0.760114 0.294562 9.015598e-16 0.3007603
-0.7625757 0.337204 -0.4909103 0.3332674
-0.8553787 0.2976293 -0.5994486 0.29522
-0.7694305 0.2881077 -0.2513144 0.3177298
-0.9674422 0.2962491 -0.04367506 0.2955652
-1.152382 0.3302879 -0.3690975 0.3049687
-0.7939519 0.3018934 -0.4015047 0.2843256
-1.064912 0.2929976 -0.08211423 0.2865991
-0.5880407 0.2921864 -0.2642236 0.2973225
-0.942893 0.3151601 0.04907756 0.3133214
-0.6329471 0.3160189 -0.3129272 0.324087
-0.5880407 0.2921864 -0.4495429 0.2871599
-0.6216882 0.301088 -0.5564203 0.307278
-0.7032996 0.3003124 -0.5075144 0.2926302
-0.7230001 0.3272052 -0.7231952 0.3050014
-0.6681797 0.2919664 -0.1541507 0.3208369
-0.7927086 0.3212122 -0.2921968 0.312939
-0.5994486 0.29522 -0.2026291 0.2849481
-0.5674565 0.2866688 -1.072637 0.3080399
-0.5934292 0.2936214 -0.5075144 0.2926302
-0.6232889 0.2908252 -0.8109302 0.325427
-1.245053 0.3476725 -0.6760944 0.3152225
-0.5832515 0.2909078 -0.6718492 0.3029629
-0.8243173 0.2995791 -0.1840036 0.3036153
-0.8183542 0.3167167 0.1267517 0.2908036
-0.96096 0.3187736 -0.05016097 0.3167628
-0.8472979 0.2960051 -0.3313284 0.3087051
-0.7418251 0.3319723 -0.04367506 0.2955652
-0.7927086 0.3212122 -0.4150215 0.2892411
-0.6781093 0.32822 0.2483862 0.2881479
-0.7334496 0.3180802 -0.4353181 0.3128842
-0.5994486 0.29522 -0.6931472 0.3082206
-0.9949339 0.3449174 -0.4773459 0.2963135
-0.5832515 0.2909078 -0.1328209 0.2977099
-0.8299061 0.3096375 -0.786716 0.330969
-0.7937771 0.2932096 -0.04149973 0.2881077
-0.6405034 0.3060092 -0.5336403 0.3142937
-0.7032996 0.3003124 -0.4833325 0.2982589
-1.044545 0.3265638 -0.6626105 0.3006705
-0.9344818 0.3538109 -0.6955085 0.2890455
-0.6466272 0.2966868 -0.8243173 0.2995791
-0.6135329 0.2989429 -0.880162 0.2946437
-0.7391835 0.290001 -0.4309984 0.2949691
-0.679975 0.2947801 -0.4626235 0.2914915
-0.6718492 0.3029629 -0.1840036 0.3036153
-0.7350414 0.298035 0.3898064 0.2954577
-0.6466272 0.2867945 -0.9194603 0.3192865
-0.7760348 0.2894941 -0.3755834 0.30772
-1.192774 0.3655754 -0.08118045 0.2849592
-0.6931472 0.3082206 0.2032282 0.3192185
-0.654222 0.2985827 -0.6204627 0.3126092
-0.8530533 0.3351327 -0.8048065 0.3042357
-0.6737291 0.2932916 -0.1210177 0.2841268
-0.6306572 0.3034386 -0.8602013 0.2907584
-0.654222 0.2985827 -0.3405208 0.292599
-0.7758389 0.30722 -0.5248061 0.3271514
-0.5722221 0.2879515 -0.4444945 0.3163113
-0.6405034 0.3060092 -0.5314187 0.2998443
-0.8183542 0.3167167 -0.2763448 0.3041763
-0.9258242 0.3035119 -0.2032282 0.3192185
-0.6096925 0.2873836 -0.5695909 0.2872437
-0.654222 0.2985827 0.5663955 0.3102149
-0.6405034 0.3060092 -0.5029516 0.2912403
-0.786716 0.330969 -0.5118946 0.322848
-0.950043 0.3458802 -0.3631672 0.3024355
-0.6061358 0.2969906 -0.4454704 0.2858018
-0.7032996 0.2908252 -0.2320898 0.3051729
-0.6869552 0.29644 -0.5248061 0.3271514
-0.5722221 0.2879515 -0.6329471 0.3160189
-0.6781093 0.32822 9.349509e-16 0.3007603
-0.8452979 0.3039391 -0.4028161 0.284807
-0.8338145 0.2932916 -0.6096925 0.2873836
-0.6090641 0.3094803 -0.3690975 0.3049687
-1.245053 0.3476725 -0.1623427 0.3293025
-0.9665881 0.3388624 -0.4706044 0.3088329
-0.6090641 0.3094803 -0.3064596 0.2966316
-0.6153695 0.2888231 -0.5711536 0.3259342
-0.9353894 0.2976293 -0.2839227 0.285313
-0.6397767 0.2949719 -0.7053673 0.3112217
-0.7752397 0.2978451 -0.2076971 0.2885212
-0.6061358 0.2969906 -0.3313284 0.3087051
-1.151996 0.357239 -0.5861751 0.330531
-0.679975 0.2947801 -0.8072925 0.2960321
-0.7437909 0.3000119 -0.2763448 0.3041763
-0.6090641 0.3094803 -0.05134598 0.3204849
-0.6681797 0.2919664 -0.2018084 0.2843628
-0.7230001 0.3272052 -0.4495429 0.2871599
-0.6554069 0.2889063 -7.196257e-16 0.2946278
-0.7418251 0.3319723 -0.5001261 0.3188943
-0.8123216 0.2889563 -0.293513 0.2901766
-0.8950133 0.2900198 -0.3718742 0.2883707
-0.960462 0.3277531 -0.1667748 0.2889563
-1.034628 0.3012501 -0.6947134 0.2982805
-0.8028461 0.31326 -0.3694039 0.2873836
-0.7433369 0.2909078 -0.4971494 0.302717
-0.8109302 0.325427 -0.0849046 0.2914353
-0.8540775 0.3246537 -0.4081919 0.3212724
-1.138618 0.3055311 -0.1505845 0.3170839
-0.7882278 0.2920488 -0.8072925 0.2960321
-0.6903022 0.3188695 -0.2993288 0.2930916
-0.7271535 0.2962491 4.141708e-15 0.3057803
-0.8072925 0.2960321 -0.6869552 0.29644
-0.6616312 0.3237908 -0.3377835 0.3117745
-0.7127714 0.3025479 -0.2811674 0.3068654
-0.8981375 0.2906091 -0.4361539 0.2967999
-0.6513001 0.3088166 -0.5118946 0.322848
-0.6190392 0.2897517 -0.3528071 0.2979685
-0.6631313 0.3118803 0.09923853 0.3151235
-0.6925595 0.2883707 -0.04367506 0.2955652
-0.7137665 0.2932096 -0.4545394 0.3200329
-0.960462 0.3277531 -0.2642236 0.2973225
-0.830971 0.3300504 -0.8167611 0.3068109
-0.9177934 0.3284468 -0.4454704 0.2858018
-0.978468 0.3057413 -0.9544425 0.2938705
-1.044545 0.3265638 -0.4361539 0.2967999
-0.6405034 0.3060092 -0.6498909 0.2875804
-0.8109302 0.349319 -0.6281424 0.2920488
-1.193574 0.3298508 -0.830971 0.3300504
-0.6336275 0.2934287 -0.8574502 0.3064599
-0.7761181 0.3173638 -0.4706044 0.3088329
-0.7391835 0.290001 -0.1255828 0.289455
-0.5880407 0.2921864 -0.4773459 0.2963135
-0.5722221 0.2879515 -0.4545394 0.3200329
-0.6947134 0.2982805 -0.6135329 0.2989429
-0.6523611 0.2881745 -0.4480718 0.3010011
-0.7752397 0.2978451 -0.09193424 0.3032807
-0.6090641 0.3094803 -0.3292056 0.2875804
-0.7472144 0.3106302 -1.276474 0.3025479
-0.6204627 0.3126092 -0.1267517 0.2908036
-1.497885 0.3386176 -0.2076971 0.2885212
-0.9044563 0.2993645 0.2638496 0.3256813
-0.6153695 0.2888231 -0.6737291 0.2932916
-0.6903022 0.3188695 -0.2427307 0.284807
-0.6135329 0.2989429 -0.5934292 0.2936214
-0.9444616 0.2993378 -0.4899189 0.3003895
-0.5994486 0.29522 -0.7927086 0.3212122
-0.7437909 0.3000119 -0.9493471 0.2929382
-1.069035 0.3313384 -0.123614 0.2871695
-0.9808293 0.3526857 -0.2503657 0.289309
-0.6466272 0.3197359 -0.5126097 0.2941773
-1.315677 0.3288688 -0.08269172 0.2876066
-1.044545 0.3265638 -0.3946542 0.2973507
-0.6869552 0.29644 -0.4353181 0.3128842
-0.6153695 0.2888231 -0.1245388 0.2882453
-0.7761181 0.3173638 -0.3755834 0.30772
-0.6051274 0.2862234 -0.5050743 0.3052547
-0.7307103 0.2881479 -0.4895482 0.2871321
-0.7127714 0.3025479 -0.09047758 0.300864
-1.083763 0.3175872 -0.6466272 0.2867945
-0.8342799 0.3016509 -0.545017 0.3178497
-0.8602013 0.2907584 -0.2061502 0.287435
-0.8353772 0.3205028 -0.2962658 0.2915595
-0.7334496 0.3180802 -0.9393295 0.2911051
-0.5790339 0.2897793 -0.2047944 0.2864799
-1.107581 0.2937734 -0.2578291 0.2936493
-0.7758389 0.30722 -0.6681797 0.2919664
-0.654222 0.2985827 -0.1906898 0.3091261
-0.7882278 0.2920488 -0.5245245 0.2977749
-0.8167611 0.3068109 -0.4706044 0.3088329
-0.7760348 0.2894941 -0.1906898 0.3091261
-0.9923369 0.3083539 -0.3371881 0.2911283
-0.6329471 0.3160189 -0.298493 0.3163606
-0.8183542 0.3167167 -0.221555 0.2980871
-0.9389821 0.3233179 -0.3442197 0.294224
-0.679975 0.2947801 -0.760999 0.3138466
-1.010263 0.3380451 -0.4429177 0.2849481
-0.6925595 0.2883707 -0.4122448 0.3041433
-0.7939519 0.3018934 -0.04049136 0.2845825
-0.5832515 0.2909078 -0.6167404 0.3248163
-0.8602013 0.3161355 0.1473247 0.3136154
-0.6458165 0.2865991 -0.4421938 0.2847026
-0.7162282 0.3383806 -0.5658078 0.2862242
-0.6466272 0.2867945 -0.6336275 0.2934287
-0.7733789 0.2889368 -0.1221027 0.2854031
-0.5880407 0.2921864 -0.3525602 0.3187087
-0.7127714 0.3025479 -1.05341 0.3373007
-0.6204627 0.3126092 -0.4833325 0.2982589
-0.7053673 0.3112217 -0.3342021 0.2898054
-0.8979416 0.3061654 0.1945033 0.3122281
-0.6135329 0.2989429 -0.6216882 0.301088
-1.010263 0.3380451 -0.6204627 0.3126092
-1.115562 0.3498391 -0.2032282 0.3192185
-0.8967461 0.3239518 -0.5934292 0.2936214
-0.7882278 0.2920488 0.1624307 0.2851465
-0.6329471 0.3160189 -0.9008904 0.2911283
-0.7761181 0.3173638 -0.06136895 0.3503958
-0.654222 0.2985827 -0.3403258 0.3383414
-0.7328875 0.2886245 -0.4953214 0.2889063
-0.8574502 0.3064599 -0.5804962 0.3015667
-0.654222 0.2985827 -0.895384 0.2976024
-0.6216882 0.301088 -0.9258242 0.3035119
-0.9444616 0.2993378 -0.3718742 0.2883707
-0.6690496 0.3396611 -0.4899189 0.3003895
-1.002698 0.3271264 -0.3804638 0.331482
-0.7200766 0.2946437 -0.8109302 0.325427
-0.6204627 0.3126092 -0.5663955 0.3102149
-0.830971 0.3300504 -0.129491 0.2939402
-0.7537718 0.2931823 -0.7328875 0.2886245
-0.8855378 0.3122757 -0.4823241 0.2848984
-0.7641174 0.3045893 -0.5663955 0.3102149
-0.8855378 0.3122757 -0.6737291 0.2932916
-0.6626105 0.3006705 -0.4521741 0.288035
-0.8855378 0.3122757 -0.3254224 0.3058744
-0.8472979 0.2960051 -0.09352606 0.3059001
-0.8530533 0.3351327 -0.3405208 0.292599
-1.105324 0.3138991 -0.4058358 0.301682
-0.7472144 0.3106302 -0.2550738 0.2920538
-0.6096925 0.2873836 -0.04049136 0.2845825
-0.6781093 0.32822 -0.171727 0.2932414
-0.6990819 0.2898623 -0.5232481 0.3110241
-0.8639649 0.2914915 -0.1611193 0.2839853
-0.6466272 0.3197359 -0.6466272 0.2966868
-0.6681797 0.2919664 -1.00079 0.29522
-0.7437909 0.3000119 -0.2864375 0.3097805
-0.6153695 0.2888231 -0.7328875 0.2886245
-0.6232889 0.2908252 -0.9808293 0.2916667
-0.6718492 0.3029629 -0.654222 0.2985827
-0.6329471 0.3160189 -0.3694039 0.2873836
-0.8109302 0.325427 -0.1015069 0.3187131
-0.5722221 0.2879515 -0.05016097 0.3167628
-0.8183542 0.3167167 -0.4183685 0.2904481
-0.7672552 0.2961133 -0.2910548 0.2889368
-0.8855378 0.3122757 -0.315081 0.3008638
-0.786716 0.330969 -0.6869552 0.29644
-0.6306572 0.3034386 -0.04000533 0.282871
-0.7137665 0.2932096 -0.3200199 0.3032655
-1.072637 0.3080399 0.04119198 0.2870371
-0.7472144 0.3106302 -0.7887141 0.310103
-0.5790339 0.2897793 -0.3218565 0.2842782
-0.96096 0.3187736 -0.3746934 0.2894941
-0.6513001 0.3088166 -0.5389965 0.2898623
-0.6051274 0.2862234 -0.04558674 0.3019673
-0.7282385 0.2876066 -0.6632942 0.2907976
-0.6466272 0.3197359 -0.09193424 0.3032807
-0.8401246 0.294562 -0.7887141 0.310103
-0.9808293 0.3227486 -0.6281424 0.2920488
-0.7534605 0.302192 -0.3627787 0.2847225
-0.6466272 0.2966868 -0.1416122 0.307446
-1.210916 0.3412319 -0.6590445 0.2897793
-1.105324 0.3138991 -0.4122448 0.3041433
-1.015528 0.2978451 -0.7231952 0.3050014
-0.5934292 0.2936214 -0.4120725 0.2881745
-0.7534605 0.302192 -0.3212048 0.328448
-0.7162282 0.3383806 -0.6690496 0.3396611
-0.6737291 0.2932916 -0.5232481 0.3110241
-0.5994486 0.29522 -1.208848 0.3249025
-0.6681797 0.2919664 -0.2186368 0.2960966
-0.7230001 0.3272052 -0.9145799 0.3013299
-0.7537718 0.2931823 0.04032804 0.284009
-0.7927086 0.3212122 -0.3904272 0.3139453
-0.7939519 0.3018934 -0.760114 0.294562
-1.032535 0.3081704 -0.5589572 0.2955253
-0.6122595 0.288035 -0.4269293 0.3097273
-0.7641174 0.3045893 -0.2853208 0.2860265
-0.5639354 0.285719 -0.7053673 0.3112217
-0.7534605 0.302192 -0.545017 0.3178497
-0.7752397 0.2978451 -0.1228033 0.2862234
-0.6051274 0.2862234 -0.7127714 0.3025479
-0.8318555 0.3418005 0.2503657 0.289309
-0.9923369 0.3083539 -0.1245388 0.2882453
-0.5722221 0.2879515 -0.5137517 0.3080179
-0.7700856 0.2882453 -0.9444616 0.2993378
-0.5880407 0.2921864 -0.04558674 0.3019673
-0.7032996 0.2908252 -0.4480718 0.3010011
-0.9115175 0.3088833 -0.6631313 0.3118803
-0.8443458 0.3127373 -0.0401016 0.2832112
-0.6466272 0.3197359 -0.2408508 0.3109525
-0.7882278 0.2920488 -0.5431499 0.291046
-0.7032996 0.3003124 -0.2094434 0.2897429
-0.6336275 0.2934287 -0.4095055 0.2872437
-0.5832515 0.2909078 -0.2962658 0.2915595
-0.5790339 0.2897793 -0.4552198 0.2890455
-0.8123216 0.2889563 -0.6631313 0.3118803
-0.7472144 0.3106302 -0.3303028 0.3331859
-0.9177934 0.3284468 -0.1580569 0.3249001
-1.007641 0.29644 -0.874646 0.3292112
-0.6061358 0.2969906 -0.3212048 0.328448
-0.8123216 0.2889563 -0.7939519 0.3018934
-0.654222 0.2985827 -0.3053816 0.3200679
-0.8774422 0.3407347 -0.4353181 0.3128842
-0.6090641 0.3094803 -0.7733789 0.2889368
-0.7433369 0.2909078 -0.4988949 0.290001
-0.6931472 0.3082206 0.04907756 0.3133214
-0.7127714 0.3025479 -0.2839227 0.285313
-0.880162 0.2946437 -0.7641174 0.3045893
-0.8443458 0.3127373 -0.8109302 0.2886751
-0.6397767 0.2949719 -0.3999856 0.2994219
-0.6902432 0.3455994 -0.04808619 0.310139
-0.760114 0.294562 -0.2572955 0.3215458
-0.9409833 0.3333968 -0.2113988 0.2911051
-0.7271535 0.2962491 -0.5478424 0.2923799
-0.7032996 0.3003124 -0.5126097 0.2941773
-0.7032996 0.3003124 -0.5389965 0.2898623
-0.784119 0.2997678 -0.09716375 0.3118046
-0.6902432 0.3455994 -0.09352606 0.3059001
-0.6076549 0.286866 -0.6153695 0.2888231
-1.104804 0.2997678 -0.2827681 0.2847225
-0.6336275 0.2934287 -0.9258242 0.3035119
-0.7495613 0.3219938 -4.728185e-15 0.3086066
-0.6903022 0.3188695 0.08793007 0.2965907
-0.7672552 0.2961133 -0.315081 0.3008638
-0.922333 0.3397573 -8.702328e-16 0.3265984
-0.9389821 0.3233179 -0.4058358 0.301682
-0.7127714 0.3025479 -0.5248061 0.3271514
-0.6405034 0.3060092 -0.5891575 0.3039774
-0.8776132 0.319862 -0.6090641 0.3094803
-0.6336275 0.2934287 0.09047758 0.300864
-0.6216882 0.301088 -0.2608728 0.2954029
-0.8774422 0.3407347 -0.1328209 0.2977099
-0.6190392 0.2897517 -0.2282587 0.3026137
-0.6190392 0.2897517 -0.8979416 0.3061654
-0.7641174 0.3045893 -0.3483067 0.296011
-0.6281424 0.2920488 -0.2763448 0.3041763
-1.234496 0.3294698 -0.718763 0.3144996
-0.7053673 0.3112217 -0.2638496 0.3256813
-0.8153413 0.2977101 -0.4221322 0.2918008
-0.6737291 0.2932916 -0.2061502 0.287435
-0.7939519 0.3018934 -0.04149973 0.2881077
-0.8072925 0.2960321 -0.3610133 0.3226208
-0.8167611 0.3068109 -4.111465e-16 0.3086066
-0.9665881 0.3388624 -1.110882 0.3307829
-0.8338145 0.2932916 -0.5389965 0.3021089
-0.6869552 0.29644 -0.4586966 0.2901959
-0.5695909 0.2872437 0.3313284 0.3087051
-0.9946226 0.3012235 -0.5126097 0.2941773
-0.7137665 0.2932096 -0.3627787 0.2847225
-0.7472144 0.3106302 -3.862862e-16 0.2899464
-0.718763 0.3144996 -0.4454704 0.2858018
-0.8401246 0.294562 -0.3313284 0.3087051
-0.6046245 0.2860954 1.357075e-15 0.2842662
-0.7334496 0.3180802 -0.4922115 0.2879515
-0.7534605 0.302192 -0.1015069 0.3187131
-0.6466272 0.2966868 -0.3778772 0.2907584
-0.6397767 0.2949719 -0.2818511 0.2842501
-0.8452979 0.3039391 -0.5663955 0.3102149
-0.6397767 0.2949719 -0.2061502 0.287435
-0.8602013 0.3161355 -0.4454704 0.2858018
-1.180162 0.3354674 -0.2642236 0.2973225
-0.6232889 0.2908252 -0.7752397 0.2978451
-0.7058862 0.3228518 -0.4833325 0.2982589
-0.9544425 0.2938705 -0.5295536 0.2871599
-0.9194603 0.3192865 -1.221662 0.3349793
-0.6329471 0.3160189 -0.5589572 0.2955253
-0.8602013 0.3161355 -0.3814431 0.2921694
-0.7231952 0.3050014 0.09047758 0.300864
-0.9659258 0.3033794 -1.021765 0.2921384
-0.5880407 0.2921864 -0.2864375 0.3097805
-0.7350414 0.298035 -0.8167611 0.3068109
-0.8153413 0.2977101 -0.6096925 0.2873836
-0.7271535 0.2962491 -0.1906898 0.3091261
-0.6626105 0.3006705 -0.2503657 0.289309
-0.7053673 0.3112217 -0.922333 0.3397573
-0.6397767 0.2949719 -0.171727 0.2932414
-1.28492 0.3166911 -0.1945033 0.3122281
-0.6190392 0.2897517 -0.2550738 0.2920538
-0.6554069 0.2889063 -0.2047944 0.2864799
-0.5790339 0.2897793 -0.3105711 0.2986563
-0.830971 0.3300504 -0.5182681 0.2958893
-0.6135329 0.2989429 -0.3483067 0.296011
-0.7200766 0.2946437 -0.6051274 0.2862234
-0.7127714 0.3025479 -0.5431499 0.291046
-0.7537718 0.2931823 -0.0401016 0.2832112
-1.085974 0.3033001 -0.5589572 0.2955253
-0.901701 0.3156175 -0.1443423 0.3104092
-0.7672552 0.326276 -0.4361539 0.2967999
-0.7032996 0.2908252 -0.08052638 0.28381
-1.096055 0.2982805 -0.05016097 0.3167628
-0.9273406 0.2961133 -0.5232481 0.3110241
-0.6632942 0.2907976 -0.1840036 0.3036153
-0.5832515 0.2909078 -0.5137517 0.3080179
-0.8602013 0.3161355 -0.123614 0.2871695
-0.7200766 0.2946437 -0.3946542 0.2973507
-0.7162282 0.3383806 -0.5531011 0.2938705
-0.6232889 0.2908252 -0.3200199 0.3032655
-0.654222 0.2985827 -0.3755834 0.30772
-0.7058862 0.3228518 -0.4953214 0.2889063
-0.6135329 0.2989429 -0.2427307 0.284807
-0.6681797 0.2919664 -0.298493 0.3163606
-0.979529 0.2914353 -0.4776276 0.3284756
-0.6925595 0.2883707 -2.00553e-15 0.2913583
-0.6466272 0.2867945 -0.3654598 0.2858018
-0.6925595 0.2883707 -0.6718492 0.3029629
-1.367978 0.3536819 0.2320898 0.3051729
-0.7481904 0.2919664 -0.3442197 0.294224
-0.654222 0.2985827 -0.4893853 0.3152582
-0.6903022 0.3188695 -0.09047758 0.300864
-1.064996 0.3141322 -1.002698 0.3271264
-1.002698 0.3271264 -0.04717856 0.3071967
-0.8744783 0.3014633 -0.09352606 0.3059001
-0.6281424 0.2920488 -0.5478424 0.2923799
-0.8452979 0.3039391 -0.1667748 0.2889563
-0.6153695 0.2888231 -0.1328209 0.2977099
-0.6590445 0.2897793 -0.3999856 0.2994219
-0.7537718 0.2931823 -0.6096925 0.2873836
-1.022329 0.3222412 -0.4183685 0.2904481
-0.6216882 0.301088 -0.2320898 0.3051729
-0.7641174 0.3045893 -0.5217249 0.3442183
-1.08846 0.2969906 -0.8856259 0.3036982
-0.5790339 0.2897793 -0.4795731 0.3119123
-0.760114 0.294562 -0.3483067 0.296011
-0.7391835 0.290001 -0.5722221 0.2879515
-1.168159 0.3252336 -0.545017 0.3178497
-0.9923369 0.3083539 -0.3999856 0.2994219
-0.8873032 0.2960321 -0.2993288 0.2930916
-0.5674565 0.2866688 -0.1310774 0.295742
-0.6962384 0.3330662 -0.04092224 0.2860954
-0.7534605 0.302192 -0.4073069 0.2864445
-0.6216882 0.301088 -0.9389821 0.3233179
-0.8855378 0.3122757 -0.4440081 0.285313
-0.7939519 0.3018934 -0.6616312 0.3237908
-0.6466272 0.2966868 -0.5891575 0.3039774
-0.9409833 0.3333968 -0.3746934 0.2894941
-0.6135329 0.2989429 -0.4549134 0.303394
-0.6216882 0.301088 -0.3814431 0.2921694
-0.6397767 0.2949719 -0.5531011 0.2938705
-0.5658078 0.2862242 -0.7291634 0.2878092
-0.8167611 0.3068109 -0.5137517 0.3080179
-0.942893 0.3151601 -0.5994486 0.29522
-0.5934292 0.2936214 -0.5336403 0.3142937
-0.6329471 0.3160189 -0.4549134 0.303394
-0.718763 0.3144996 -0.1986707 0.3155851
-0.7032996 0.3003124 -0.171727 0.2932414
-1.002152 0.3183208 -0.718763 0.3144996
-0.9946226 0.3012235 -0.4773459 0.2963135
-0.960462 0.3277531 -0.8183542 0.3167167
-0.5994486 0.29522 -0.3254224 0.2858859
-0.7391835 0.290001 -0.3694039 0.2873836
-0.9258242 0.3035119 -0.04149973 0.2881077
-0.6869552 0.29644 -1.00079 0.29522
-0.8183542 0.3167167 0.2135741 0.2926136
-0.6306572 0.3034386 -0.9044563 0.2993645
-0.8540775 0.3246537 -0.9194603 0.3192865
-0.7472144 0.3106302 -1.114767 0.3014633
-0.6190392 0.2897517 -0.1096989 0.3313585
-0.8553787 0.2976293 0.08161134 0.285719
-0.6061358 0.2864799 -0.1267517 0.2908036
-0.8452979 0.3039391 -0.5389965 0.3318418
-0.7271535 0.2962491 -0.5389965 0.2898623
-0.7334496 0.3180802 -0.960462 0.3277531
-0.6306572 0.3034386 -0.2811674 0.3068654
-0.654222 0.2985827 -0.2411621 0.2838724
-0.7200766 0.2946437 -0.3027199 0.2947797
-0.8639649 0.2914915 -0.9949339 0.2941773
-0.7472144 0.3106302 -0.3804638 0.331482
-0.6590445 0.2897793 -0.6626105 0.3006705
-0.6869552 0.29644 -0.04149973 0.2881077
-0.8530533 0.3351327 -0.6306572 0.3034386
-0.760114 0.294562 -1.024504 0.3144192
-0.8338145 0.2932916 -0.3639654 0.2852006
-1.034628 0.3012501 7.258773e-16 0.2842662
-1.127237 0.3256196 -0.3854117 0.2937334
-0.950043 0.3458802 -0.6336275 0.2934287
-0.9145799 0.3013299 -0.7939519 0.3018934
-1.138315 0.3360152 -0.6329471 0.3160189
-0.5722221 0.2879515 -0.7418251 0.3319723
-0.7437909 0.3000119 -0.5663955 0.3102149
-0.6397767 0.2949719 0.2578291 0.2936493
-0.6232889 0.2908252 -0.7279308 0.2875392
-0.5753641 0.2887954 -0.4988949 0.290001
-0.6122595 0.288035 -0.2136886 0.3274153
-0.7534605 0.302192 -0.7334496 0.3180802
-0.7137665 0.3521475 0.04558674 0.3019673
-0.7537718 0.2931823 -0.2136886 0.3274153
-0.7081851 0.291939 -0.4418327 0.2845825
-0.6513001 0.3088166 0.5396587 0.3504949
-1.088167 0.310821 0.3053816 0.3200679
-0.6405034 0.3060092 -0.4418328 0.2988071
-0.6869552 0.29644 -0.4586966 0.2901959
-0.6947134 0.2982805 -0.7162282 0.3383806
-0.6281424 0.2920488 -0.1986707 0.3155851
-0.5753641 0.2887954 -0.4953214 0.2889063
-0.6498909 0.2875804 -0.4221322 0.2918008
-0.6737291 0.2932916 -0.298493 0.3163606
-0.922333 0.3397573 0.1611193 0.2839853
-0.6135329 0.2989429 -0.5001261 0.3188943
-0.8553787 0.2976293 0.05264373 0.3245123
-1.246639 0.3039391 -0.8283294 0.2921864
-0.718763 0.3144996 -0.830971 0.3300504
-0.6718492 0.3029629 -0.4521741 0.288035
-0.8243173 0.2995791 -0.5910047 0.3487224
-0.5832515 0.2909078 -0.04558674 0.3019673
-0.6931472 0.3082206 -0.4120725 0.2881745
-0.7271535 0.2962491 -1.204781 0.3168939
-0.8028461 0.31326 -0.6046245 0.2860954
-1.112674 0.3079618 -0.4122448 0.3041433
-0.7032996 0.3003124 -0.8873032 0.2960321
-0.8342799 0.3016509 -0.7793819 0.2901959
-0.7357068 0.2892411 0.5146644 0.3884803
-1.195293 0.3018934 -0.3898064 0.2954577
-0.8183542 0.3167167 -0.4361539 0.2967999
-0.7053673 0.3112217 -0.4269293 0.3097273
-0.8243173 0.2995791 -0.2061502 0.287435
-0.830971 0.3300504 -0.3064596 0.2966316
-1.024504 0.2994448 0.106711 0.3268018
-0.7081851 0.291939 -0.2608728 0.2954029
-0.7752397 0.2978451 -0.7271535 0.2962491
-0.5658078 0.2862242 -0.0463475 0.3044776
-0.6329471 0.3160189 -0.9044563 0.3469303
-1.05341 0.3373007 -0.1759682 0.2968643
-0.6869552 0.29644 -1.30841e-15 0.2946278
-0.5880407 0.2921864 -0.3898064 0.2954577
-0.8950133 0.2900198 -0.6135329 0.2989429
-0.6990819 0.2898623 -0.08682239 0.2947135
-1.367978 0.3536819 -0.04223601 0.2906532
-0.6990819 0.2898623 -0.2408508 0.3109525
-0.6616312 0.3237908 -0.6411657 0.3470948
-0.6867388 0.2870371 -0.1473247 0.3136154
-0.784119 0.2997678 -0.3639654 0.2852006
-0.6204627 0.3126092 -0.4269293 0.3097273
-0.9194603 0.3192865 -0.7472144 0.3106302
-0.7032996 0.2908252 0.04425501 0.2975219
-0.7793819 0.2901959 -0.545017 0.3178497
-0.8243173 0.2995791 -0.5478424 0.2923799
-0.8167611 0.3068109 0.4773459 0.2963135
-0.8001193 0.2945349 -0.6947134 0.2982805
-0.7127714 0.3025479 -0.4295414 0.3299158
-0.8535136 0.289455 -0.5389965 0.2898623
-0.9044563 0.2993645 -0.2186368 0.2960966
-0.7534605 0.302192 -0.6306572 0.3034386
-0.96096 0.3187736 -0.04558674 0.3019673
-1.047969 0.311003 -0.7437909 0.3000119
-0.8574502 0.3064599 -0.4150215 0.2892411
-1.122893 0.2963135 -0.8183542 0.3167167
-0.7761181 0.3173638 0.04489084 0.2996526
-0.8299061 0.3096375 0.1473247 0.3136154
-0.96096 0.3187736 -0.6631313 0.3118803
-0.7081851 0.291939 -0.09047758 0.300864
-0.6336275 0.2934287 -0.2789569 0.3350406
-0.6405034 0.3060092 -0.1643031 0.2867945
-0.5695909 0.2872437 -0.3639654 0.2852006
-0.6061358 0.2969906 -0.4971494 0.302717
-0.6281424 0.2920488 -0.1039897 0.322597
-1.26615 0.3203818 -0.7761181 0.3173638
-0.7927086 0.3212122 -0.4120725 0.2881745
-0.6135329 0.2989429 0.169899 0.2916667
-0.8776132 0.319862 -0.4626235 0.2914915
-0.8353772 0.3205028 -0.8443458 0.3127373
-0.6590445 0.2897793 -0.4833325 0.2982589
-0.8243173 0.2995791 0.08118045 0.2849592
-0.6061358 0.2864799 -0.2513144 0.3177298
-1.082864 0.343231 -0.922333 0.3397573
-0.6781093 0.32822 -0.9008904 0.2911283
-0.880162 0.2946437 -0.3755834 0.30772
-0.7081851 0.291939 -0.6873163 0.2871695
-0.6122595 0.288035 -0.123614 0.2871695
-1.096055 0.2982805 -0.3405208 0.292599
-0.6458165 0.2865991 -0.7383294 0.3442248
-1.126011 0.3424979 -0.1443423 0.3104092
-1.126011 0.3424979 -0.5861751 0.330531
-0.880162 0.2946437 -0.8527773 0.2893115
-0.6681797 0.2919664 -0.5232481 0.3110241
-0.7534605 0.302192 -0.6466272 0.2966868
-1.145132 0.3210676 -0.545017 0.3178497
-0.7758389 0.30722 -0.8452979 0.3039391
-0.7437909 0.3000119 -0.6466272 0.2966868
-0.6718492 0.3029629 -0.2047944 0.2864799
-1.138315 0.3360152 -0.8197099 0.2904481
-0.8452979 0.3039391 -0.7641174 0.3045893
-1.127237 0.3256196 -0.5658078 0.2862242
-0.6232889 0.2908252 0.08118045 0.2849592
-0.7882278 0.2920488 -0.8967461 0.3239518
-0.6397767 0.2949719 0.09923853 0.3151235
-0.7271535 0.2962491 -0.3105711 0.2986563
-0.6903022 0.3188695 -0.6681797 0.2919664
-0.679975 0.2947801 -0.3053816 0.3200679
-0.6760944 0.3152225 -0.4058358 0.301682
-0.9923369 0.3083539 -0.2811674 0.3068654
-0.9671491 0.3115279 -0.04425501 0.2975219
-0.6902189 0.2878348 -0.760114 0.294562
-0.6051274 0.2862234 -0.8028461 0.31326
-0.7834385 0.291046 -0.4263339 0.2933054
-0.9923369 0.3083539 -0.4495429 0.2871599
-0.7672552 0.2961133 -0.04049136 0.2845825
-0.6902189 0.2878348 -0.6737291 0.2932916
-0.7081851 0.291939 -0.718763 0.3144996
-0.7437909 0.3000119 -0.1759682 0.2968643
-0.6405034 0.3060092 -0.7752397 0.2978451
-0.8855378 0.3122757 -0.5695909 0.2872437
-0.6232889 0.2908252 -0.3627787 0.2847225
-0.9115175 0.3088833 -0.6554069 0.2889063
-0.6458165 0.2865991 -0.4081919 0.3212724
-1.168306 0.3106142 -0.04032804 0.284009
-0.6631313 0.3118803 -0.4776276 0.3284756
-0.9368604 0.2906532 -0.4361539 0.2967999
-0.7271535 0.2962491 0.08269172 0.2876066
-0.6902189 0.2878348 -0.4361539 0.2967999
-1.069035 0.3313384 -1.294263 0.3402119
-0.6718492 0.3029629 -0.3525602 0.3187087
-0.6405034 0.3060092 0.2993288 0.2930916
-0.5674565 0.2866688 -0.5137517 0.3080179
-0.5790339 0.2897793 -0.8109302 0.349319
-0.9978076 0.3813542 -0.1391128 0.3047087
-0.760114 0.294562 -0.3442197 0.294224
-0.6523611 0.2881745 -0.4988949 0.290001
-0.7137665 0.2932096 -0.5994486 0.29522
-0.6076549 0.286866 -0.6931472 0.3082206
-0.9177934 0.3284468 -0.1416122 0.307446
-0.6902432 0.3455994 -0.2864375 0.3097805
-0.8342799 0.3016509 -0.1280519 0.2922965
-0.9194603 0.3192865 -0.5245245 0.2977749
-0.8183542 0.3167167 -0.6760944 0.3152225
-0.901701 0.3156175 -0.2811674 0.3068654
-0.8708284 0.3092315 -0.4192584 0.3068198
-0.7437909 0.3000119 -0.2679025 0.2994175
-0.9353894 0.2976293 -0.2032282 0.3192185
-0.7200766 0.2946437 -0.8540775 0.3246537
-0.880162 0.2946437 -0.293513 0.2901766
-0.6718492 0.3029629 -0.4054651 0.2857738
-0.8572153 0.2901766 0.2196978 0.3320391
-0.7693214 0.3674662 -0.2710438 0.3301675
-0.9088558 0.2926302 -0.6232889 0.2908252
-0.7350414 0.298035 -0.8708284 0.3092315
-1.047969 0.2966868 -0.2466415 0.2871211
-0.8708284 0.3092315 -0.2082179 0.3231526
-0.5994486 0.29522 -0.2853208 0.2860265
-0.6903022 0.3188695 -0.2094434 0.2897429
-0.9258242 0.3035119 -0.5546261 0.3369636
-0.8708284 0.3092315 -0.3627787 0.2847225
-1.138315 0.3360152 -0.7334496 0.3180802
-0.7433369 0.2909078 -1.168159 0.3252336
-0.6466272 0.3197359 -0.04808619 0.310139
-0.901701 0.3156175 -0.3826743 0.310706
-0.5934292 0.2936214 -0.4624058 0.3059994
-1.180162 0.3354674 -0.2186368 0.2960966
-0.6061358 0.2969906 -0.2135741 0.2926136
-0.7939519 0.3018934 -0.9949339 0.2941773
-0.8452979 0.3039391 -0.298493 0.3163606
-0.960462 0.3277531 -2.21929e-15 0.3224127
-1.007641 0.29644 -0.9044563 0.2993645
-0.7882278 0.2920488 -0.6631313 0.3118803
-0.6955085 0.2890455 -0.6204627 0.3126092
-1.136546 0.2985827 -0.5336403 0.3142937
-0.9671491 0.3115279 -0.6411657 0.3470948
-0.8299061 0.3096375 -0.895384 0.2976024
-1.058607 0.3055311 -0.4895482 0.2871321
-1.022329 0.3222412 -0.1245388 0.2882453
-0.8153413 0.2977101 -0.04717856 0.3071967
-0.6306572 0.3034386 -0.3129272 0.324087
-0.7137665 0.2932096 -0.08581592 0.2929976
-0.5790339 0.2897793 -0.187199 0.3062607
-0.7761181 0.3173638 -0.4706044 0.3088329
-0.6232889 0.2908252 -0.1255828 0.289455
-0.8109302 0.325427 -0.3690975 0.3049687
-0.6204627 0.3126092 -0.760114 0.294562
-0.5695909 0.2872437 -0.0849046 0.2914353
-0.679975 0.2947801 -0.4221322 0.2918008
-1.16868 0.3418327 -0.718763 0.3144996
-0.6760944 0.3152225 -0.4122448 0.3041433
-1.007641 0.29644 -0.2719337 0.3016982
-0.6076549 0.286866 -0.5431499 0.291046
-0.7391835 0.290001 -0.4873176 0.2864445
-0.6781093 0.32822 -0.1840036 0.3036153
-0.880162 0.2946437 -0.6820032 0.305474
-0.7752397 0.2978451 -0.4706044 0.3088329
-0.760999 0.3138466 -1.127237 0.3256196
-1.159237 0.3490475 -0.9493471 0.2929382
-0.8644189 0.2994448 -0.7334496 0.3180802
-0.6466272 0.3197359 -0.6135329 0.2989429
-0.6135329 0.2989429 -0.5753641 0.2887954
-0.6903022 0.3188695 -0.0556317 0.3336011
-0.8472979 0.2960051 0.06136895 0.3503958
-0.7672552 0.326276 -0.5248061 0.3271514
-0.8167611 0.3068109 -0.3639654 0.2852006
-1.053661 0.3688306 -1.166113 0.3035119
-0.8318555 0.3418005 -0.6466272 0.3197359
-0.7433369 0.2909078 -0.6632942 0.2907976
-0.6479829 0.2871211 -0.09923853 0.3151235
-0.7437909 0.3000119 -0.718763 0.3144996
-1.030958 0.2937334 -0.7937771 0.2932096
-0.7937771 0.2932096 -0.467023 0.2929382
-0.8081624 0.3361236 -0.3999856 0.2994219
-0.6820032 0.305474 -0.1210177 0.2841268
-0.7350414 0.298035 -0.4624058 0.3059994
-1.043074 0.3179259 -0.9674422 0.2962491
-0.6405034 0.3060092 -0.8153413 0.2977101
-0.6281424 0.2920488 -0.04184711 0.2893115
-0.8243173 0.2995791 -0.4833325 0.2982589
-0.6631313 0.3118803 -0.2186368 0.2960966
-0.9177934 0.3284468 -0.2427307 0.284807
-0.8023465 0.3764973 -0.8001193 0.2945349
-0.6781093 0.32822 -0.4263339 0.2933054
-0.6204627 0.3126092 -0.7383294 0.3442248
-0.6820032 0.305474 -0.1632947 0.2859081
-0.6590445 0.2897793 -0.3814431 0.2921694
-0.9264601 0.3118732 -0.123614 0.2871695
-0.6204627 0.3126092 -1.384957 0.3335707
-0.6281424 0.2920488 -0.7927086 0.3212122
-0.8342799 0.3016509 -0.221555 0.2980871
-0.6931472 0.3082206 -0.8183542 0.3167167
-0.6090641 0.3094803 -0.4833325 0.2982589
-1.192774 0.3655754 -0.786716 0.330969
-0.7758389 0.30722 -0.6096925 0.2873836
-0.5832515 0.2909078 6.993743e-16 0.3149702
-0.9520088 0.3085912 -0.5531011 0.2938705
-0.6232889 0.2908252 -0.3254224 0.3058744
-0.7927086 0.3212122 -0.3778772 0.2907584
-0.9520088 0.3085912 -0.4418328 0.2988071
-0.8873032 0.2960321 -0.1505845 0.3170839
-1.105324 0.3138991 -1.002152 0.3183208
-0.7032996 0.3003124 0.2113988 0.2911051
-0.8708284 0.3092315 -0.4183685 0.2904481
-0.8856259 0.3036982 -0.3483067 0.296011
-0.7672552 0.326276 0.3129272 0.324087
-0.6397767 0.2949719 -0.3254224 0.3058744
-0.7346469 0.3076892 -0.4418328 0.334818
-1.058607 0.3055311 -0.3946542 0.2973507
-0.6947134 0.2982805 -0.6931472 0.3082206
-0.8236369 0.2912403 -0.4899189 0.3003895
-0.7032996 0.2908252 -0.5773154 0.3134123
-0.6466272 0.3197359 -0.1391128 0.3047087
-0.8338145 0.2932916 -0.6737291 0.2932916
-0.9564972 0.3715106 -0.5232481 0.3110241
-0.6820032 0.305474 -0.718763 0.3144996
-0.7391835 0.290001 -0.3525602 0.3187087
-1.168306 0.3106142 -1.245053 0.3476725
-1.159237 0.3490475 -0.1347326 0.2998531
-0.7882278 0.2920488 -0.315081 0.3008638
-0.9382696 0.3059263 -0.3254224 0.3058744
-0.6718492 0.3029629 -0.6232889 0.2908252
-0.6498909 0.2875804 0.2638496 0.3256813
-0.6737291 0.2932916 -0.7391835 0.290001
-0.8739161 0.2934287 -0.5389965 0.3021089
-1.026799 0.3319571 -0.4624058 0.3059994
-0.9546172 0.3012501 -0.1682514 0.2902403
-0.6820032 0.305474 0.1039897 0.322597
-0.8153413 0.2977101 -0.5245245 0.2977749
-1.024504 0.3144192 -0.3027199 0.2947797
-0.6216882 0.301088 -0.6122595 0.288035
-0.7472144 0.3106302 -0.6681797 0.2919664
-0.5880407 0.2921864 -0.2036227 0.285652
-0.8081624 0.3361236 -0.3639654 0.2852006
-0.9088558 0.2926302 0.1391128 0.3047087
-0.5695909 0.2872437 -0.3577496 0.3001064
-0.8644189 0.2994448 -0.6135329 0.2989429
-0.8353772 0.3205028 0.3377835 0.3117745
-0.9194603 0.3192865 -0.3999856 0.2994219
-0.6820032 0.305474 -0.2018084 0.2843628
-0.8112776 0.2887453 -0.1129869 0.3363026
-0.6153695 0.2888231 -0.5589572 0.2955253
-0.8856259 0.3036982 -0.1129869 0.3363026
-0.6306572 0.3034386 -0.4361539 0.2967999
-1.185624 0.3207865 -0.5322168 0.2879237
-0.6820032 0.305474 -0.298493 0.3163606
-0.7433369 0.2909078 -0.4295414 0.3299158
-0.6737291 0.2932916 -0.5256094 0.2860265
-0.9088558 0.2926302 -0.04907756 0.3133214
-0.5722221 0.2879515 -0.3672695 0.2865285
-0.6397767 0.2949719 -0.3814431 0.2921694
-0.6616312 0.3237908 -0.5994486 0.29522
-0.5832515 0.2909078 -0.1228033 0.2862234
-0.6681797 0.2919664 -0.200348 0.2833258
-0.6479829 0.2871211 -0.4353181 0.3128842
-0.7472144 0.3106302 -0.04907756 0.3133214
-0.880162 0.2946437 -6.058543e-16 0.3031694
-0.7534605 0.302192 -0.9177934 0.3284468
-0.8153413 0.2977101 -0.3064596 0.2966316
-1.063521 0.3217932 -0.1810801 0.3011757
-0.7672552 0.326276 -0.6820032 0.305474
-0.8443458 0.3127373 -0.9946226 0.3012235
-0.9273406 0.2961133 -0.2864375 0.3097805
-0.9389821 0.3233179 -0.4922115 0.2879515
-0.9923369 0.3083539 -0.4221322 0.2918008
-0.9923369 0.3083539 -0.4626235 0.2914915
-0.7761181 0.3173638 -0.08682239 0.2947135
-0.7137665 0.2932096 0.3027199 0.2947797
-0.6090641 0.3094803 -0.4795731 0.3119123
-0.8072925 0.2960321 0.1632947 0.2859081
-0.7334496 0.3180802 -0.6090641 0.3094803
-0.7761181 0.3173638 -0.2763448 0.3041763
-0.8472979 0.2960051 -0.4922115 0.2879515
-0.6990819 0.2898623 -0.2113988 0.2911051
-0.6397767 0.2949719 -0.2247552 0.3002558
-0.8001193 0.2945349 -0.3313284 0.3087051
-0.6947134 0.2982805 -0.7081851 0.291939
-0.786716 0.330969 -0.4150215 0.2892411
-0.6626105 0.3006705 -1.151996 0.357239
-0.7834385 0.291046 -0.3528071 0.2979685
-0.6397767 0.2949719 -0.4795731 0.3119123
-0.7927086 0.3212122 -0.7834385 0.291046
-0.7307103 0.2881479 -0.3778772 0.2907584
-0.6781093 0.32822 -0.4549134 0.303394
-0.6631313 0.3118803 0.2864375 0.3097805
-0.7271535 0.2962491 -0.5029516 0.2912403
-0.5832515 0.2909078 -0.2196978 0.3320391
-0.6204627 0.3126092 -0.5934292 0.2936214
-0.5832515 0.2909078 -0.4545394 0.3200329
-1.024504 0.3144192 -0.7760348 0.2894941
-0.8776132 0.319862 0.05264373 0.3245123
-1.112674 0.3079618 -0.5934292 0.2936214
-1.047969 0.311003 -0.6190392 0.2897517
-0.6458165 0.2865991 -1.064606 0.2995791
-0.6616312 0.3237908 -0.173746 0.2949713
-0.8553787 0.2976293 -0.6781093 0.32822
-0.7127714 0.3025479 0.1039897 0.322597
-0.6051274 0.2862234 -0.4081919 0.3212724
-0.7937771 0.2932096 -0.04149973 0.2881077
-1.043074 0.3179259 -0.6096925 0.2873836
-0.679975 0.2947801 -0.1473247 0.3136154
-0.5880407 0.2921864 0.3904272 0.3139453
-0.6306572 0.3034386 0.05264373 0.3245123
-0.8452979 0.3039391 -0.7887141 0.310103
-0.5934292 0.2936214 -0.6061358 0.2969906
-0.7939519 0.3018934 -0.654222 0.2985827
-1.007641 0.29644 0.08793007 0.2965907
-0.9044563 0.2918008 -0.5389965 0.3021089
-0.6405034 0.3060092 -0.7761181 0.3173638
-0.9177934 0.3284468 -0.9145799 0.3013299
-0.5832515 0.2909078 -0.9444616 0.2993378
-0.6466272 0.2966868 -0.9808293 0.3526857
-0.7137665 0.2932096 -0.7472144 0.3106302
-0.6329471 0.3160189 -0.7032996 0.3003124
-0.6632942 0.2907976 -0.2503657 0.289309
-0.7230001 0.3272052 -0.3254224 0.3058744
-1.055727 0.298035 -0.9115175 0.3088833
-0.6947134 0.2982805 -0.3702823 0.3268672
-0.9444616 0.2993378 -1.244883 0.316767
-0.760114 0.294562 -0.8739161 0.2934287
-0.8644189 0.2994448 -0.4624058 0.3059994
-0.7271535 0.2962491 -0.830971 0.3300504
-0.7053673 0.3112217 0.09047758 0.300864
-0.8401246 0.294562 -0.5804962 0.3015667
-0.9044563 0.3469303 -0.3898064 0.2954577
-0.7700856 0.2882453 -0.785508 0.3429614
-1.007641 0.3112382 -0.6820032 0.305474
-0.5753641 0.2887954 -0.3442197 0.294224
-0.5722221 0.2879515 -0.05134598 0.3204849
-0.96096 0.3187736 -0.6051274 0.2862234
-0.8856259 0.3036982 -1.234496 0.3294698
-0.6925595 0.2883707 -1.30841e-15 0.2946278
-0.8342799 0.3016509 -0.5389965 0.3021089
-0.8109302 0.349319 -0.5564203 0.307278
-0.7882278 0.2920488 -0.4495429 0.2871599
-0.7231952 0.3050014 -0.293513 0.2901766
-0.8540775 0.3246537 -0.4039707 0.2852287
-0.6554069 0.2889063 0.08161134 0.285719
-0.6781093 0.32822 -0.3577496 0.3001064
-0.8342799 0.3016509 2.52022e-16 0.2837516
-0.7793819 0.2901959 -0.7937771 0.2932096
-0.6190392 0.2897517 -0.6616312 0.3237908
-0.6204627 0.3126092 -0.4081919 0.3212724
-1.288354 0.3106916 -0.5336403 0.3142937
-0.7162282 0.3383806 -0.3746934 0.2894941
-0.7433369 0.2909078 -0.5589572 0.2955253
-0.6737291 0.2932916 -0.6513001 0.3088166
-0.8028461 0.31326 -0.5564203 0.307278
-0.6955085 0.2890455 -0.1840036 0.3036153
-0.7834385 0.291046 -0.4353181 0.3128842
-0.8072925 0.2960321 -0.5389965 0.3021089
-0.7472144 0.3106302 0.2135741 0.2926136
-0.6820032 0.305474 0.2763448 0.3041763
-1.063521 0.3217932 -0.3694039 0.2873836
-0.7053673 0.3112217 -0.3718742 0.2883707
-0.942893 0.3151601 -0.7481904 0.2919664
-1.202384 0.3483266 -0.7793819 0.2901959
-1.127237 0.3256196 -0.7758389 0.30722
-0.7231952 0.3050014 0.05016097 0.3167628
-0.8979416 0.3061654 -0.8855378 0.3122757
-1.05341 0.3373007 -0.08081941 0.2843256
-0.6076549 0.286866 -0.6681797 0.2919664
-0.9258242 0.3035119 -0.2638496 0.3256813
-0.6204627 0.3126092 -0.3854117 0.2937334
-0.6820032 0.305474 -0.5217249 0.3442183
-0.7672552 0.326276 -0.5473104 0.3045818
-0.762844 0.3506736 -0.8472979 0.2960051
-0.7391835 0.290001 -0.7672552 0.326276
-0.8028461 0.31326 -0.8353772 0.3205028
-0.830971 0.3300504 -0.942893 0.3151601
-0.5722221 0.2879515 2.633446e-16 0.2964997
-0.7357068 0.2892411 -0.4893853 0.3152582
-0.8048065 0.3042357 -0.5353588 0.2888231
